solver_type L2R_L2LOSS_SVC_DUAL
nr_class 2
label 1 -1
nr_feature 24437
bias -1
w
0.5668195237101908 
2.995649236587515 
2.075491299516685 
2.09628666217841 
-0.2527248041555979 
0.7124888281190609 
0.8035359860792759 
0.3811074328040873 
2.182200757576268 
-0.7459816173967271 
-0.7952468635247946 
0.008974537287302515 
0.2528981913833812 
-1.186328012575002 
-0.3947934875069311 
-0.5712875318921086 
0.7770586170625271 
-0.4740704777241483 
3.060737903817156 
1.69136560759569 
-0.4197880447521354 
-0.1209314796911179 
-0.1714891977824532 
0.8876444010815184 
-0.904684764494069 
1.606008013365273 
0.6074133949345704 
-1.322989483844308 
1.090011886431909 
0.03273391315708449 
-0.2898415660139392 
-1.207936448772183 
3.372792491489369 
0.6391974026431473 
1.682196010356419 
-0.1037483566736307 
0.215153180163115 
0.9099862541026934 
1.635643474297196 
0.5680192959114717 
-0.6999061404520087 
0.08138417732061391 
-0.2034163271008196 
-1.743948180456945 
-0.5832773941089887 
0.747366553672089 
-0.651899277472023 
0.4499350625979339 
-1.935637785317063 
-0.1498917718116955 
-0.3392749286684948 
0.5636333715501166 
-0.2480483554598064 
1.274073162090938 
1.752902196548264 
2.063105899733011 
0.9630271663775114 
1.356518136916277 
-0.4916064213850157 
-0.417457193237181 
-0.3826825225361319 
-0.860364250496591 
-0.06687013665762848 
0.3550153389227692 
0.2951599938464398 
0.7840972793783186 
-0.5637537842970727 
-0.4047337407396667 
2.504165675839122 
0.613360311905598 
-1.16513119490516 
-0.4291273127088516 
0.9424233773922276 
0.5424628171354138 
-0.2250478102630606 
-0.4121539619463483 
-1.013203073212888 
0.1339798017707965 
-1.132853778474384 
-0.4991415041275705 
0.4962966532719805 
-0.3414783363560742 
1.17227188441646 
-0.03039667151005152 
0.5125663826278714 
0.8816811971613895 
-0.234626021735524 
-0.0217855050000956 
0.1015573003747948 
0.3208801653768353 
-0.6014066491905518 
1.929769934699061 
0.5076989674163611 
-0.7284023799292141 
-0.4589895305116105 
-0.6327758457538081 
0.2356753179627584 
-1.047789794528656 
-0.4895693660201575 
0.07902615317329613 
-0.8892886691602977 
1.302151598139073 
-0.5453964682986069 
-0.7875284892422297 
1.013729049141091 
-0.2423082269798023 
-0.3119606708083024 
0.728085127983528 
-0.2880985987997864 
0.5612428883477215 
-0.2940073750262464 
-0.4967373258515492 
0.07493942549271598 
-0.2534917413311271 
0.5331369806493675 
-0.6072387678188019 
0.7054449181828129 
-0.9840730316368661 
0.8510391319178973 
1.975289118163972 
-0.2453866303119611 
-0.7425468220836337 
-0.3411218520823655 
1.657261483902161 
0.4099713467019492 
0.5011614239144936 
0.5349672594994025 
0.9310850719030956 
0.2770920121209839 
0.9134770949584515 
1.367604279031069 
-1.353665634285203 
0.9530885831227038 
0.2869507691161155 
-0.3148526236782646 
-0.1940804268187182 
0.34461294710279 
-1.157876349898087 
-0.9302000226974645 
-0.4801148044068833 
-1.458167856050325 
-0.3818829119453441 
-0.4508492167306644 
-0.7175147245819176 
-0.4216646747191515 
-0.359696311922086 
0.111983425616379 
-1.070591762263698 
0.85762908792756 
-1.445067139155287 
0.2840517332627017 
0.1685265255015758 
-0.2779206114302474 
0.689850679952347 
-0.03402755851825341 
1.933303979345989 
-0.1099744474110512 
-3.877290019579601 
-0.9285414124722462 
0.02147120538373772 
-0.2359209804783603 
-0.1792149019886657 
0.4287175524327816 
-0.2621391829315453 
1.393200542404331 
-0.09308554880102048 
1.514140804271806 
0.2394364284249757 
0.3884051402786284 
-0.1328186188156162 
0.3286264498356019 
0.2208961779433554 
0.2411618356444906 
-0.7086689176792611 
0.6115590581760694 
-0.09802360987126157 
-0.3273330546161853 
0.2505458358603837 
0 
0.5173526280608255 
-0.3458626554175586 
-0.2527248041555979 
0.5512940653087884 
0.04190794658585426 
-0.2949376429500911 
0.4871097801120309 
0.4480227853681569 
-0.33324497901921 
0.04800182447168223 
0.7124888281190609 
2.813564767969191 
0.2657793777678675 
2.680605705017183 
0.9770016888610773 
-1.529534409555376 
-0.2718167355985052 
-0.8412517800669678 
-0.2718167355985052 
0.01208978519284132 
-0.2718167355985052 
0.675895771617144 
-0.1077300567003982 
0.4209768215262051 
-0.7582283459412866 
-0.8052665591153531 
-0.2408922132250915 
0.06012363753218273 
-0.6745858800883411 
0.0135751021780513 
-1.137497106515024 
-0.1808533328062564 
-0.3553604743659223 
-0.05995671778489964 
-0.03200389557737493 
-0.1366229163316585 
-1.351945273048002 
-0.8412517800669678 
0.6178148544046961 
-0.2873871328763254 
1.522406486981619 
0.0221100583197187 
-0.3161089332474302 
-0.1307937144730732 
0.5974780168356428 
-0.4818250159285316 
0.666488984290429 
0.02211005831971873 
1.522406486981619 
0.0221100583197187 
-0.6610765512147524 
-1.303892146400728 
-5.48563385109779 
-1.061662611446544 
0.07979340066973438 
0.07979340066973438 
-0.3137935329183422 
-0.094583579395603 
-1.567028637786609 
-0.2444385949803953 
-0.5758912270678596 
0.2210201698355964 
-1.967416777101821 
0.0221100583197187 
0.5744276064863987 
0.2507342506270135 
1.909675426167693 
-0.1748279683538734 
0.03343836025155016 
0.4173404909468843 
0.0221100583197187 
0.0221100583197187 
0.3268999466381368 
-0.01097510521632818 
0.5324106137598608 
-0.3161089332474302 
0.0221100583197187 
0.3865687162342992 
-1.786433240701554 
-5.637851296924623e-018 
-0.95225488699151 
-0.1675765576652864 
-0.1675765576652864 
-1.809466954038665 
-0.085461713546965 
-2.292847785528367 
0.4699678073069017 
-0.0009045270127545079 
1.061776074306844 
0.2356456591391676 
-0.2009497330098613 
-0.9944204337456595 
-0.3410158095466062 
-0.3526641000036774 
0.301302487264656 
0.4340352673570189 
0.5377806259209523 
-0.06952321006658641 
-1.786433240701554 
-0.7813311015479989 
-0.8281916481086004 
0.4405604497147349 
0.226435637168673 
0.7326878984686251 
-0.09084066755950493 
0.7576559509421996 
-1.055086675340636 
-0.3590747821979721 
-0.04693151927545598 
1.605377862983283 
0.06305588549503725 
-0.6374736316021316 
0.02919526072729333 
-0.1761365540411429 
0 
0 
-0.4024626116233639 
-0.5971369068598927 
-8.673617379884036e-019 
-0.3009862004243106 
0.7496966719214666 
0.502254959148696 
0.04001413376572854 
-0.3672894750288587 
0 
0.6987196576940687 
0.1507792035228871 
-0.3569505750912527 
0.3450014614354387 
0.3450014614354387 
0.3450014614354387 
-0.7857367638479391 
-0.4876015614774111 
0.2260816201786211 
0.3450014614354387 
-0.5300747407205215 
0.5170297778096167 
-0.297724790677776 
0.1790745691664813 
0.5426778262214885 
-0.5626705467086528 
0.4327127428087889 
0.5588324185246547 
-0.2944484801131199 
-0.2775296003186045 
-0.391563443805118 
-0.391563443805118 
0.5995215719044802 
0.4230298069924704 
0.5841157323309464 
-0.3114176213172619 
-1.011196489133065 
0.3679886444600761 
0.458678259061737 
0.1443954346161565 
1.41054114529905 
2.238912068699453 
0.7685592452122304 
0.2012242816275029 
0.01827880704746855 
0.5720648184995493 
0.2626403852997389 
-0.04553050255731943 
-0.7809781723911168 
-0.8718223688696083 
0.4604700833129737 
0.6904538633096909 
0.295013080535084 
0.5507672884793173 
-0.07482571263408432 
1.786638754716491 
0.03915391165186792 
-0.4040997875015747 
-1.050757990690214 
0.5012468547209421 
0.005712286228763843 
0.183154157008708 
0.4558209169504508 
-0.02445198155288208 
0.183154157008708 
0.6536561506710515 
0.183154157008708 
-0.06591623692744557 
0.183154157008708 
0.2085176771185016 
-0.8024927653163927 
-0.07847738709611475 
-0.07847738709611475 
0.01342288402356042 
-0.0367989103239376 
0.8829774938530228 
-0.2214440304562563 
0.9863313233415585 
0.09337193714992752 
-0.5451589679322144 
-0.01840201854960293 
0.1579486061986021 
0.04082813770186222 
0.1579486061986021 
0.04082813770186222 
-1.032701479198329 
0.6355281043761859 
-0.06178822739496384 
-0.765715996081812 
0.1912179973793159 
0.07562710477817153 
0.04082813770186222 
-0.04572677371958168 
0.1486792731389474 
-0.1595350426389547 
-0.213106262273889 
-0.3109730141091232 
-0.5991306865600544 
-0.2132813187427602 
-1.02982803065558 
-0.05701519291828511 
1.209054414191352 
0.08781373880158573 
-0.213106262273889 
-0.940779724147841 
-0.3085612833714794 
-0.3085612833714794 
-0.3085612833714794 
0.4552936516935391 
0.5660119197501675 
-0.2525827713451038 
0.2245815377082583 
1.734723475976807e-018 
0.4552936516935391 
0.5846748949297387 
1.419140089166852 
0 
0.1306180914570727 
-0.1313169868572975 
0.3951441103960657 
0.5660119197501675 
0 
-0.6500991043211092 
-0.2525827713451038 
0.4008600121953069 
0.4008600121953069 
0.4008600121953069 
0 
0.5075623752555705 
0.3454363199480314 
-1.501620008892424e-017 
-1.501620008892424e-017 
1.464910018539449 
0.5570191233556893 
-0.03294863090113317 
0.3438407591872194 
1.467885044037046 
0.3022277066025446 
-0.7479585011367869 
1.543410016897535 
0.04246462992957271 
0.4109208680109835 
0.7244395922343445 
0.6282925638330208 
0.4825942922491132 
1.228970095654454 
-0.2083813362976182 
1.734723475976807e-018 
1.734723475976807e-018 
0.3329076015984631 
1.734723475976807e-018 
1.734723475976807e-018 
0.9103601960303106 
-0.1442757672381909 
-0.1442757672381909 
-0.1442757672381909 
0.3022277066025446 
0.273716809621481 
0.1174723387334858 
0.03960215345914916 
0.03960215345914916 
-0.327361815944506 
-0.3575500656488624 
-0.7378741926791367 
0.27308498039261 
-0.07887165276791185 
0.7051375036892092 
1.011436421377523 
0.04114446395342197 
-0.9502219982788391 
0.5169326949937031 
-0.5394296727627675 
-0.3056843804630933 
-0.4354489329347228 
0.04310243220417118 
-0.327361815944506 
-0.2248121070223627 
0.04114446395342197 
0.04114446395342197 
0.3128638941205177 
-0.2841018189899495 
-0.1326585963914834 
0.7941731019091689 
0.2262248995509939 
0.06742568300799702 
0.3239697686681412 
-0.2161864853029906 
-0.2875177173286392 
-0.5078311802358817 
-0.2416764617705095 
0.4752345765375116 
-1.158749376232339 
-0.3356375899563509 
-0.07073295067734267 
0.2374074013711438 
0.2374074013711438 
-2.138973741873611 
-0.1783473577644843 
-0.6032093364198393 
-1.519500511518274 
-0.3656289597474267 
-0.1498133890517198 
0.066561157203364 
0.8387164349645624 
-0.1326585963914834 
-0.7898356988052354 
-0.1074966923522214 
-0.8163561738997414 
-0.4535883701538604 
-0.2841018189899495 
-0.6092001259191918 
-0.1882954383020544 
-0.9935984324859087 
0.3589905452883125 
-0.03953050573832268 
-0.2676624730562283 
-0.6522468893883067 
-0.777553673298047 
-0.2794471843021032 
-0.1994821916343582 
-0.3269624625886917 
-0.3269624625886917 
0.5961861550309432 
0.1342324397111398 
-0.2994703070496312 
-0.2052053982320476 
1.342301347218443 
0.1346967199971688 
-0.2764199324265378 
-0.01637698847825837 
-0.2953747583832078 
1.568256396343422 
0.003114380965054819 
-0.6383465619677203 
-1.447395197690191 
-1.574461637583585 
0.4497359028415769 
2.501693889223993 
0.4497359028415769 
1.164695090513131 
0.7193859091336451 
2.501693889223993 
0.2687541492367606 
-0.01910975482305229 
0.07560674549660117 
0.1320195318867348 
-1.102993291298271 
0.3004007047704532 
0.3004007047704532 
0.6803019999035962 
0.5939021584156004 
-0.1603284911829404 
-0.4116139757609103 
-0.8381242478515629 
-1.058453184657102 
0.07560674549660118 
-1.005851630345575 
-0.6744355017726011 
-0.2321473169855904 
0.07560674549660118 
0.4227483655451576 
-0.2167154736442147 
0.09353195091332608 
0.3939834247318395 
-0.1259461088744717 
0.1678901685829418 
0.07560674549660117 
-0.4479724637825588 
0.1768709640986252 
0.4564768779095854 
-0.07786889849128235 
-0.5073134807787468 
-0.5975416355462658 
0.1973300041669854 
-0.3488717747850214 
-0.3316683857480817 
-0.1453039323199308 
-0.4866615362964736 
-0.2998358714172068 
-0.5856256769598279 
-0.8594411011632068 
-0.3257235956763465 
-0.4721404342934989 
-0.0902380261257274 
0.2489112362825321 
0 
0 
0 
0.5591382183329118 
0.06091727108636395 
0 
1.626303258728257e-019 
-0.1822054247008563 
0.696432070154367 
0.2489112362825321 
0.01976857608253332 
0.4078809241190984 
0.04278571028399286 
-0.2505923005956551 
-0.400462704186675 
-0.400462704186675 
0.03001988894773234 
-0.400462704186675 
0.03001988894773234 
-0.1706490487577617 
-0.2768204418211442 
-0.1519221028295263 
-0.1519221028295263 
-0.3164376082696836 
-0.1811064478541621 
0.632196669108926 
-0.126579934443199 
-1.09112876883255 
-0.001861384282871625 
0.498082943846911 
-0.1706490487577617 
-0.2782690372013573 
-0.2551758534749221 
-0.7898442240422727 
1.016924726655607 
-0.1706490487577617 
-0.2162878190298995 
-1.222650148222406 
-0.387692574103038 
-0.1577822135474422 
1.40578548542477 
0.3162792941659654 
0.2917340274203618 
0.3609244623188272 
-0.5537609334229556 
-0.6033370717021346 
0.3360036105187329 
1.136272155044217 
-0.907695771849459 
-0.2051662277591642 
-0.2051662277591642 
0.1125831182229266 
0.3710183223338672 
0.2676212388990176 
-0.1263530603504012 
-0.1263530603504012 
0.4701927486562151 
-0.03039408090201129 
-0.406039135214423 
0.005120376014010651 
0.9241108112168603 
-0.01558504475733485 
-0.9515499558606276 
0.9616861400632191 
1.086865753730381 
0 
0.007326531387337501 
0 
0.7186515326590465 
-0.02614058291199346 
0.1695371771701465 
0.0158455611769557 
0.0158455611769557 
0.0158455611769557 
0.0158455611769557 
0.0158455611769557 
0.0158455611769557 
0.0158455611769557 
0.04228770153603995 
0.03116018294951341 
0.03116018294951341 
0.03116018294951341 
0.47301289411749 
0.03116018294951341 
0.03116018294951341 
1.201217772638801 
0.03116018294951341 
0.1500767796674563 
-0.155287408118524 
2.426379665172298 
0.08020192831546859 
-0.3975269198904931 
1.025329682407726 
0.1639873394391974 
-0.0630302880802802 
0.007326531387337501 
-8.673617379884036e-019 
-1.273937552670468e-018 
0 
0.1004566563579095 
0.1004566563579095 
0.1004566563579095 
-0.1238060794961048 
0.1004566563579095 
0.01839421582441848 
-0.2073776334359836 
0.08068148322021253 
0.08068148322021253 
-1.273937552670468e-018 
0 
0.07356415672450692 
0.02059287387789756 
0.05589860429182665 
-0.6438039154733531 
0.5209107351415026 
-0.03813759506781524 
0.4669817531812135 
-0.2740680815526405 
-0.6162463715686108 
0.5880631028929868 
-0.02419640893081833 
-0.1693907048886805 
-0.07890799415038599 
-0.1693907048886805 
-0.3229751542019247 
-0.1069810861388135 
0.5412296318255473 
-0.1909198016810673 
-0.36037653229573 
-0.3383008589904167 
0.04920121282928236 
-0.1822810573683061 
0.2714996317719166 
0.2665180845926702 
-0.8762530972448612 
0.4011450230223908 
-0.3038354192551031 
-0.07890799415038599 
-0.570787876945676 
0.02475585649477128 
-1.178079024299967 
-0.1716627307171562 
-0.07890799415038599 
0.8151136836420841 
0.1451205398472194 
0.06931768958511747 
-0.1688484823996698 
-0.2100586970602535 
0.1482242930908126 
4.336808689942018e-019 
0.5519801778940163 
4.336808689942018e-019 
4.336808689942018e-019 
0.005682644748058952 
0.02636966657758997 
0.01796573412626093 
0.4412414378618319 
0.9033528922795593 
1.140984926443653 
-1.269950541067189 
0.2780351785142184 
0.2485308505530218 
-1.0041725296255 
0.2036576522886295 
-0.05058046266505585 
-1.113821908332925 
0.03740161801063445 
0.03740161801063445 
1.091117530954323 
-0.3621229833926234 
0.5536081059503898 
-0.1966249239810157 
0.03740161801063445 
0.03740161801063445 
-1.113821908332925 
1.534548191319918 
1.580432192101623 
-0.2085603925199803 
-0.2085603925199803 
-0.2085603925199803 
0.07443242253494885 
-0.2085603925199803 
-0.2085603925199803 
0.03740161801063445 
-0.9832105407078302 
-0.30184829918454 
-0.2899164879357605 
0.3179166123100241 
-0.30184829918454 
-0.2899164879357605 
0.5358529925630293 
-0.04484597596580719 
-0.4889317280181681 
0.02527774596445664 
0.02527774596445664 
0.02527774596445664 
0.02527774596445664 
1.091117530954323 
0.1995950087515057 
-0.2667497463067767 
-0.1286439993962983 
0.4771801395747561 
-0.2545114122936693 
-0.03481516989781033 
0.1785096400738979 
0.3083237203503564 
-0.2084641830401708 
0.5734793527203946 
-0.7772958377555737 
-1.29384842862917 
0.04919176311933297 
-0.6910153340088342 
-0.04821912833741269 
0.07947072639440786 
0.08395247979631258 
-0.2857370371081013 
-0.2857370371081013 
-0.4182702126190011 
-0.6132063092360247 
0.3634760212893212 
-1.337214478871259 
-0.0671508302876897 
-0.7039447972730319 
-1.045212813024758 
-0.1222312013907797 
0.08705381868688349 
-0.4472277757601211 
1.146547878995499 
0.08705381868688349 
-0.1216699783241294 
1.322695944619478 
-1.240940710707219 
-0.2219641959295336 
-0.5925886715004038 
-1.066251384240119 
0.05381315742946865 
0.06098081645621143 
0.2825181673371512 
-0.4422412252878165 
-0.4472277757601211 
0.2376794739000923 
-0.02099686120087574 
-0.3886422685991495 
0.04800958571444974 
-0.08160105930243687 
-0.08160105930243687 
0.4609008575301858 
-0.208563032554882 
0.07061425093198369 
0.1429638153792321 
-0.04038219425692782 
-0.2439107209021875 
-1.02634739988594 
0.124406562020456 
0.3764141394030877 
0.2056210138293223 
1.087649553233692 
-0.5743772487041549 
0.9591481496308726 
-0.5585017292793938 
-0.5743772487041549 
0.414363538897613 
0.1140338434865137 
0.9591481496308726 
0.1140338434865137 
0.1140338434865137 
0.1140338434865137 
-0.3263458139998537 
0.1140338434865137 
0.1140338434865137 
-0.1318351496494772 
-0.5585017292793938 
-0.1902856935186937 
-0.3265668827480172 
0.1702033443796109 
-0.08102916581935819 
0.1775115669950594 
0.009391555220099398 
-0.5777132705965667 
-1.791894926930289 
-0.5625567943809271 
-0.2553547645141367 
0.05976402041050202 
-0.1295886903707525 
0.05976402041050202 
-0.4052089332164938 
0.3136245211752587 
0.1140338434865137 
0.3247475986703541 
-0.1262692367450855 
0.1854143083065862 
0.1854143083065862 
0.3211941302267662 
-0.3990283824202877 
-0.5134213313891458 
0.1607010593183768 
0.002731620506249044 
-0.920596877813146 
-0.2616223195071554 
0.002731620506249044 
0.002731620506249044 
-0.2249528048262169 
0.002731620506249044 
0.002731620506249044 
0.002731620506249043 
0.002731620506249044 
0.002731620506249044 
0.01629883051829646 
0.002731620506249044 
0.002731620506249044 
0.002731620506249044 
0.002731620506249044 
0.002731620506249044 
-0.2089258557925537 
0.002731620506249044 
0.002731620506249044 
0.002731620506249044 
0.002731620506249044 
0.002731620506249044 
0.002731620506249044 
0.002731620506249044 
0.002731620506249044 
0.002731620506249044 
0.002731620506249044 
0.002731620506249044 
0.002731620506249044 
0.002731620506249044 
0.002731620506249044 
0.002731620506249044 
0.002731620506249044 
0.002731620506249044 
0.002731620506249044 
0.002731620506249044 
0.002731620506249044 
0.002731620506249044 
0.002731620506249044 
0.002731620506249044 
0.002731620506249044 
0.002731620506249044 
0.002731620506249044 
0.002731620506249044 
0.002731620506249044 
0.002731620506249044 
0.002731620506249044 
0.002731620506249044 
0.1604050013290593 
0.002731620506249044 
0.002731620506249044 
0.002731620506249044 
0.002731620506249044 
0.002731620506249044 
0.002731620506249044 
0.002731620506249044 
0.002731620506249044 
0.002731620506249044 
0.002731620506249044 
0.002731620506249044 
0.002731620506249044 
0.002731620506249044 
0.002731620506249044 
0.002731620506249044 
0.002731620506249044 
0.002731620506249044 
0.002731620506249044 
-0.2757897992721728 
0 
-1.187515223484362 
0 
0 
0 
0.02368528535715513 
1.288531219208666 
-0.06207117286049162 
-0.358455598533758 
0.1165115887052385 
-0.8974212492569883 
0.07232447930203634 
-1.347965695016946 
0.1540861366039057 
-0.3297411460001741 
-0.3091155942251936 
-0.9418585787580557 
0.2067661433656179 
-0.8856695972737442 
-0.2998801012129644 
0.07829136558234701 
0.07829136558234701 
0.07829136558234701 
-0.4696261915534325 
-0.0362001984526581 
-0.0362001984526581 
-0.2377267990324666 
-0.0362001984526581 
-0.2377267990324666 
-0.2377267990324666 
-0.9418585787580557 
-0.2377267990324666 
-0.2377267990324666 
-0.4052326876655991 
-0.4052326876655991 
-0.7713716274284509 
-0.6277069466544448 
-0.567254200040344 
-0.6277069466544448 
0.2067661433656179 
0.2067661433656179 
0.2717892828144066 
0.8406459928248553 
0.0493253857514956 
-0.02455909542377811 
-0.1600086755140743 
-0.5405472403069024 
-0.730221889003297 
-1.000017804490682 
-0.02455909542377811 
-0.1418527107046179 
-0.5405472403069024 
-1.137456027765127 
-0.1850899536864356 
-0.2568373006205732 
0.03891454688062666 
0.1665469203125621 
-0.5719828617984603 
-0.1502023306666575 
-0.3003850484313111 
-1.304930918252176 
-0.3003850484313111 
-0.3003850484313111 
0.01559730366629219 
0.0374137512592416 
0.09976194406706916 
0 
2.036170169696931 
-0.2238708451062997 
0.01559730366629219 
0 
0.1373482346022839 
-0.2482364632147223 
0.2423874125650648 
-0.01461226424122595 
0.1489559870585727 
0.4253255746918896 
0.5685393487444569 
0.1719201735354986 
-0.2627338373528415 
-8.673617379884036e-019 
-0.3781806299941023 
0.36313699963613 
0.2132783989130626 
0.4828199529046728 
0 
0 
0 
0 
2.870849919805011 
-0.714840489951839 
0 
0 
0.1087339067803578 
0 
-0.5219406168175942 
0 
-0.18464526024483 
2.870849919805011 
0.01871255061347326 
0.01871255061347326 
-0.3321461884655346 
0.4596627547053153 
0.3635081211190103 
0.2889920618817456 
0.04215503691631291 
-0.1635463674693273 
0.2034058596448213 
0.189778435039771 
0.189778435039771 
0.7023507414606085 
0.189778435039771 
0.189778435039771 
0.189778435039771 
0.189778435039771 
0.189778435039771 
0.1565548729549592 
0.189778435039771 
0.189778435039771 
0.189778435039771 
-0.0007627500881534038 
0.1620349116355672 
0.189778435039771 
0.189778435039771 
0.1620349116355672 
0.189778435039771 
0.189778435039771 
0.189778435039771 
0.3771388484541525 
-1.178269855514348 
0.4051890020795703 
-0.2941892102534595 
0.1190411614896276 
0.2034058596448213 
0.2741431331949646 
0.2741431331949646 
0.189778435039771 
-0.1210878718487343 
0.1286151749516811 
0.5983553601017411 
-0.02352611166612094 
-0.1168514107901966 
0.8291481554238069 
0.2434359164683985 
-0.1168514107901966 
0.1701810823011062 
0 
0.8291481554238069 
0.2299036373438615 
-0.1988774559167908 
0.381655012014646 
0.2434359164683985 
0.01986385067230266 
0 
-0.2789933202465065 
0.2136133076625116 
0.2459017910150581 
0.3188201852023067 
0.5738072091039791 
0.5392097366564059 
0.1977471636157488 
-0.3375104740766575 
0.01581623909071909 
1.326785411031631 
0.3372288240630795 
0.07560461211685633 
-0.9273414533364287 
-0.08914033944317813 
1.639229403851461 
0.1992453979484469 
-0.2268353250293927 
0.1615581040927759 
0.1615581040927759 
0.3733566365252826 
0.4269608911583661 
0.1680715610064419 
0.31265969264204 
-0.2526227984405106 
-0.6850901692433398 
-0.2526227984405106 
-0.2526227984405106 
-0.682019274894915 
-0.2526227984405106 
-0.1953727740363452 
-0.6850901692433398 
-0.3899420160988157 
-0.3899420160988157 
-0.2141660940358935 
-0.3899420160988157 
-0.1781387363439825 
0.252908923772784 
-0.3283118683128338 
-0.7829510490667301 
-2.552275015562711 
0.1389613444912459 
0.01919510552837237 
-0.6895087923149823 
-0.645958184768067 
-0.05439412583882775 
-0.1550570469388508 
0.1039907194588287 
-0.09758479711622825 
-0.3187169001881318 
0.2505336624699797 
-0.3668249362890308 
0.1851130029357443 
0.3045337945530877 
0.318367753350484 
0.1201855486366587 
-0.1325002208908521 
0.006517725216525319 
0.006517725216525319 
-0.3026253114182514 
-0.2376998258371803 
-0.2875786321735476 
-0.3714947288019225 
0.006517725216525319 
0.4485468884264179 
0.2154507648207739 
0.2793170064183103 
-0.1231140439793132 
-0.3668249362890308 
-0.5721820038087714 
0.1851130029357443 
0.006517725216525319 
-0.389228819356952 
-0.389228819356952 
-0.389228819356952 
-0.7888575283011873 
-0.0009994602207763082 
-0.0009994602207763082 
-0.2409203677557617 
0.05733501281283288 
0.4931403979527341 
-8.673617379884036e-019 
-0.1629086912241114 
-0.3825517608182899 
-0.1042613637143826 
0.002610777828118545 
0.187544961779278 
-0.4894558461804637 
-0.1629086912241114 
-1.12311969297471 
-0.0439803989474202 
-0.3297858251953151 
-0.8061766838656194 
-8.673617379884036e-019 
0 
0 
0 
0.4534956801686247 
0.4534956801686247 
0.4534956801686247 
0.924144942839591 
-0.4173211660762883 
0 
0.0252751424906815 
-0.1295411395861256 
0.4370880195402263 
0.6238386901820585 
0.1191638284900662 
0.1191638284900662 
-0.2579900667832251 
-0.04107420640845428 
0.1817993451086476 
0.1669225167615208 
0.4370880195402263 
-0.2249305556671421 
-1.456422601898685 
0.01462767158884711 
-0.2249305556671421 
-0.085034113399015 
0.2280223091112352 
-1.456422601898685 
0.03644759965211293 
-0.3605543891844664 
-0.178181035429228 
1.084202172485504e-018 
-1.048733267851848 
-0.962024691373816 
0.1429506882450003 
0.01462767158884711 
0.01912532846547924 
1.084202172485504e-018 
-0.09244836674111467 
-0.2104773195824611 
0.03173801435243903 
-6.505213034913027e-019 
-0.07461967635035323 
-0.1246995948472695 
0.110694273960526 
0.5451839572681304 
-1.878062183320276 
0.03688236419486683 
0.1161692543028911 
-0.3435769700461584 
0.3696978196414297 
0.05789457069396951 
0.03688236419486683 
-0.02565401791998261 
0.3622443688206986 
-0.6827209712935335 
-0.5167217325219775 
-0.3527024113741393 
0.2886747701422689 
-0.2901826339536749 
0.2843298768574582 
0.03884033244561606 
0.03884033244561606 
0.4930076444345778 
-1.878062183320276 
-0.3086150216800161 
0.03688236419486683 
-0.02225081534278521 
-0.01207118006718397 
0.06445999166520247 
-0.2956659904294749 
-0.7249100771160809 
-0.120854547380523 
0.501625515548264 
-0.1900787616536482 
0.08417835464223372 
-1.228415850245981 
0.3931625357707514 
-0.4168799753067302 
-0.1900787616536482 
-0.2172048564083207 
-0.6166841877967833 
-1.734723475976807e-018 
-1.28273174850825 
0.01001578288097145 
-4.336808689942018e-019 
-0.110605518570854 
0.4045180761533545 
0.5972396865970701 
-0.1035330465294592 
-0.1086048486534457 
-0.2835710792206302 
0.05051822817979761 
0.04552489141626132 
0.07913548727277361 
-8.673617379884036e-019 
0.08417835464223372 
-0.6479900846805684 
-0.5167914487103645 
0.1193098083922139 
0.1877115483384226 
-0.3766500813786521 
-0.03460242304135444 
-0.05024106246761582 
0.1992333921376426 
-0.0734376672774513 
0.7001484560137409 
0.1193098083922139 
0.017241006385608 
0.1656883933528165 
-0.06957418897379687 
0 
-0.6570629640066161 
0.3207164901972162 
0.3249484631296287 
0.03661897732236175 
0.5122040400162462 
-0.002956973918555498 
-0.4145803192474109 
0.7633259765389293 
-0.06730392474944065 
-0.6686105112406019 
-0.1353461902593072 
-0.1353461902593072 
-0.1353461902593072 
0.6359061486370016 
0.3692533671109031 
-0.4804367475561176 
0.03150681218368137 
0.04186522044106543 
-0.06207803067117922 
0.07195293109035322 
-0.06207803067117922 
-0.06207803067117922 
-0.5588136101528645 
-0.06207803067117924 
0.2611591615019026 
0.2419879378178571 
-0.06207803067117922 
0.7516628266496311 
0.6055423938719251 
0.1389405795028563 
1.328586430569727 
-0.616092239704613 
0.01202549154440724 
-0.06207803067117922 
-0.3073852521792567 
-0.3338335657832257 
-0.1774959608715339 
-0.0172783360004442 
-0.06207803067117922 
-0.06207803067117922 
-0.3185599045230124 
-0.3185599045230124 
-0.3185599045230124 
0.155479511225067 
-0.4804367475561176 
-0.2525814836499359 
-0.2751110124973892 
0.5379099659472388 
0.4224854959984168 
0.2712111454867267 
-0.03956394736151644 
0.1857167408266877 
0.1857167408266877 
0.01001378196539924 
0.3854187143690506 
-0.6417601544955235 
-1.065833325956312 
0.01001378196539924 
0.01001378196539924 
0.01001378196539925 
0.01001378196539924 
1.381179079457421 
0.01001378196539924 
0.2731126338856211 
-0.5557582389091617 
0.04741473003337971 
0.01001378196539924 
-0.2751110124973892 
-0.2899071676254468 
0.06022278114100968 
0.06022278114100968 
0.7350807379055416 
0.1716265084497591 
-0.2934480595720053 
-0.7422836918117206 
-0.2134846516010776 
-0.4274599240214597 
-0.146142211468481 
-0.3950315674280305 
-0.489323532799232 
-0.1944125956541074 
-0.3778545325092462 
0.01078181066400615 
-0.2379414125550421 
-0.73604191918953 
-0.2139678485905233 
-0.1944125956541074 
-0.1944125956541074 
0.1044923607433908 
0.1312473577612531 
0.2841095365194264 
0.1421545261414282 
0.2841095365194264 
0.2841095365194264 
-0.331712480894063 
-0.3921394052463136 
0.995451854011378 
0.3583509691974434 
0.3105792713733138 
-2.730168912884488 
0.2841095365194264 
0.6475725000273247 
0.1197720835791699 
0.3625912273985253 
0.1716955700830149 
0.03318680384772771 
0.8127123533660409 
0.09579817552125636 
0.405727856094297 
0.2841095365194264 
0.2569989018143585 
-0.1489896945238404 
-0.3822497668301335 
0.03290055848237639 
0.07579914785761968 
-0.07251786199763842 
-0.03956923109650522 
-0.1187379506284325 
0.2985845230246838 
0.0426572344584267 
0.4196883218296118 
0.04278068703834406 
0.0426572344584267 
-0.202305643107162 
0.0426572344584267 
-0.03804245630430368 
-0.2422887907212899 
0.3263742164329058 
-0.1668274216215567 
0.2488677821817925 
-2.134523027080837e-018 
0.1465427348525289 
0.1465427348525289 
0.1912942253880472 
0.07041122490658833 
0.002236495900316634 
0.3007119525292593 
1.821459649775647e-017 
-0.2422887907212899 
-2.134523027080837e-018 
0.4036054960789251 
0.1218281698103584 
0.468734175505847 
0.3172792899358403 
-0.2481003015180273 
-0.1623756886866331 
0.2143173793371903 
0.3165222863706949 
0.5962080998538725 
0.4985631506714717 
0.9467210165903717 
-0.05995944412882213 
-0.05995944412882213 
-0.05995944412882213 
0.2761490112042575 
0.2761490112042575 
0.2451777312245957 
0.2761490112042575 
0.2451777312245957 
-0.4598707027008871 
0.1610065857797162 
0.2320699093704473 
0.3270522031866489 
1.058847351311602 
0.1927825755437252 
0.6313945541582391 
-0.5351432136804208 
0.7978376539514797 
0.1127655690163351 
0.2895444012540889 
0.1610065857797162 
1.67211065155119 
0.04526372439226206 
0.1780723747440038 
0.573077199965961 
-0.3509296248603602 
-0.4671072756683856 
-0.07224944908039052 
-0.07224944908039052 
-0.01113368429337056 
-0.245017854154356 
-0.06488024970027967 
-0.4671072756683856 
-0.07224944908039052 
-0.3509296248603602 
0.6398052371996916 
0.235789019494072 
-0.005674523382484992 
0.1860855214027954 
-0.2326888371272127 
0.322706137648487 
0.1315321550344673 
0.1315321550344673 
0.2540504662340062 
0.2904321933687008 
-0.2380742277278615 
0.1481228327386317 
0.2749396322600309 
0.5682509377359263 
0.4791296018904576 
0.347538951606488 
-1.301042606982605e-018 
-2.687202795295398 
-0.3702755382706295 
-0.2345327469107642 
-0.4062498234136483 
-1.239828963139869 
-0.4182077601649308 
-0.4098038277136019 
-0.6357178604200154 
-1.395215764950685 
-0.9842682306540772 
-1.327365517308892 
-0.229604421112702 
0.317001563690574 
0.1132414316609741 
0.0001234525799173632 
1.734723475976807e-018 
0.01024172664818322 
-0.1140947758624546 
0.317001563690574 
-0.2849941853435485 
-0.2988320661029573 
-0.7288321845398955 
-0.8914370800386468 
-1.198545374481982 
-0.274380479027905 
-0.274380479027905 
-0.274380479027905 
-0.2988320661029573 
-0.3368407540753162 
-0.2932258378282809 
0.02790007364425816 
-3.266937525405265 
-0.1888284097537893 
-0.06892162933751309 
-0.06892162933751309 
-0.06892162933751309 
-0.2849941853435485 
-0.06892162933751309 
-0.06892162933751309 
-0.06892162933751309 
-0.558019095221698 
-0.02116746491998017 
-0.06731192135126088 
-0.06731192135126088 
-0.0476639367656159 
-0.1691804251681442 
0.4095935789862696 
1.848667599034281 
0.01480285353461494 
0.00742081176023372 
0 
-0.8626460729298316 
-0.2713191670683214 
-0.1977198804457917 
-0.1119086579361227 
0.2840851036088732 
0.5997431882109466 
0.1414348465166821 
0.08349478398690059 
-0.5873834043085942 
-1.188965531045648 
0.326321659585795 
-0.2212894989829303 
-0.2212894989829303 
-0.1882043354468834 
-0.9942573111149964 
-0.3004737543377123 
0.5222596503692701 
-0.1148801679918832 
0.056320840981298 
-0.2296950527679624 
-0.2296950527679624 
0.2482589847425634 
0.2482589847425634 
0.4612942769547658 
-0.3393852083234217 
0.6196255827818062 
-0.135976220117828 
-0.3195158368802104 
-0.1151757165400471 
-0.4605387366569451 
0.01173287526545537 
-0.1148801679918833 
-0.398459333552491 
-0.1148801679918833 
0.1116606266610371 
-0.255575394169942 
-0.5873834043085942 
0.08168261654097894 
-0.158662646961768 
0.2722709895929384 
-0.1097831168114719 
-0.01590143401490184 
0.183419390693066 
-0.1844378301363933 
-3.469446951953614e-018 
-3.469446951953614e-018 
0.5426605712687409 
-3.469446951953614e-018 
-3.469446951953614e-018 
-3.469446951953614e-018 
-0.655420647665663 
0.04888531457693138 
0.2479908154014691 
0.01664984925493896 
0.01504014126868671 
0.02369933789069095 
-3.469446951953614e-018 
-0.08298178371151614 
0.4536181332969452 
1.426202668036623 
-8.673617379884036e-019 
-8.673617379884036e-019 
-8.673617379884036e-019 
-0.8631531925200501 
0.4146036837008544 
0.3500063562401814 
0 
-0.4386759224002584 
-0.3374430140697009 
0 
0.1897620898530413 
-0.4273589182922059 
-0.4273589182922059 
-0.2753128806973265 
-0.2753128806973265 
-0.1306126235059877 
0 
0.3467259093882606 
1.775290712044725 
-0.2887878160621219 
0.08593277438486952 
0 
0.9012788987009154 
0.3865612611637337 
-0.6584581853794489 
-1.167272459879803 
0.4788436586150323 
-0.1079624257983475 
-0.2933195954383059 
0.07970966698297163 
-0.1922955696833308 
0.04114344899310363 
-0.6565201970051888 
-0.04226814595699927 
-0.5964961284943856 
-0.5964961284943856 
0.1284209205138855 
-0.01632713478911753 
-0.1130598238894071 
0.2835905025065337 
-0.196112275895125 
0.4166157534403359 
-0.1922955696833308 
-0.1922955696833308 
-0.3774033100578503 
0.03162717438154683 
-0.4605790411172346 
-0.6367519881513382 
0 
5.312590645178972e-018 
-0.2943635145003821 
1.530256121004608 
0.09513427432825831 
0 
5.312590645178972e-018 
0.2666492723761677 
0.3655899844060438 
0.2517228249743407 
0.2596716366979757 
0.07612223826546628 
0.1949845014352735 
0.9605528399318584 
-0.7656066447520247 
0 
-0.2881697024846269 
0.1626812097558014 
0.4550442277332126 
1.051765461583649 
0.2175575418962461 
0 
0 
0 
0 
0 
0 
0 
0.08665675586172637 
0 
0 
0 
0 
0 
0 
1.301042606982605e-018 
0 
0 
0 
0 
0 
0 
0 
0 
0 
0 
0 
0 
0 
0.1640866788981068 
0 
0 
0 
0 
0 
0 
0 
0 
0 
0 
0 
0 
0 
0 
0 
0 
0 
0 
0 
0 
0 
0 
0 
0 
0 
0.04706687276117097 
0 
0 
0 
0.2797573992975675 
0 
0 
0 
0.01434549033851601 
-0.05810939401714321 
-0.05810939401714321 
-0.05810939401714321 
-0.05810939401714321 
0 
0.01743162673998996 
-0.05810939401714321 
0 
1.186109174835104 
0.4550442277332126 
0 
0 
0.01667657647098605 
0 
0.9677685543703858 
0.07163013709693203 
0.6681887931153515 
0.2925277672961115 
-0.139809320647852 
-0.1550575929857334 
0.2264355411338318 
-0.1142030893122507 
0.1700643374593927 
0.04263665990696233 
0.6694305046587282 
-0.3340474529405444 
0.1461276731234851 
1.244343415569561 
-0.2944730531110458 
-0.2944730531110458 
-0.2944730531110458 
-0.2944730531110458 
-0.06833207792963864 
0.1842071687494305 
0.06078503916061871 
-0.05908596296205827 
0.05521408117050192 
0.0570428187854349 
0.0570428187854349 
0.1974942457720877 
0.2183732452716187 
0.2805577019744555 
0.06078503916061871 
0.06078503916061871 
-0.2334021120952258 
-0.09320679039005821 
0.0805132580310463 
0.1030638226367983 
0.1030638226367983 
0.007341636878601874 
0.04058673938326669 
0.1035250020441578 
0.07398879589948057 
-0.05908596296205827 
0.05691936620551755 
0.1431965576240591 
0.3238427587291704 
0.1310726855778813 
0.1310726855778813 
-0.08062806252826234 
0.1431965576240591 
0.1431965576240591 
0.1872656719386218 
0.3283548746317316 
0.6035845412886206 
-0.003090357644229869 
0.1431965576240591 
0.4102884877958729 
-0.2689563107340952 
-0.1473093091390228 
-0.244835880526132 
-0.1538820726617748 
-0.3063947916934874 
-0.5274622945225971 
-0.5274622945225971 
-0.3326907407199564 
-0.1268282142363157 
-0.168178777102108 
-0.2638419782891106 
-0.01987705469886767 
-0.1785649192646154 
-0.005070093659145266 
0.2169284862261199 
0.1690010528517032 
0.2169284862261199 
0.4525015208738107 
-0.07674873799967637 
0.245772428745986 
-0.332669935044662 
-0.0776513718556567 
0.1573477850652833 
0 
-0.1196710178716096 
0.2390932779765004 
-2.602085213965211e-018 
-1.137072669269447 
-0.313181272456343 
0.6786539026926897 
0 
0 
-0.04168022789937528 
-0.1941573136784187 
-0.0364902327548551 
-0.1941573136784187 
-0.6914112488784445 
0.2305008250839426 
0.2305008250839426 
-0.003931498350548067 
-3.828588921589438e-019 
-0.1861630971752618 
0.3086880989816748 
-0.2091950675925579 
0.09809080180989545 
0.1952924828342233 
0.1022473935722451 
-0.3407979526448292 
0.09460309944757012 
0.2281810218001953 
-0.313181272456343 
0 
-0.08032304043883462 
-1.240289864817282 
-1.041132523087453 
0.00809031009113963 
-0.08032304043883462 
0.3093883844611899 
0.4864405278958588 
-0.08032304043883462 
0.5385424777896948 
-0.02885980109564737 
-0.2289595528019311 
-0.3070927183004851 
-1.240289864817282 
0.2067466226964328 
-0.2658817687628772 
-0.1738504513566322 
-4.553649124439119e-018 
-0.9684905793598619 
-0.1738504513566322 
0.06935177026109252 
-2.602085213965211e-018 
-0.1430333039771722 
-0.1450661736991903 
0.1726076639119494 
-0.1170269852222679 
-0.2658817687628772 
-4.553649124439119e-018 
0.1955425333355096 
0.05798047665818473 
0.0276981199279205 
0.07419635983236478 
-0.6237310113200059 
0.1786652775076223 
-0.1916838558394636 
0.05865616712150167 
0.08805071503064639 
0.4188191174530045 
-0.2299495760279404 
0.3787168378836078 
0.3253071853886583 
0.1244423017624748 
0.9332222370593355 
0.1244423017624748 
-0.370071576413793 
0.2879825005390027 
0.2590343861351101 
0.3069577902574441 
0.1732930313453434 
0.7967755325090772 
0.3762431245778317 
-0.07080867794247728 
1.957955005374419 
0 
0.1572968517038836 
0.02401533248270227 
0.02401533248270227 
0.6238679984169271 
0.1777939015025933 
0.3453739721665685 
-0.01616781367032865 
0.0385382394483303 
0.0385382394483303 
-0.07400405087860082 
-0.1029313760361342 
-0.01164421250992782 
-1.310589069123582 
0.2420588343971432 
-0.6484801276195359 
0.04613234016901683 
0.05648463741681169 
-0.6484801276195359 
-0.08704259921730116 
-0.8171318645984678 
-0.7397557135816644 
0.8993040784237343 
0.05648463741681169 
0.05648463741681169 
-0.01439530964798044 
0.4068924944443744 
-0.2616080602954224 
-0.2616080602954224 
0.04613234016901683 
-0.2001618126303981 
-0.2001618126303981 
0.1601416176936622 
-0.2001618126303981 
0.1459374573735939 
-0.0917217621927556 
-0.9703669452332062 
-0.4710295487674401 
-0.6492630614832119 
-0.4710295487674401 
-0.2121700277784312 
-0.2635660285461717 
-0.1488609312090602 
-0.2635660285461717 
-0.641994587094368 
-0.1410455445219748 
-0.10129822091819 
-0.6492452315420827 
-0.01854980460527017 
-0.3685730503940063 
-0.1994732421142747 
-0.08821403408103279 
0.2209106395229394 
0.1182439680882607 
0.7089751475038849 
0.1182439680882607 
-0.1255298830892718 
-0.2635660285461717 
-0.2635660285461717 
-0.6702759274406627 
-0.07450952292903706 
0.5429241725576056 
-0.07450952292903706 
-0.07450952292903706 
-0.07450952292903706 
0 
0.1338424693404217 
0 
0.08103739686976651 
0.190429348725402 
0.3978128834961558 
-1.493441188345642 
0.1206189640618705 
0.2291619248447286 
0 
0.5429241725576056 
0 
0.362446199138083 
0.1372909909343377 
0.1372909909343377 
0 
0 
0.04865831488324632 
-0.1842909320060165 
0.6326683396973148 
-0.09318890534731979 
0.183937229979346 
-0.09318890534731979 
0.2215026830293298 
0.5166591906226143 
-0.9230435649727677 
0.3016967574104923 
0.1078149917138799 
0.1355855929904947 
0.1078149917138799 
0.4571455450068888 
0.2022288439225647 
0.1734697879449083 
0.5134613078379348 
1.032043488020393 
-0.03176408177089572 
0.01711807097845102 
-0.03318073517351745 
-0.02847512700036108 
0.002935795044605301 
0.5134613078379348 
0.1184431759870635 
-0.0896625251993361 
0 
-0.2624480463810963 
0.1224570078292716 
0.1224570078292716 
1.032043488020393 
-0.0004042479299942965 
0 
0.7081273672813416 
0.2265637314351048 
1.676094203756201 
0.2228529414784354 
0 
0 
0.621396425297484 
-0.2340265419916501 
-0.2340265419916501 
-0.5475771309638893 
0.2292197965805095 
-0.5349415767668606 
-0.2782741769962382 
-0.2782741769962382 
-0.5349415767668606 
-0.06615580950781291 
-0.228531498194446 
-0.05293037895925169 
-0.1581524272193467 
-0.01063363780122407 
-0.2502841931450958 
-0.755305985783627 
-1.717839799199151 
0.4095609875133829 
0.5446271518906134 
-0.4615412688436963 
0.3711349499928759 
-0.1799535889832775 
0.3935627255055736 
0.02948345727094977 
0.1870382127632193 
-0.2713450010280722 
0.5779818431772659 
0.08153473682995258 
0.08153473682995258 
0.6139826120875346 
-0.3290697886641442 
-0.3290697886641442 
-0.1299400510571933 
-0.1299400510571933 
0.006478722347066078 
0.5093176166643454 
-0.4868630333988657 
0.05886745284856696 
-0.3293108154473105 
0.5779818431772659 
-0.01108732864215893 
-0.3941293178678295 
0 
7.589415207398531e-019 
0.4917296432001674 
0.07741982158769627 
-0.4029942228743387 
-0.3087276926591782 
-0.3967274822525235 
-0.9720297919758897 
0.810014979863431 
-0.1677777724203866 
0.07741982158769627 
0.07741982158769628 
0.07741982158769627 
0.07741982158769627 
0.9578520854646508 
0.07741982158769625 
0.02051524396672824 
0.4917296432001674 
0.4917296432001674 
0.128221522081157 
-0.1404281958833677 
0.7794157102974453 
0.07741982158769627 
0.3721114813004975 
0.04519732538753914 
0.07741982158769627 
-0.5380771544043802 
0.5143070640459829 
-0.2073448445467754 
-0.2073448445467754 
0.06984729901964445 
0.06239732051431014 
0.06239732051431014 
0.996570543974174 
8.673617379884036e-019 
0.1708240248449628 
0.4218958987452619 
-0.5655786700057823 
8.673617379884036e-019 
0 
0 
-0.4147857872722213 
-0.2294509941399889 
0.2692140981242578 
0.5896569776366387 
0.2692140981242578 
0.2692140981242578 
0.9367583539094635 
-0.1596868504587158 
0.03994965025329466 
0.03994965025329466 
0.2728479662981416 
-0.500709386941551 
0.1957784541366669 
0.03994965025329466 
0.03994965025329466 
0.4337680060645938 
0.1421280964977796 
0.2601683585978963 
-0.02200538495204599 
0.2224181352149449 
0.1421280964977796 
-0.740186339513257 
0.229651923349236 
0.4008927052631467 
0.1421280964977796 
0.2878890926992662 
-0.08362321491616401 
0.05531107712875923 
0.1399774369683318 
0.2394645730031361 
0.2394645730031361 
0.1421280964977796 
0.1013001210747521 
-0.3910707851484697 
0.6023321184133633 
-0.1988748019182052 
0.1630034575254375 
0.8795901798805662 
-0.4990975505375652 
0.4772153650348071 
0 
-0.01052439683782471 
0.282585195635603 
-0.03958571897158273 
-0.03958571897158273 
0.4772153650348071 
0 
0 
0.10571538781957 
1.081441277894632 
0 
-0.09726488351935898 
1.205118744094057 
0.07613092907557895 
0 
0.5441065861206837 
0 
-0.3565736424934178 
0 
-0.2689986490367537 
0.4352801174671501 
0.09618430463218158 
0.04991414058239142 
0.861588818146302 
0.5838356779463603 
0.368497535487722 
0 
0.4148345859493376 
0.1743151428691475 
-4.336808689942018e-018 
0.1692420802348577 
-0.09735484815850895 
0.1501827177646537 
-0.2689986490367537 
0.4352801174671501 
0.06991046087767427 
-0.02069673722577513 
-1.002318009396439 
-0.06591303108185051 
0.09618430463218158 
0.1155756276494265 
0.7216048258669326 
0.1816172620157293 
0.2227608814966661 
0.07043725966016914 
1.287840197558631 
0.8763299906307832 
2.269193816641411 
0.4212251510879212 
1.064650270394438 
0.5023870792586687 
0.07576938803316709 
-0.2999515809563619 
0.1820359467792112 
0.08420045934799952 
0.004339911040929938 
0.5062326184142476 
0.1529651649635307 
0.5023870792586687 
0.1383326587032046 
-0.1006452586864001 
-0.1006452586864001 
1.404298321770499 
0.221428748517084 
0.07576938803316709 
0.07576938803316709 
0.07576938803316709 
0.07576938803316707 
-0.453790803871388 
-0.1000571122476739 
-0.2106861774752503 
-0.1017472279730322 
0.08627668333584054 
0.08627668333584054 
0.5488649178494843 
0.5085664721207819 
-0.1489571719586616 
0.0653833793248136 
0.05507079195215707 
0.0653833793248136 
0.05507079195215707 
0.9064747265683247 
0.6070492366071856 
0.5910426953137861 
0.05507079195215706 
0.05507079195215706 
0.5558343595205956 
0.05507079195215706 
-0.5311447365544794 
-1.259246316325285 
-0.4954452919811092 
0.2394928295844468 
-0.5311447365544794 
-0.5311447365544795 
-0.5051288012192742 
-1.478160081237116 
-0.5106592495519933 
-0.7249624108402945 
-0.7249624108402945 
-0.7249624108402945 
-0.7389012003692902 
-0.8256261091423375 
-0.8256261091423375 
-0.8256261091423375 
-0.1883832824945284 
-0.5106592495519932 
-0.2230897246877309 
-0.2230897246877309 
-0.8088830170582568 
0.2208949617905189 
-0.1683879247683694 
-0.1683879247683694 
0.4648453660331387 
-0.3381451535945625 
-0.8098988507160408 
-0.2978770599086978 
-0.130755893753276 
0.02786871730505689 
-0.5051756325287662 
1.333331963116657 
0.00770292455389215 
0.06723491121870129 
0.007998473102056012 
0.06976758437534705 
0.3192901725476905 
0.3192901725476905 
0.2940900679705913 
0.2657790840467816 
0.2940900679705913 
0.2657790840467816 
0.2657790840467816 
0.4145245554567023 
0.1721968972832127 
0.13199696748112 
0.005852991989602292 
0.2372182696825655 
-0.2152844120104013 
-0.01467216163881509 
-0.09481267990140896 
-1.262999739265414 
-0.3314175799581446 
0.5162064879397557 
-0.4851795936163875 
-0.2152844120104013 
-0.1520530441663021 
-0.2839166607769882 
-0.3361483893763239 
-0.4269332432630209 
0.876325539636584 
-0.2280552977863062 
-0.451845742590999 
0.5202858428555385 
0 
0 
-0.2250254719062763 
0 
0 
0.3881093262667225 
-0.6121618747021567 
0 
0.6599432811568859 
0.4031371060434577 
-0.1143065699302692 
-0.4204641333822664 
0.7234891703625137 
1.734723475976807e-018 
0 
0 
0 
0.05035406733214447 
0.7234891703625137 
-4.336808689942018e-019 
0 
0.2902171041061232 
-0.02964070487087817 
0.1886447494797225 
1.734723475976807e-018 
0.04769457658055204 
1.994457386767467 
0.8407904840638518 
1.994457386767467 
-0.1910236752669221 
-0.1910236752669221 
-0.2852068815664297 
-0.258195003606405 
-0.2852068815664297 
-0.3046458511040473 
-0.2895438562515176 
-0.02020159589666814 
-0.2852068815664297 
-0.4012363290026073 
-0.3827827129488421 
-0.1696950692926451 
1.734723475976807e-018 
0.1765884217094141 
0 
0 
-0.2805134265421065 
-0.05426982307601166 
-0.1478638285905607 
0.6338297685935944 
0.2538543637212443 
0.008059771934159953 
0.01771968055940043 
-0.2383861722041658 
-0.1716426677628191 
0 
0.129892048789035 
0.03125832475405151 
0.415357762727894 
0.3030313524816874 
0.2696843378169582 
-0.4690225565365278 
-0.7719253927157378 
0.4354279344238722 
0.415357762727894 
0.2783711462895223 
0.3029078999017702 
0.3029078999017702 
0.4791941426103907 
0.4791941426103907 
0.3516383646376678 
0.3534339325462293 
0.2241740671882757 
0.2241740671882757 
0.7190767668534049 
-0.4831606780840353 
0.4332935031592406 
0.4542536899745913 
0.1854661245808623 
-0.01714676996210565 
0.1293331279038154 
0.6291849259392812 
-0.574411409972732 
1.149099245286054 
0.3724339128275918 
0.4332935031592406 
0.7142490445876166 
0.6462508142963773 
0.2077093909287391 
0.6386991530372141 
-0.1099668579910174 
0.04180131449680948 
0.391313140158921 
-0.3045475196951249 
6.505213034913027e-019 
0.3730497611839733 
-0.2221332153001565 
-0.2221332153001565 
-0.1479560281180735 
-0.2815034788036565 
-0.2815034788036566 
-0.8993837474208187 
-0.4945598349116075 
0.02409979252751081 
0 
-0.324851633913331 
0.2962627503560468 
-0.0319154446547048 
0 
-0.7509063951174237 
0.01964798458564497 
0 
0.7128288612438759 
-0.1285544094805725 
-0.15502414433446 
-0.06551598224941371 
-0.08851327646981749 
-0.08851327646981749 
-0.08851327646981747 
-0.1852738925557987 
-0.04081442223289072 
0.2810324188986147 
0.2229785342771154 
0.2810324188986147 
-0.344102266994523 
-0.3085016446067202 
0.1691572552788542 
-0.1852738925557987 
-0.5019329167156961 
-0.1852738925557987 
-1.380071318887133 
0.03804527717114763 
0.3808991902905384 
-0.353614031287433 
-0.4403957807043428 
0.3076032392026219 
-0.8511468044692515 
0.3207164901972162 
0 
-0.7791260748432921 
-0.41088097527643 
0.3977735363113171 
0.3207164901972162 
-0.06638690442842178 
-0.1972212504174877 
-0.4516991534226542 
-0.2778487020660219 
-0.2778487020660219 
-0.5545043629493501 
0.1491163849646435 
0 
0.1302916038654353 
-0.6127267878948276 
0.7430020214597883 
0.3700192156617147 
-0.2908855705309037 
0 
0.2064458966925196 
-0.5545043629493501 
0.2001607903728281 
-0.7629846282761004 
-0.7629846282761004 
-1.06268584080846 
0.2820264962249013 
0.1000712560951676 
5.095750210681871e-018 
0.01936693634485881 
-0.07332416745500012 
-0.07332416745500012 
0.1629443941230353 
-0.09547171506924652 
5.095750210681871e-018 
-0.646631250054565 
-0.4675841036978471 
0.4629336893830318 
0.1397602340390379 
0.3149311446064461 
1.49572446604421 
-0.1869946039700369 
0.0977074827862129 
0.5309449754146198 
0.6562732587583467 
0.08639368185662491 
0.2043641991649186 
0.4629336893830318 
0.1566704748030968 
0.1566704748030968 
-0.09586877187597244 
0.3013546639845725 
0.2406856369381948 
0.04201676005583521 
0.04201676005583521 
0.04959215805587582 
0.0591348310342862 
0.04201676005583521 
0.1916478787851001 
0.2471129604791245 
0.2882606568252892 
0.0403509664464203 
-1.132410721327858 
-0.01275600555223644 
0.2124250422839533 
0.1566704748030969 
-0.07450200221579557 
-0.1793000550414688 
-0.1793000550414688 
0.03018188408873105 
0 
0.1101031518760806 
0.04084063428463884 
0.04084063428463884 
-0.324009999765711 
-0.5369582328433475 
-0.114305423512129 
0.08589565137766571 
0.4104857532400069 
0.1782401547410574 
0.1782401547410574 
0.1047626180260174 
-0.4109298394506468 
0 
0.5025326423254442 
0 
0.04251134825969299 
0 
0.4177062492123086 
-0.3540943291414273 
6.938893903907228e-018 
6.938893903907228e-018 
-0.3311455306767799 
0.4251567279143881 
-0.5402616958871924 
-0.4144754117113756 
-0.5402616958871924 
-0.5526558903915142 
-0.4967908434291264 
0.09672245573643182 
-0.2769095041161768 
-0.4842543486629521 
-0.2769095041161767 
-0.2769095041161767 
-0.2769095041161767 
-0.01013877082644702 
-0.1154556250500756 
-0.1154556250500756 
0.3443087133382754 
0.3443087133382754 
0.3443087133382755 
-0.4144754117113756 
0 
-0.3888954999686237 
-0.2514621935862934 
0 
0 
-0.5531923243796597 
-0.1501862842708833 
0 
0 
0.000913036596494174 
0 
0 
0 
0 
0 
0 
0 
0 
0 
0 
0 
0.3131941019627694 
0 
0 
1.680449131483506 
0 
0 
0 
-0.4250440337615642 
0 
0 
-0.9521189600532046 
0.383893317081353 
0 
0 
0 
0 
0 
0 
0 
0 
0 
0 
0 
0 
0 
0 
-0.454988327944141 
0 
0 
0 
0 
0 
0 
0 
0 
0 
0 
0 
0 
0 
0 
0 
0 
0 
0 
0 
0 
0 
-0.2276844253324659 
0 
0 
0 
0 
0 
0 
-0.1501862842708833 
0 
0 
0 
0.4058101652287581 
0 
-0.01302821762636666 
0.258033730079932 
0.1996907282285357 
-0.3195005666684699 
-1.766515580227188 
-0.1486549778081344 
0.3042862071915827 
0.3042862071915827 
0.3042862071915827 
0.9510177081382456 
-0.01302821762636666 
0.244736698316387 
0.2625388458152191 
0.2625388458152191 
0 
0 
0 
0.3409136162843421 
0.6244189401701777 
0.1608193992710863 
-0.2244480789893659 
-0.2631895312154169 
-0.3106525107891437 
-0.3045582310240982 
-0.3045582310240982 
-0.6529250268787459 
0.2132062983011621 
0.2132062983011621 
0 
1.748276003132876e-018 
0.1377236140808797 
-0.2097999571989217 
0.4935245371629012 
0.2190624102684222 
-0.2009308712672019 
-0.5156662560142341 
0.4589237803632082 
0.2054786328102415 
0.6703523062826093 
0.3160845380804574 
0.741792364172575 
0.741792364172575 
0.7417923641725751 
0.4219140461008182 
0.2054786328102415 
0.5894449363900102 
0.5435422648769205 
0.4024856518464365 
0.4024856518464365 
0.2782136538347306 
0.7168705927371517 
0.3219359312913334 
-0.09392043471994513 
0.02165161654440978 
0.1922696052479611 
0.1105495355057039 
0.1105495355057039 
0.2270579384394429 
0.2270579384394429 
0.1349660329447583 
-0.4226154794038789 
0.01030592760038404 
-3.903127820947816e-018 
0.1026065660522127 
-0.00865486072899151 
0 
0.180233058371105 
0.003728008822230592 
0.1512089840295352 
0.1512089840295352 
0.1347406859674745 
0.1512089840295352 
0.6276862674385432 
0.3389866757692327 
0.1512089840295353 
0.1512089840295353 
-0.06170902882165989 
0.1512089840295352 
-0.1799834032670221 
0.2384158209743539 
0.1512089840295352 
0.447015858549183 
0.3691400320481421 
0.09433520744212753 
0.09433520744212753 
0.3691400320481421 
0.3401820514160686 
-0.1739083006631288 
-0.04199216611798118 
0.1512398809755196 
-0.3385462075982161 
-0.6766007395188157 
0.09346222374183172 
-0.2948942648223235 
0.6329269108296053 
0.08618868554678896 
-0.07076684422053389 
-0.697026418933591 
-0.04199216611798118 
-0.1970569260558969 
-0.01671624699226987 
0.3916818854283684 
-0.2133112652212621 
-0.197838119452039 
0.6042689664333538 
0.1012114076490907 
0.210356005002057 
0.7965148333643297 
-1.060997932373812 
0.05716810853973839 
8.673617379884036e-018 
0 
0 
-0.1328805190634982 
0.1226758139256135 
-0.1974791291941715 
0.2164028034571287 
0.05884165152321411 
-0.2298785998109206 
0.2245172121810941 
-0.3374799176983356 
0.008815255634680511 
-0.3142920634440613 
0.1961860977268156 
-0.02204408458111639 
-0.2498958686738534 
0.2585379329595337 
-0.0608253576856694 
0.08841335052997421 
0.2286241923072948 
-0.08802312724471584 
-0.1038880789756792 
-0.1227649749377864 
-0.425735712941976 
0.255431389151373 
-1.394248406994224 
-0.3524389123200066 
-0.2401537182848129 
-0.3490467311304609 
-0.7612843618797287 
-0.7612843618797287 
-0.4968996809600761 
-0.3581396150281446 
0.255431389151373 
-0.4491410989572128 
-0.3084222282403791 
-0.4386338036545393 
-0.4386338036545393 
0.1200632612911995 
0.3699846943726111 
-1.440104475842574 
0.8576860600138143 
0.1556900108282132 
0.1556900108282132 
0.312027615739905 
0.1556900108282131 
0.1556900108282131 
0.1556900108282131 
0.1548566916642816 
0.01267226423599555 
-0.1207042477705008 
-0.2529175175508728 
0.02560757689678538 
0.2855737681531602 
-0.2328474239321784 
-0.1047382169525098 
-0.5969988990220586 
-0.0008313379241188852 
0.003296186125603666 
0.02462997046866778 
0.1782294092105311 
0.1556900108282132 
-1.440104475842574 
0.8576860600138143 
0.1537914384215888 
0.1843330548132694 
0.1843330548132694 
-0.249485881235803 
0.2297133894089613 
0.1405016570832315 
0.2416979236134435 
0.2630433781835524 
0.02804680575966275 
-0.3877091941401053 
0.1843330548132694 
0.2580703122971679 
-0.199954979041221 
0.204008351791007 
0.1843330548132694 
0.1843330548132694 
0.2270652474758029 
0.2559468326048343 
0.4281041115964654 
0.4281041115964654 
0.4281041115964654 
0.4281041115964654 
-0.5012450596508785 
-0.2186859247206901 
-0.6698758419394985 
0 
0.206932341509735 
0.206932341509735 
0.3187912650361109 
-0.1515438465224825 
-0.07509991086162843 
-0.1263819424832205 
-0.4116609617956273 
-0.9534940599115587 
-0.1710443215282543 
0.2995994997383746 
0.6908553440873786 
0.3168464218781452 
0.179923860452239 
0.3777388373508013 
0.507287937129379 
-0.1679765253311346 
0.7226608386165692 
0.9890841087167557 
0.6195253279712865 
0.2164994113925612 
0.1993621861571081 
-0.481391937014038 
0.712876769449602 
0 
0 
0 
-0.3209297737623769 
0 
0 
0 
0 
0 
0 
0 
-0.9361887286947795 
0 
0 
0 
0.4757839924469464 
0 
0 
0 
-0.4677401904033997 
0 
0 
1.170938346284345e-017 
0 
-0.04957772932691568 
0 
0 
0 
0 
0 
0 
0 
0 
0 
0 
0 
0.1064939968430467 
0 
0 
0 
0.2164994113925612 
0 
0 
0 
0 
0 
0 
0.1993621861571081 
0 
0 
0 
-0.3209297737623769 
0 
0 
0 
0.2828520276750254 
0 
0 
0 
0 
0 
-0.481391937014038 
0 
0 
0 
3.686287386450715e-018 
0 
0 
0 
0 
0 
0 
0 
0 
0 
0 
0 
0 
0 
-0.7006515564826775 
-0.5397848255147514 
-0.1056187964269061 
0.1066146216163907 
0.4175168871533858 
0.3464021081026268 
0.434550481253312 
0.08159020717361906 
0.08159020717361906 
0.08159020717361906 
0.08159020717361906 
0.08159020717361906 
-0.1624894485067911 
0.08159020717361906 
0.08159020717361906 
0.6109229628177382 
0.1261824519590178 
0.08159020717361906 
0.08159020717361906 
0.08159020717361906 
0.08159020717361906 
0.08159020717361906 
0.08159020717361906 
0.08159020717361906 
0.08159020717361906 
0.08159020717361906 
0.08159020717361906 
0.1007155356390984 
0.08159020717361906 
0.08159020717361906 
0.3166077661950779 
0.08159020717361906 
0.08159020717361906 
0.08159020717361906 
0.01950750883313387 
0.08159020717361906 
0.08159020717361906 
0.08159020717361906 
0.08159020717361906 
0.08159020717361906 
-0.1521700503401559 
0.08159020717361906 
0.08159020717361906 
0.08159020717361906 
0.08159020717361906 
0.08159020717361906 
0.08159020717361906 
0.08159020717361906 
0.08159020717361906 
0.08159020717361906 
1.687415882012466 
0.08159020717361906 
0.08159020717361906 
0.08159020717361906 
0.08159020717361906 
0.08159020717361906 
0.4175168871533858 
0.4175168871533858 
0.08159020717361906 
0.1066146216163907 
0.08159020717361906 
-0.3788943647304671 
0.9187511417305715 
-0.4005950706865079 
-0.04307916172218319 
-0.09374500481583249 
0.09257281515178924 
-0.2648471804898412 
-0.13876764920446 
-0.0487321404658893 
-0.4005950706865079 
0.3739641668744949 
0.9187511417305715 
0.2051432140751243 
-0.2082195514075245 
0.2379867101877269 
-8.673617379884036e-019 
-8.673617379884036e-019 
0.3921513349537543 
-8.673617379884036e-019 
-8.673617379884036e-019 
-8.673617379884036e-019 
-0.09675216039241658 
-8.673617379884036e-019 
-0.07060518330970132 
0.6877102649508111 
1.075813813850002 
0.6877102649508111 
0.651151758870445 
0.492142588824217 
1.057062462121678 
1.264547953617509 
0.8132626434060765 
1.454839979137443 
0.9926327476620116 
0.7205023166780433 
0.1760383405568722 
-6.938893903907228e-018 
-6.938893903907228e-018 
-0.00778549629990818 
-6.938893903907228e-018 
0.987991337104462 
1.320044601785338 
0.03119911954808308 
0.03119911954808308 
0.5649207450680864 
8.673617379884036e-019 
0.8560262572561599 
0.1977625169225645 
0.1977625169225645 
-0.1194664232927703 
0.2164994113925611 
-0.1312031586573387 
0.1264985415819319 
0.1264985415819319 
0.1264985415819319 
0.2164994113925611 
0.2164994113925611 
0.2164994113925611 
0.2164994113925611 
0.2164994113925611 
0.2164994113925611 
0.2164994113925611 
0.2164994113925611 
0.2164994113925611 
0.2164994113925611 
0.1264985415819319 
0.522498450397949 
0.2164994113925611 
0.1264985415819319 
0.1264985415819319 
0.2164994113925611 
0.2164994113925611 
0.2164994113925611 
0.2164994113925611 
0.2164994113925611 
0.2164994113925611 
0.2164994113925611 
0.2164994113925611 
0.2164994113925611 
0.1264985415819319 
0.07938993561114011 
0.2164994113925611 
0.1264985415819319 
0.1264985415819319 
-0.314102184652599 
0.1264985415819319 
0.1264985415819319 
0.2164994113925611 
0.2164994113925611 
0.2164994113925611 
0.2164994113925611 
0.2164994113925611 
0.2164994113925611 
0.05127346676144017 
0.05127346676144017 
0.1482317632740194 
0.3130963689517527 
0.600417689589219 
0 
-0.1697487573160156 
-0.3591683416960979 
0.197200901249465 
0.05080114404238179 
0.0364891085158758 
0.2814961286830954 
-1.517883041479706e-018 
-1.517883041479706e-018 
0.3130963689517527 
0.01141455161832051 
0.0251801864955263 
-0.09104490548643754 
-0.523513681882323 
-0.09104490548643754 
0.3653056851086914 
-0.04092960061751423 
-0.2294754449908237 
-0.004483941679771194 
-0.523513681882323 
-0.2505969343930265 
-0.7305741925660174 
0.357784685085435 
-0.1950297033731684 
-0.3388217875448365 
0.1099987748915902 
-0.3210398940211698 
-0.3210398940211698 
-0.3550804357165323 
-0.3210398940211698 
-0.3388217875448365 
0.4515726012293708 
-0.2969018053512526 
-0.1287999328770808 
-0.2650695707204481 
-0.1989688377143979 
0.04853568941031265 
-0.01954689398884704 
-0.49721129444852 
0.2929383031296758 
-0.1523938247026095 
0.1099987748915902 
-0.1950297033731684 
0.3739571695227969 
-0.4647954071670216 
0.1503898596774536 
0.5388486419654733 
-2.168404344971009e-019 
-2.168404344971009e-019 
-2.168404344971009e-019 
-2.168404344971009e-019 
0.3422858574326115 
0.3422858574326115 
0.1503898596774536 
0.3042755924380312 
0.04808676249315397 
0.02516190403926202 
0.04808676249315395 
0.02516190403926202 
-0.09724123459024515 
0.3021869162956522 
0.4960046073829763 
0.09507236491693626 
0.3292770721257878 
0.02516190403926202 
-0.04328069671179031 
0.3126529345031161 
0.02516190403926202 
-0.8481375808971876 
-0.1126665664148581 
0.3974169376145577 
-0.8753051624467559 
0.1686221596292689 
-0.09983167836318732 
-0.2746382730279196 
0.522933903424311 
0.7860551791815278 
0.4012476781819621 
-0.0613434044233518 
0.08963609611699494 
0.08963609611699494 
-0.1274094417726627 
-0.1894001226404412 
-0.004533855632007661 
-0.3962248242537593 
-0.4607443905586167 
-0.4810016047981199 
0 
0.1093085182618128 
0.1093085182618128 
0.1302916038654353 
0.02098308560362241 
0.1419309181101546 
0.07246880818531545 
0 
0 
0.09831008525402371 
0.06155242397226454 
-0.01519019689383156 
0.01531462177255768 
0.2057890895961111 
0.3621368587215918 
-0.2576901489585234 
0.6397840476576246 
-0.07716129995033665 
-0.07716129995033665 
-0.07716129995033665 
-0.07716129995033665 
-0.07716129995033665 
-0.07716129995033665 
-0.04336169382383643 
-0.07716129995033665 
-0.07716129995033665 
-0.07716129995033665 
-0.07716129995033665 
-0.07716129995033665 
-0.07716129995033665 
-0.1197213287085361 
-0.07716129995033665 
-0.07716129995033665 
0.006303187408189301 
-0.07716129995033665 
-0.07716129995033665 
-0.07716129995033665 
-0.07716129995033665 
-0.07716129995033665 
0.08780737285071087 
0.08780737285071087 
-0.07716129995033665 
-0.07716129995033665 
-0.09203553650696555 
-0.09392587091201599 
-0.07716129995033665 
-0.07716129995033665 
-0.07716129995033665 
-0.07716129995033665 
-0.07716129995033665 
-0.07716129995033665 
-0.07716129995033665 
-0.07716129995033665 
-0.2923073726509826 
-0.07716129995033665 
-0.07716129995033665 
-0.07716129995033665 
-0.07716129995033665 
-0.07716129995033665 
-0.07716129995033665 
-0.6752160576032457 
-0.2336826487026688 
-0.2576901489585234 
-0.04205335622799113 
-0.0183494887625301 
0.3335121140606054 
-0.08105091867820141 
0.3335121140606054 
0.04625240270458858 
-2.540011369443951 
0.5827899389496284 
0.1615288904893071 
0.1817184290926081 
-0.08105091867820141 
0.08598602807097822 
0 
0 
-0.272066670035312 
-0.4247027042605387 
-2.710505431213761e-020 
0.1894233971565025 
0.8055285158085539 
-0.08975933636640431 
-0.2707794218020933 
-0.3741264981637463 
-0.1946877335340449 
-0.1946877335340449 
0.1538312585757266 
-0.889987743717263 
-0.7825072478255465 
-0.8062491344720303 
-0.468129305772321 
-0.3829492083393081 
-0.3829492083393081 
-0.06639635739733418 
0.3763467393666048 
-0.02337214059280792 
-0.6896916476042435 
0 
0 
0.01090272179848573 
0.06347772350854582 
0.3824804235976703 
0.06844349386921958 
0.1646388218470755 
-0.1730184946029529 
0 
-0.4157261863194263 
0 
0.1174251572324646 
0.1308010655550927 
-0.3434634556061768 
0.1577438356016479 
-0.2340265419916501 
-0.0169019291301298 
-0.3724365111703767 
0.3100040977798192 
-0.03544905148071871 
0 
-3.469446951953614e-018 
-3.469446951953614e-018 
0 
0.01542995316765017 
0.7676729115726096 
0.1490137363074146 
-0.1438166964155358 
-0.7635826315384057 
0.1501162239134674 
0.1501162239134674 
0.2167245893756326 
0.04745766733163084 
0.1346462423829428 
-1.734723475976807e-018 
0.5702468396764273 
0 
0.3847681639032288 
0 
0 
0.120570068631303 
-0.1089051827309721 
0.1281092069796684 
-0.1061713930633824 
1.734723475976807e-018 
1.734723475976807e-018 
1.734723475976807e-018 
3.469446951953614e-018 
3.469446951953614e-018 
1.734723475976807e-018 
0.2391922446495065 
3.469446951953614e-018 
1.734723475976807e-018 
1.734723475976807e-018 
1.734723475976807e-018 
1.734723475976807e-018 
1.734723475976807e-018 
1.734723475976807e-018 
-0.3870990893687206 
1.734723475976807e-018 
-0.04845409361715834 
1.734723475976807e-018 
0 
0.220152514416091 
0 
0.1503898596774536 
-0.3660296197715839 
0 
0 
0 
-0.05913458474307466 
0.09344382625071 
-0.1400845677350426 
0.1522399111774932 
0.1226758139256135 
-0.3693886080006504 
0 
0.6594172062299033 
0.08982980585623122 
-0.7753598323580735 
-0.09374991045157584 
-0.09374991045157584 
-0.2977913863750447 
-0.09374991045157584 
0.07972958708463203 
0.1377931732586071 
0.3299085559489793 
0.1377931732586071 
-0.7395911454168436 
-0.2732344449622517 
-0.3064580070470636 
-0.09374991045157584 
-0.0001944013268918266 
-0.09374991045157584 
-0.04491166296087941 
0.2114999487030411 
0.1490446542918244 
1.709898223309854 
0.1490446542918244 
0.9668839096468693 
0.3791408407697589 
-0.09374991045157581 
-0.09374991045157581 
0.6594172062299033 
-0.09374991045157581 
-0.693422724886323 
-0.01030115879597725 
-0.2445776984224058 
-0.6812483044033124 
-0.01039619477882784 
-0.1348027567992839 
-0.2614461067183065 
-0.4202057354475265 
-0.2746921974689608 
0.3879379247817323 
-0.5163687627424407 
-0.2746921974689608 
-0.2746921974689608 
-1.446377206061002 
-0.2525481671661831 
-0.1389867250703782 
0.1243223173174842 
0.1243223173174842 
0.1243223173174842 
0.1243223173174842 
0.1243223173174842 
0.1243223173174842 
0.1243223173174842 
0.1243223173174842 
0.1243223173174842 
0.2296398696659511 
0.06507813258695833 
0.2810156825779398 
0.2810156825779399 
0.06507813258695833 
0.0103563565049005 
0.4976446208506252 
1.457461062744451 
0.1185815732816722 
0.06507813258695833 
-0.1389867250703782 
0.474934532940766 
-0.5100133482777145 
0.2613262437304438 
-0.01825214098091591 
-0.01825214098091591 
0.3845766905890631 
-0.01825214098091591 
0.09521832485675492 
0.1365488652502207 
0.01397387994034252 
-0.03428707755867999 
0.474934532940766 
-0.8137836931990422 
0.4566218861441235 
-0.09949435198968246 
-0.1295116058510066 
-2.222614453595284e-018 
-0.09661980146816285 
0.06192564571414078 
-0.2940963573900729 
-0.2526154702373976 
0.1126259127751988 
0.05435715756797076 
0.2353756558290944 
-0.05887766481980976 
-0.1558884339904095 
-0.3188042305650413 
-0.221258545764372 
-0.2611651392803738 
-0.1638969767668117 
0.2062239731569953 
0 
0.05551590754552714 
0.05551590754552714 
0.05551590754552714 
0.05551590754552714 
-1.019150042136374e-017 
-6.722053469410128e-018 
0.1592488034301344 
0.43253178583152 
0.3929866025708331 
0.09370596910783584 
0.1309784640444841 
-0.7084634264579772 
-0.2537667928850502 
-6.722053469410128e-018 
0.1047626180260174 
-0.4158258040921691 
1.287524463827408 
-0.4158258040921691 
-0.221145932298788 
-0.1572620923842538 
-0.3095582134175023 
-0.436586878311245 
-0.4158258040921691 
-0.4452292947180672 
-0.08006370282513141 
-0.355113020035261 
-0.188948317104208 
0.5718554007348553 
-0.370404542020648 
0.1503898596774536 
-0.002698508957818828 
0.1353911345826359 
0.2292039766653796 
0.008514698505303318 
0.159429457483716 
0.1216879566028896 
8.673617379884036e-019 
0.5718554007348553 
0.1997237943813534 
0.7284943696815519 
-0.09971484499506667 
8.673617379884036e-019 
0.9623678675109652 
8.673617379884036e-019 
-0.007464601598108538 
-0.09077431792760517 
-0.183034403251586 
0.3928082938822805 
0.4396710901145645 
0.4296093254273402 
0.4396710901145645 
0.3928082938822805 
0.4396710901145645 
-0.1573441816853595 
0.01697954960262975 
-0.3519221309609806 
0.4396710901145645 
0.06871517789643039 
0.4396710901145645 
0.5303805869303762 
0.4985385429631314 
1.18750206499227 
0.4396710901145645 
-0.7698421714016339 
-0.02862203860132549 
0.3492435854640547 
-0.07010886863153794 
0.007580159815953211 
0.7813684199774081 
0.4396710901145645 
0.5089336077060064 
0.5089336077060064 
0.5089336077060064 
0.000101167076878796 
0 
-0.1466157476769808 
0.2262154667524608 
-0.1987554597052998 
0 
0 
0.2993752396551572 
-0.385625908047978 
0.2993752396551572 
0 
-0.3355019858611173 
-2.168404344971009e-019 
-2.168404344971009e-019 
-0.385625908047978 
-2.168404344971009e-019 
-0.18929038607742 
0.09467212617124755 
0.1108263729704841 
-0.2658786434139283 
0.5687283356263712 
0.1402622661466874 
0.3223230434832198 
0.001606553286003567 
0.001606553286003567 
0 
0.009680902514370893 
0 
0.4238239642401505 
-0.4147572281491126 
0 
0 
0 
0.1402622661466874 
-0.134674466236855 
-0.4405009442552897 
0 
-0.4291747904534943 
-0.6924789665765413 
0.3640430764992195 
0.1289166849289163 
0 
0 
0.5494958560597145 
0.4694960426605413 
0.2251155911202899 
0.4272977592332423 
0.4472181823463649 
0.3413054872440183 
0.3413054872440183 
0.3660807827441882 
-0.2867831898612074 
0.6786539026926897 
0.6786539026926899 
0.6460094111337927 
0.3442392189618336 
0.5494958560597145 
0 
0.2527936661381025 
-0.2668638963991767 
0.1031959751112038 
3.469446951953614e-018 
0 
0 
-0.01111475721556555 
0 
0 
0.06521815814311095 
0.06521815814311095 
-0.3007234303520077 
-0.3007234303520077 
-0.6634987735555913 
-0.3007234303520077 
0.295099622864094 
0 
0 
0.007879053834940371 
0 
0.4847814963334362 
0.2052123261908609 
0.01319344082413605 
0.1426411047305708 
0.4847814963334362 
0.3136421550736253 
0.09050722885374926 
0.09050722885374926 
0.3759906202824898 
0.427717637100867 
-0.2577017002392706 
0.09000086981062914 
0.09000086981062914 
0.09000086981062914 
0.09000086981062916 
0.09000086981062916 
0.09000086981062916 
0.5969301500135283 
-0.6431514326049957 
0.1995271651972939 
0.1593350778963701 
0.0153146217725577 
0.5969301500135283 
0.1652093399451741 
0.06926251759144168 
0.7370022545223184 
0.1353911345826359 
-0.1297309401266703 
0.1413849099026447 
-1.437055653787853 
0.196812432806061 
-0.232750555659352 
0.04470232223451937 
0.01238613197592467 
0.3243086859195217 
0.09787304875084842 
0.09787304875084842 
0.1613507722593943 
0.1613507722593943 
0.05426435107119677 
0.3067300591427208 
0.2734973794027105 
0.3780681203868145 
0.01576388239479378 
0.1520460375948793 
-0.1732304997856598 
0.09714870443508893 
0.1520460375948793 
0.4570413287822056 
-0.0411319799395411 
0.9001367582984516 
-0.1125879989348438 
0.3528685824236071 
0.3528685824236071 
0.3528685824236071 
0.3528685824236071 
0.3528685824236071 
0.9865335451216807 
0.4113132666669746 
0.0149365618134584 
0.7157858513093587 
0.1289166849289163 
-0.003065946019761203 
0.3363220015434794 
0.619625221081764 
-0.05748915509017662 
0.2315093324702977 
0.2315093324702977 
0.26554178507886 
0 
0.1407188707168336 
0.1407188707168336 
0.1407188707168336 
-0.1086048486534457 
-0.6012851545143286 
0 
1.301042606982605e-018 
1.301042606982605e-018 
0.03593044930686069 
-0.6303054053048004 
0.01656432378301436 
0.01499697449879861 
-0.2639629675857899 
-0.3344715352552268 
-0.2747051058251517 
-0.2747051058251517 
0.1644390254761532 
0.006687840635503405 
0.006687840635503405 
0.5583703678738781 
-0.09105672270000322 
0.05355586554846311 
-0.1642391644622413 
0.2766213448769204 
-0.6303054053048004 
0.006687840635503419 
0.006687840635503419 
0.006687840635503419 
0.006687840635503419 
-0.003258884416789212 
0.4436065588128082 
0.5242358133941912 
-0.004771601583734699 
0.09372741050621282 
-0.09869203630367979 
-0.5610760837013497 
-0.418188845685752 
-0.418188845685752 
-0.1258920573852701 
-0.361410277900313 
-0.02324827827635068 
-0.2214099136468617 
-0.3237367467998126 
0.1526924258298344 
0 
-0.05472177608205784 
0.7521525601041409 
-0.1896183423155807 
-0.2956865740939499 
0 
-0.1377939444380796 
0 
0 
0 
0 
0 
0 
-0.2013117218076104 
0.1983791075324933 
-0.2332359254939787 
0.5349679486386364 
2.168404344971009e-019 
0.1983791075324933 
2.168404344971009e-019 
-0.4698506464315386 
-0.1172701065370084 
-0.1475775818093786 
0.4111572334354246 
0 
-0.6620828656588987 
-0.1694973022633757 
0.2115142822315907 
-7.806255641895632e-018 
-6.071532165918825e-018 
-6.071532165918825e-018 
-0.1544880866061349 
-6.071532165918825e-018 
1.34339425434532e-018 
-0.1119875490399532 
0.2250603388201521 
0.02934628454605474 
0.02934628454605474 
0.2663161974007081 
-0.04332432709251273 
-0.04286495001062915 
0 
-0.006005732728159332 
-0.006005732728159332 
0.2814670585978571 
0.1426562463137388 
-0.06844260075105232 
0 
0.5122560708104499 
-1.734723475976807e-018 
0.2398965430390404 
0.06853932589808442 
0.03296067138493553 
0.1239459390254088 
0.07161377779156473 
0.1986728404728468 
0.1327780158143463 
0.09322010580956845 
0.06561336398879925 
-0.2505781963790254 
-0.34072434599626 
-0.2024560875373274 
0 
0 
0 
0 
0 
0 
0 
0 
0 
-0.2505781963790254 
-0.1342696276429237 
-0.3438456970684953 
0.07246417526760705 
0.02691125966383881 
0.4871259624035505 
0 
-0.1273573154458512 
0.007087809731109233 
0.04695782742329627 
0.007087809731109233 
-1.017331331175807 
-0.1949623653211219 
-0.306074780632677 
-3.252606517456513e-018 
0 
0 
0.3879292532797994 
0 
0 
-0.07781879278187169 
0.1553784984112961 
0 
0.3493816644095215 
-0.2332173767992867 
0 
0.7760565373998993 
-3.252606517456513e-018 
-9.86623976961809e-018 
-0.04180344100040928 
-0.1884924892190528 
0.219797326815352 
-0.04476887292569846 
0 
-0.1073193823253598 
0 
-0.09208509529981547 
0.1034888448911533 
-0.2080155769553867 
0.1034888448911533 
-0.4355171440145811 
-0.3243474423787144 
0.4591585450807436 
-0.179827307976087 
-0.3575520204168895 
-0.2000509400060337 
0.1238606655978392 
-0.1420430205693236 
-0.0507760599514691 
-0.4355171440145811 
-0.5972662198973753 
-0.15875954132994 
0.1346021782169743 
-0.3912253673211839 
-0.09194342926526695 
-0.2158255881966796 
-0.1583303336936886 
-0.1583303336936886 
-0.1583303336936886 
-0.3272362847986078 
-0.2140495550844027 
0.07738547606574836 
-0.07470242287965891 
-0.07470242287965891 
-0.07470242287965891 
-0.07470242287965892 
-0.07470242287965892 
-0.07470242287965892 
-0.07470242287965892 
-0.07470242287965892 
-0.07470242287965892 
-0.1133398719103824 
-0.4856208291911533 
-0.2158255881966796 
-0.2158255881966796 
-0.1708274191945421 
0.06643497307961709 
-0.08528296230319241 
-0.08528296230319241 
-0.08528296230319241 
-0.08528296230319241 
-0.007206339340926701 
-0.1292298158209315 
-0.1292298158209315 
-0.1147582308791123 
-0.1205161859896732 
-0.1147582308791123 
-0.4421672088222696 
-0.06706365429856026 
-0.3034358152217305 
-0.480166231906885 
-0.3641733434483835 
0.1103695764273996 
0.5135720038283651 
-0.6408311752701574 
-0.1147582308791123 
0.1771830716822644 
-0.1989445255983 
-0.2519789394030469 
-0.03212954636197226 
0.2537580173457298 
0.04484964348964077 
0.1205700686313029 
0.1929836248298685 
0.2194821998452612 
0.1205700686313029 
0.1205700686313029 
0.1929836248298685 
0.1929836248298685 
-0.08987801660967738 
0.2891824064690402 
0.2891824064690402 
0.2602070520178168 
0.1310906906477619 
0.3560150372262214 
0.2655964220932472 
0.3165036678278354 
0.5045858705035867 
-0.2247076185152885 
0.2570732299471298 
0.9057652325901123 
0.7643439119744034 
0.2410826694407521 
0.4718505197126964 
0.07419255027453096 
1.135616733815548 
-0.1879869628811039 
0.4409936904463274 
0.1645617370789928 
0.1645617370789928 
-0.04595021151967864 
0.2307905785214081 
0.3377458800850834 
0.2086910344404694 
0.1645617370789928 
0.0491608105360874 
0.0491608105360874 
0.4230830808841558 
0.1485314163553761 
-0.8094686238804696 
-0.071614040697894 
0.1769198028024172 
0.08073549817023563 
-0.413728330063946 
-0.1154706565259185 
0.08073549817023562 
0.01921649907410218 
0.01921649907410218 
8.673617379884036e-019 
0 
0 
0 
0 
0 
-0.2341835863191277 
-0.1679827195174421 
0.05924418473052581 
0 
0 
0.6192750815034157 
-0.004777247747135048 
-0.004777247747135048 
0 
-0.539117351867311 
0 
-0.2106428003206275 
-0.1372901781443182 
0.9255865142534218 
-0.09926169587166005 
-0.09448621371735112 
0.1868609564895837 
-0.1512338117915256 
-0.2371277986329186 
-0.2903840639223052 
-0.06015507393620341 
-0.3420835309031775 
-0.01220321680045928 
0.1808904304430379 
-0.2471791284576261 
-1.301042606982605e-018 
-0.1658979158771295 
0.1946798717933812 
-0.1686100408678328 
-0.1686100408678327 
0.6005279691988908 
0.05283412260992559 
-0.2471791284576261 
0 
0.01314509865458152 
0.01314509865458152 
-0.2348248805194814 
-0.04564899879376395 
0.3014105627335271 
0.3014105627335271 
0 
0 
0.6274802569106045 
0.2475754270966825 
0.5716271251783601 
-0.2299162678513792 
0.1474183191278541 
0.3747175023409859 
0 
0.1336647589121005 
-0.4105253084505682 
-0.2282484441853794 
0 
0 
-0.4914680066653918 
0.1176870007794058 
0.0829007861821443 
0.02527591912571131 
0.6968099435470735 
0.02527591912571131 
0.02527591912571131 
-0.07937302571162182 
0.02527591912571131 
0.02527591912571131 
0.02527591912571131 
0.02527591912571131 
0.02527591912571131 
0.02527591912571131 
0.02527591912571131 
0.1877330942610484 
-0.4801016461782895 
0.02686116423262379 
0.02686116423262379 
0.1560550957728724 
0.3393128488541621 
0.3393128488541621 
0.01982784151871312 
-0.001518440059570304 
-0.3286691407205414 
-0.003642778068393717 
0.0884251101490157 
0.0884251101490157 
0.615263462868496 
1.202036955494633 
-0.06464781897555291 
0.02010050575286436 
0.03000320933213768 
0.1463765152701636 
0.4992774128655371 
0.03935543304207621 
0.06607188831303661 
-0.1165480117383303 
-0.2481166692203758 
-0.665531870432063 
0.02842770310463666 
0.3207606429582751 
0.02646973485388744 
0.02646973485388744 
-0.1725384822347759 
-0.151318977788951 
0.184240090698881 
0.1736967435179563 
0.1886833334552085 
0 
0 
0 
0 
0 
0 
1.22084909987436 
0 
-0.2539578211908381 
0 
4.336808689942018e-018 
0.2074053166145631 
0.09309793652925312 
0.04459224478539868 
-0.5740766811240416 
1.530616415617938 
1.22084909987436 
0.3585466706956609 
-0.1389469049822125 
-0.2502924184601764 
-0.06005506934493508 
-0.1177282141235122 
-0.2901836946521037 
0 
0.1581242669706441 
1.013964400177087 
0.5240618542725942 
7.806255641895632e-018 
0.09061131086398133 
-0.2516030749177309 
0.08969741395890205 
-0.5228115938266507 
-0.514798043966952 
-0.5353845761268323 
0.1719739855467148 
-0.3433930354399953 
-0.6932158279952094 
-1.521574588777965 
0.9218853513727265 
1.013964400177087 
0.01871255061347325 
0.5240618542725942 
-8.673617379884036e-019 
-0.3901354725894415 
0.03316504289254879 
0.03316504289254878 
0.03316504289254878 
0 
0 
0.3190645904580248 
0 
0.444391191746418 
0.1506242112974318 
0.1506242112974318 
-0.2973585210398244 
-0.04337567689235823 
-0.04337567689235823 
0.2598108724268352 
-0.04337567689235823 
-0.04337567689235823 
-0.1283110367752579 
-0.4314975860944512 
-0.04337567689235823 
-0.380243757620882 
0.09128701143503532 
-0.3298292331321642 
-0.2502731937326469 
0.1753647744325108 
-0.01879253924590803 
-0.01879253924590803 
0.6805241692480308 
0.07426442256261463 
-0.1193038004330854 
-0.3298292331321642 
0.03825529865108978 
-0.2502731937326469 
0.5183952691386183 
0.1945659428160109 
0.06496289368887012 
-0.06713107898903348 
-0.06713107898903348 
0.4854018328182167 
0.6541977174367665 
-0.08449522214752478 
-0.1047723840558785 
0.09208378664380171 
-0.1138134145288252 
0.1604882236445837 
0.2379867101877269 
0.2379867101877269 
0.4484828131861051 
0.4484828131861051 
-0.01736275479259304 
0.4484828131861051 
-0.01736275479259304 
-0.459219912019339 
-0.3250674247436497 
0.05729519208603183 
0.2246798502019447 
0.06496289368887012 
-0.0140638864741567 
0.0391863414002532 
-0.2654992462533646 
-0.06512828580266597 
3.388131789017201e-021 
0.0745188012896629 
-0.1136567886932615 
-0.1136567886932615 
-0.4127280940641196 
0.8597662074763142 
3.388131789017201e-021 
-0.5778013725568405 
-0.1353295212335617 
0 
0 
-0.7548595363200095 
0.3036487467722496 
0.01992390684169157 
0.01992390684169157 
0.1917681731951076 
-0.8860834025006835 
0.1116736482560217 
-0.1665040560005354 
-0.3471161095648395 
-0.1516416070769386 
0.1354397486438851 
-3.035766082959412e-018 
0.1354397486438851 
-0.4001002431966159 
0.2603294922788264 
0.2170759764956114 
0.2170759764956114 
0.2170759764956114 
-1.301042606982605e-018 
0.5005390375348036 
-3.035766082959412e-018 
-3.035766082959412e-018 
-3.035766082959412e-018 
-3.035766082959412e-018 
-3.035766082959412e-018 
-3.035766082959412e-018 
-3.035766082959412e-018 
0.03888445736189115 
0.1155324411108467 
0.1621881064914825 
0.06459975085049823 
0.1621881064914825 
0 
-0.1209927646064471 
0 
0.07133432038152693 
0 
0.7069027287304091 
0.1358281810392263 
0.06391838191843337 
0.2108124081851791 
0 
0.01094248229402815 
0.9828429227993396 
0.3170031288659731 
0.1585425157103546 
-0.2613799095735742 
-0.1982549030861933 
-0.28598954927251 
0.1080310231157867 
0.09656962785854062 
0.579410166979767 
0.09656962785854062 
0.09656962785854062 
-0.03801843381396242 
-0.1254515756146006 
-0.2997378605229046 
-0.171918449823796 
-0.5029983100384765 
0.6144894686658717 
-0.03725576149640229 
-0.3445297164244697 
-0.9003528913114975 
-0.02084474134836868 
-0.1452685255680749 
-0.2744039621178444 
-0.4154656265525077 
-0.2768717835820603 
-0.4480629772151357 
-0.1719184498237959 
-0.3675001085408438 
1.734723475976807e-018 
-0.1597927032298777 
-0.09902122390474519 
-0.09170919835334694 
-0.524631868826606 
0 
-0.08141878259626376 
-0.1648864099147 
5.204170427930421e-018 
0.05589148486293754 
0.1057336841510923 
0.1057336841510923 
0.4055628087463877 
0.1405607643261254 
0.05202740641884106 
-2.602085213965211e-018 
-2.602085213965211e-018 
-2.602085213965211e-018 
-0.04362010478089503 
0.08436469815519365 
-0.2351091694663727 
-2.602085213965211e-018 
-2.602085213965211e-018 
0.2305071857210498 
-0.2499728559246534 
0.1928103136345913 
-0.1492079044903877 
-0.4619295063780919 
0.1783985823091249 
0.1724913266115093 
0.9729452166723129 
0.5048927707643471 
0.1402934143683286 
0.5301587290832625 
-0.1494657017601661 
0.4087749786168738 
0.1928103136345913 
0.8436042716178088 
0.2314026275107037 
-1.747598251332734 
-0.399405633280245 
-0.04835814590325894 
-0.04835814590325894 
-0.04835814590325894 
-0.04835814590325892 
-0.1443593189001578 
0.1394075392734469 
-0.06485008326473775 
0.2876738544040093 
-0.1739920801878953 
-0.09977101845713596 
-0.3977212578303531 
0.02315224600685906 
0.1551432990548669 
-0.4887630955945682 
0.1732656747155905 
-0.399405633280245 
-1.147626272870572 
0.2624975343385615 
0.1349061433317877 
0.1349061433317877 
0.09440965539536181 
0.1349061433317877 
-0.2088867438342684 
0.417424310668939 
-0.0845729307116015 
-0.2523201591944909 
0.1656190855075398 
-0.1981202993245687 
0.01076251461314594 
0.2364028762332367 
-0.1477342560326092 
-0.1364931934599827 
-0.01738869470260477 
-0.7917746075463784 
1.210734497273917 
0 
0.8400879576523658 
-0.1352024356187913 
-0.1352024356187913 
0.0100832860424852 
0.0100832860424852 
0.0100832860424852 
0.3993273028675814 
0.0100832860424852 
0.0100832860424852 
0.0100832860424852 
0.0100832860424852 
0.0100832860424852 
0.0100832860424852 
0.0100832860424852 
0.1019999971058713 
0.0100832860424852 
0 
0.0100832860424852 
0 
0 
0.07908424476616917 
-3.469446951953614e-018 
0.06027239896017025 
-0.1432012958423473 
0.4263494475574229 
-1.281525841532011 
-0.2028106784798194 
0 
0.01846167292182253 
0.1410566130304835 
-0.04132038270836266 
0 
0 
-0.1367275164286739 
0 
-0.2081679072262271 
0.05886563663937558 
0 
0.02709330324304559 
0.02709330324304559 
-0.5103631832371967 
0.02709330324304559 
1.734723475976807e-018 
0.06102943626321751 
-0.1890044598974912 
0.3017859529531981 
0.4179960075756907 
0.2779721009014547 
0.6278057803892888 
-0.02341460084261564 
-0.3557558557808169 
0.2291246458364536 
0.1477700038532604 
0.32446503975614 
-0.1239299680072383 
0.2727453116359043 
0.4032739568027055 
0.2291246458364536 
0.06102943626321751 
-0.3979112841843239 
0.1529004291337655 
0.2468218732905308 
-0.1031593869816019 
0.3803116010345005 
0 
0 
-2.602085213965211e-018 
0.1891515917139645 
0.7295139730128928 
1.301042606982605e-018 
0.5299846380230388 
0.2993752396551572 
0.845085429906726 
0.2993752396551572 
0.008387290932259685 
0.2803877478917138 
0.1258980666445527 
3.469446951953614e-018 
0.1891515917139645 
-0.4615306394909164 
0.01800572752230743 
0.01800572752230743 
0.01800572752230743 
-0.2873902718036936 
-0.2873902718036936 
-0.6355614840220555 
-0.6355614840220554 
0.3299292690469715 
-0.09978372323137445 
0.01800572752230743 
-0.008467876967634781 
0.0471275911915278 
-0.07874643287010917 
0.01533668677693614 
1.734723475976807e-018 
-0.1153644015780417 
-0.1153644015780417 
0.2328382310685648 
-0.1419197212729526 
0.4814739217235111 
8.673617379884036e-019 
0.03439583945436624 
5.204170427930421e-018 
-0.2929330892851778 
-0.2117945778529823 
2.168404344971009e-018 
4.336808689942018e-019 
4.336808689942018e-019 
-0.2388273020657286 
0.529588323846222 
-0.5277626296833705 
-0.1197534033745822 
0.1804992181921334 
0 
0 
0 
-0.2388273020657286 
0.08069889870350422 
0 
0 
0 
0 
0 
0 
0.5014353272297085 
0.529588323846222 
0.529588323846222 
0.529588323846222 
-1.016604063001744 
1.267225447693169 
-0.7719304564382981 
-0.2574393925114445 
-1.027226921528065 
-0.2574393925114445 
-1.016604063001744 
-0.2574393925114445 
0.2741147581614785 
0.2741147581614785 
-0.2509650377603167 
-0.2509650377603167 
-1.245523502284361 
-0.0793659424945531 
-0.01939228759249265 
0.5997067135550003 
-0.02801971741915675 
0.2709349261723294 
0 
-0.2407230365746371 
-0.2250375461655278 
0.1555446241217049 
-0.2995377546397948 
0.1145764210482591 
0.06335984733305186 
-0.2473467969994272 
-0.6317907872370507 
0.05982903346630547 
0.4209397771262193 
0.4209397771262193 
0.5876610150408929 
1.012959406258547 
-0.3410000851298909 
-0.6111007280387301 
0.4802644288877494 
0.9981296966608692 
-0.3103358238800616 
-0.8452778330801174 
-0.528064679108823 
-0.5270156224890639 
-0.5894709169002808 
0.02978489100582099 
-0.1295116058510066 
-0.1778633747661797 
-0.1465619039386709 
-0.1465619039386709 
0 
0 
0.01958268469487749 
0 
4.125389266307344e-017 
0.4909407691558415 
-0.2259140327064138 
-0.05709580772979408 
0.1698022879385869 
0.1244360915570899 
0.03992704332277635 
0.971306883297742 
0.06787978986521387 
0 
-0.08298178371151614 
-0.1298239132991015 
0 
0 
-5.637851296924623e-018 
0.1095280892136951 
0.1095280892136951 
0.1095280892136951 
0.3473660211609 
0.01210603784157252 
0.1095280892136951 
0.1095280892136951 
-5.637851296924623e-018 
-0.4603724459720868 
-1.257674520083185e-017 
-5.637851296924623e-018 
0.1500274237263315 
-0.524011160811225 
-0.07623386357295961 
3.469446951953614e-018 
0.1329390942764885 
0.4041088604795744 
0 
8.673617379884036e-019 
-0.5653236052573268 
-0.2947798788759864 
0 
0.3549232536229692 
-0.05219505651732564 
3.469446951953614e-018 
0.07996407283543061 
0.07996407283543061 
0.07996407283543061 
0.105294664366707 
-0.1494283611438662 
-0.1494283611438662 
0.2174889513837759 
0.2174889513837759 
0.07996407283543061 
0.1063144272932399 
0.2174889513837759 
0.07996407283543061 
0.07996407283543061 
0.4057347255059525 
0.07996407283543061 
0.07996407283543061 
0.1210036068098474 
0.07996407283543061 
0.1107296594400049 
-0.3122629988725703 
-0.9855012543731831 
-0.1751535230911492 
-0.1751535230911492 
-0.0233785916766728 
-0.1154009265429055 
0 
0.6751249036697732 
-0.0233785916766728 
0.01517707000411305 
-0.1154009265429055 
-0.01944004575820621 
-0.404200558811055 
-0.2426114072955772 
-0.04742817741111415 
-1.045643698325032 
0.2215904606726419 
0.1981223698024733 
0.6829570495583796 
1.061761258327615 
0.1295773057650733 
-0.151126598173441 
0.2792515028981022 
-0.7016316290198974 
0.4734768275546167 
0.4734768275546167 
0.5119672921588383 
0.4870827594558218 
0.4430437366848481 
0.3655899844060438 
0.4190642761987392 
0.3701156883828402 
0.4021777489360646 
0.529765049703131 
-0.367699004712915 
0.3640935351368158 
0.394221352973266 
0.02562317722828799 
0.2948344365273083 
-0.216908471013199 
-0.2340265419916501 
-6.938893903907228e-018 
0.01711807097845101 
0.01711807097845102 
0.609770428703603 
0.121878273736464 
0.121878273736464 
-0.1783364831670459 
-0.1783364831670459 
0 
0 
0.07980713604063225 
-0.004336974685087837 
0.4019935056660485 
0.1717626682525026 
-0.2393349339978614 
0.005388193472144127 
0.4096796253412865 
0.7162965060802535 
0 
0 
-0.1530073090166849 
0.13503018173826 
0 
-0.3330754152225509 
0.2062078991292206 
-0.203119994127508 
0.08172091152437418 
0 
0 
0 
0 
-1.425725856818438e-017 
0 
0.1667116690227958 
0.6602769742075024 
-0.3646903776885583 
0.3666956155136658 
0.4652389785494971 
0.1946798717933812 
0.1915012247082974 
0.4160322711253194 
0.1946798717933812 
0.2544014362770409 
0.2870336576380796 
0.2870336576380796 
-0.0389741370612872 
0.2111382002491845 
0.2111382002491845 
0.2111382002491845 
0.2111382002491845 
0.2143551687711189 
0.346384473482466 
0.3124192410121265 
0.5382694022630404 
0.1946798717933812 
-1.118681523657935 
-0.07526353642079196 
-1.118681523657935 
-1.97677637690681 
-0.0992865102646294 
-0.287714444409208 
-0.09928651026462941 
0.1543404226982905 
-0.07526353642079196 
0.09145731902748304 
0.347998982682434 
0.474662632074199 
0.3586938500418326 
0.5305484306023469 
-0.3284940799965404 
0.2300066785320011 
-0.02785384251192368 
0.347998982682434 
0.1743151428691475 
0.1743151428691475 
0.1743151428691475 
-0.2736748753970602 
-0.1763383988917038 
0.03431255608700528 
0.2889042101241804 
0.2746037134960326 
-0.04781807243100902 
-0.1605038403972493 
-0.2449784650639047 
0.8134427313660438 
0.1743151428691475 
0.1743151428691475 
0.5042655391082377 
0.3125491658178289 
0.3125491658178289 
0.09656962785854062 
0.09656962785854062 
0.1939047057126505 
-0.2661724845343561 
-0.2661724845343561 
0.09656962785854062 
0.09656962785854062 
0.09656962785854062 
0.09656962785854062 
0.09656962785854062 
-0.3045975844176889 
-0.2495772049531715 
-0.2495772049531715 
0.2066154993526514 
0.09656962785854062 
0.09414180427518773 
0.1665552126900622 
0.3856110629576227 
0.336013585093046 
0.4683386076025672 
-0.2518275200495664 
0.1080310231157867 
-0.2666426261212572 
0.1782281598445509 
0.1782281598445509 
0.04673503476075477 
0.04673503476075477 
0.04673503476075477 
0.1986039262920348 
0.2229067371295437 
-0.112896367319419 
0.6181098203513656 
-0.1207328757207706 
0.1503319393389288 
0.4078753381897656 
0.3559268732357478 
0.107921471860718 
-0.4321430172514927 
0.1734527729825782 
0.2274065480830039 
-0.004118360557990039 
-0.004118360557990039 
0.03836548033037303 
-0.105192800019344 
0.03388202686052406 
-0.4263426064683595 
-0.004118360557990039 
-0.2069153244034933 
-0.2885243203869183 
-0.01853009188345641 
-0.01678083400371455 
0 
0.2996780574228133 
-0.01678083400371455 
-0.1255517024460728 
0.07507944760481783 
-0.1234167661121955 
0.4224361558037257 
0.4224361558037257 
0.26788905966862 
0.26788905966862 
0.3646496757546011 
4.336808689942018e-019 
0.1144268631013011 
0.1890441176636519 
0.05579646254731439 
0 
0 
0.061110635802387 
0 
0.2325519650844354 
-0.4208954768335501 
0.04694077320768313 
0.551101774350204 
0.02098308560362241 
0.02098308560362241 
0 
0 
-0.08009380271063579 
-0.1982549030861933 
-0.1562116496114439 
0.2454848389440183 
0.2454848389440183 
0.2851771755248844 
0.04248384088836307 
0.1843557600389242 
-0.09507776326358365 
0.1330795805153565 
0.1746682762615005 
0.1746682762615004 
-0.4937971487527064 
0.06651246242733726 
0.1369164209543272 
-0.201620531625115 
0.1404903212037131 
0.1280042135305201 
0.2062179743554342 
-0.9169093648055936 
-0.2071992697465832 
-0.2071992697465833 
0.2062179743554342 
0.1105598267970018 
0.1105598267970018 
0.1105598267970018 
0.2062179743554342 
0.07752232020766066 
-0.03966322308900903 
0.1099874047704932 
-0.07448522364046714 
0.1381604754376789 
0.1381604754376789 
0.1381604754376789 
0.1773004014504143 
0.1773004014504143 
0.1773004014504142 
0.1099874047704932 
0 
-0.5427580543917302 
-0.1189470939310937 
0.3532920951996198 
0.09951783571097607 
0 
-1.734723475976807e-018 
0.2414588155081986 
0 
0.3532920951996198 
0.04190794658585425 
-0.08009903265689841 
0.1887393614365872 
0.3449548670752056 
0.184272798497617 
0.184272798497617 
0.1577669776389857 
0.184272798497617 
0.184272798497617 
0.289041435099082 
0.04190794658585425 
0 
-0.4904427184799811 
-0.4904427184799811 
0.199129737606951 
0.2669638694131541 
-0.03486226517882346 
-0.01298862988147428 
0.7132823638993586 
0.2162169025948268 
-0.0001640406794648083 
0.7132823638993586 
0.7213961263491086 
-0.01338888212353217 
0.2955433521197917 
0.2089560253717723 
-0.387502071819699 
0.3369290077412173 
-0.0001640406794648049 
0.2828785865425176 
0.2828785865425176 
0.2828785865425176 
0.01297802480019314 
-0.680203903003809 
0.06944934774546406 
1.734723475976807e-018 
0 
-0.2580232872293181 
0 
0 
-0.5830073172743736 
-0.09059521298743516 
-0.02271287925821749 
-0.4950103189412334 
-0.1745978991920984 
-0.1745978991920985 
-0.1745978991920985 
0.2104973081754626 
-0.2104308153544736 
0.08290591716868861 
5.637851296924623e-018 
0.0283085526523125 
0.06495414351044822 
-0.2008452403809768 
5.637851296924623e-018 
0.1900182469621653 
-1.301042606982605e-018 
-1.301042606982605e-018 
0.0283085526523125 
0.06495414351044822 
0.03800038741851409 
-0.9033037926474909 
0.1487936081180373 
0.6574544809296026 
0.5222007928033359 
-0.4307336734758153 
-0.4931527350410126 
0.4624699794943291 
0.6574544809296026 
-0.2221332153001564 
0 
-0.04675452540557074 
0.03694954993217482 
1.387778780781446e-017 
-0.2336386081503289 
0.1010507095628805 
1.387778780781446e-017 
-0.189668119468813 
-0.09998989283537767 
0.342363343470249 
-0.02510558838198288 
0.9044407750476083 
2.168404344971009e-018 
2.168404344971009e-018 
8.673617379884036e-019 
-0.4649853944167445 
-0.4585824785143 
-0.2336386081503289 
-0.476333599103236 
-0.3223540422756744 
-0.07088869216858454 
-0.2369848557853618 
-0.3338658255419487 
-0.3284121369839698 
0 
-0.5635552218421407 
-0.3866581660032495 
-0.3866581660032495 
-0.3866581660032495 
-0.1736240604485277 
-0.2902523260495303 
0.05239723836577941 
-0.1736240604485277 
-0.2232017897754434 
-0.2823911621631237 
0.2499328399656283 
0.1891788137444486 
-0.3031356662995342 
-0.3031356662995342 
0.4274882477837544 
0.06357415763591155 
0.1963521734502577 
-0.9393423888509662 
-0.9730554633403137 
0.002428437739558627 
0.266211611692606 
0.0959634381356687 
0.0714400578899658 
0.08728561906692152 
0.9846982343201459 
-0.1215493303695635 
-0.1215493303695635 
0.05391826351585254 
-0.1215493303695635 
-0.9393423888509662 
-0.9730554633403137 
-0.2221651655681043 
0.01105551389360142 
0 
0.01864325658094589 
-0.2619349616023404 
-0.1265679554362191 
-0.162604895498751 
0.38827778028138 
0 
-0.5460148786804975 
0 
0.2127320264178096 
0.05153572352971308 
-0.1014012470151542 
0.1868861024294133 
0.1564890572879774 
-0.2717108906684285 
0.1778964423075344 
0.2624582346018886 
0.5322223085261275 
0.1661363905062109 
0.4182016066454561 
0.3218621861416921 
-0.04111044688012417 
0.4038773036597835 
-0.56850233608824 
-0.56850233608824 
-0.7186269257776703 
-0.7186269257776703 
-0.5590745187823926 
-1.147647799386326 
-0.2778309059499596 
-0.5268789565420352 
-0.2677476199074745 
-0.1244553426026631 
-0.2280020634299693 
-0.09535263419378318 
0.2980126432027169 
-0.397035584864576 
-0.1487577503824024 
0.1440110846227231 
0.3453108177898691 
0.07161377779156473 
0.3453108177898691 
0.07161377779156473 
0.2357004566896716 
0.358352001637597 
0.2984103632488934 
0.34765660570024 
0.6274802569106045 
0.1976965241414944 
0.1337712509318 
0.6352127668183413 
0.2980126432027169 
0.07161377779156473 
0.07161377779156473 
0 
-0.1488225675138014 
0.08478794475882724 
-0.2170435253452761 
-0.2170435253452761 
-0.2170435253452761 
-0.9298616168245178 
0 
0 
0.1386970344759383 
2.818925648462312e-018 
0.1890050996619017 
0.1299296615208841 
0 
0 
0.08707011191652282 
0 
0.2316893515596556 
0.1991693533545886 
0.06108184104307361 
0.2548360835882526 
-0.1183418439426509 
-0.006369229101023077 
-0.006369229101023077 
-0.006369229101023077 
0.1229169659406789 
-0.5448967626321937 
-0.08948334223002426 
-0.2562650977748766 
-0.3751524301872991 
0.1820277710508524 
0.04480706252691794 
-0.04129139867609379 
-0.1893400259882422 
-0.1893400259882422 
0.08891570548602476 
-0.1512582566671112 
-0.1512582566671112 
-0.3672467936543071 
-0.09015497231228092 
0.05320631342038824 
-0.0117287995696976 
0.4161646734161447 
0.05336179922316853 
-0.1894464922856273 
0 
-0.2360369031231952 
-0.2360369031231952 
0.4120876080572199 
-0.1172835274872915 
0.4055943670964874 
0.4466442480374473 
0.04231710333030324 
-0.02758138923898322 
0.003678139400227801 
0.08998332387165346 
-0.1305850596642769 
0.03104015232505501 
-0.2450347813636496 
0.003678139400227801 
-0.09352363411161317 
0.1031959751112038 
0.1031959751112038 
0.1031959751112038 
0.1031959751112038 
-3.903127820947816e-018 
0.171844266353416 
0.5649211801112507 
0.3026789060931415 
0.3026789060931415 
-0.07025861166347239 
0.5869784398202944 
-0.2149518536821381 
-0.6815354760016182 
-0.01656999871944378 
0.04188310654730896 
-0.01514830208145917 
-0.1006636983020433 
-0.1006636983020433 
-0.6815354760016182 
-0.1006636983020433 
-0.1006636983020433 
-0.3454282697738109 
-0.5996020889274391 
-0.0616999715139781 
-0.0616999715139781 
-0.1553809666002244 
-0.2612216337307474 
-0.5996020889274391 
-0.2490510332438823 
-0.2772644523797596 
0.2790184142776984 
-0.0137533903781736 
0.246714000833607 
-0.006454195821255736 
-6.505213034913027e-018 
4.336808689942018e-019 
0.2790184142776984 
4.336808689942018e-019 
4.336808689942018e-019 
0.003533474478250306 
4.336808689942018e-019 
-0.2269645200601566 
-0.8187903426169669 
-0.3209297737623769 
-0.06822517096357049 
-0.2707793419771378 
-0.2604015067954728 
-0.1263197499751739 
-0.1645921688506853 
-0.7792840835123776 
-0.4183938223176751 
0.1151978340460163 
0.4961309310483558 
-0.3209297737623769 
-0.1707470559977232 
-0.4715047858154482 
-0.3209297737623769 
-0.3209297737623769 
-0.3209297737623769 
-0.3209297737623769 
-0.06184674889064094 
-0.1126358304084676 
-0.2383010892452369 
0 
0.02508584819473248 
0 
0 
0.03874369760333258 
0 
0.1742122985826521 
1.09464227298059 
0.1887889961213214 
-0.1989327050004947 
0 
0 
0 
0 
0.4110195710290698 
0.4110195710290698 
0.8394114117807658 
-0.03485874826474803 
0.150831852308515 
0.592147869356055 
0.3874667664887647 
0.3196302519245354 
0.3196302519245354 
0.07987192409669705 
0.07987192409669705 
0.310012779036255 
0.3497658930107222 
-0.1878762541419808 
0.2107449436365143 
0.2703487271232425 
-0.6296875774649084 
-0.1240512788311057 
-0.5948871662893382 
-0.1240512788311057 
-0.2714551618496289 
-0.03019372405899212 
-0.08672592123209684 
-0.1126909667930175 
0.2120684545704674 
-0.693364849239829 
-0.8141598635496675 
-0.4141319656726771 
-0.2966455970590876 
-0.1240512788311057 
-0.4062453115429449 
-0.9256415981184341 
-0.08621962837296311 
0 
0 
0 
0 
0.02129905496118694 
0.02129905496118694 
0.09285330781980114 
2.602085213965211e-018 
0.06657492569790553 
0.7593576454719505 
0 
0.03027943300941405 
0.1025238967742613 
0.02165161654440978 
-0.08621962837296311 
0 
-0.0799464022576135 
-0.1145904075788248 
-0.4003358004829171 
0.03919303789179591 
-0.1260848414949507 
-0.05458288214781985 
0.2890316580696674 
0.1235668243201924 
-0.02127207295135404 
-0.9787789569483885 
0.1676758283799441 
0.1676758283799441 
0.3052007069282894 
0.8535228024478749 
0.1894233971565026 
-0.07957525188025118 
0.1894233971565026 
-0.0001569896044637056 
0.08313501641022629 
0.1093243644996041 
0.3164138222273523 
0.1894233971565026 
-0.2093946703633153 
-0.2093946703633153 
-0.2377939669795395 
0 
0 
0.02513339129918851 
0.02513339129918851 
0.02513339129918851 
0.266356064768539 
0.1553325357179211 
0 
-1.734723475976807e-018 
0.1549434141052809 
1.301042606982605e-018 
1.301042606982605e-018 
0.05020899917561046 
0.05020899917561046 
0.05020899917561046 
0 
-6.938893903907228e-018 
-0.1624611232218727 
0.06155242397226454 
0.06155242397226454 
0.06155242397226454 
0.06155242397226454 
0.222511763228719 
0.6558308152190857 
0.2441799189129401 
0 
