solver_type L2R_L2LOSS_SVC_DUAL
nr_class 2
label -1 1
nr_feature 49470
bias -1
w
-0.09394215639867828 
1.061092421559872 
2.899377713902635 
0.9407001812499525 
-1.610040190698719 
1.981250293344199 
0.9727166545792638 
0.1134176474110857 
0.3018420961132646 
0.9041656631113881 
3.006840233609632 
-1.854076002880944 
-1.465428706545511 
-0.1779426193249851 
-0.7986623055235488 
1.210307148343957 
-1.599187020125474 
0.2401832128575105 
0.5967878158922925 
-0.3092426032796523 
1.087127706706505 
-0.6793866559131789 
-0.6078269226532599 
0.6750908803835001 
-0.5098386556957755 
0.05327407329011151 
-1.291810305762199 
0.8789237330801814 
1.992845323447154 
0.8734454868026629 
-2.702191926854973 
-1.245698643426012 
1.963392146953602 
-0.346994022851971 
0.512185668229818 
0.1423503025158449 
0.6736992160337529 
-0.4603791863186105 
0.8913980278203286 
0.9817092855209773 
0.7951409239786033 
-0.8482769224903729 
0.8953093921312519 
0.3375782687324744 
0.296425517585803 
0.3151237514355463 
0.9378451478287114 
-0.4809145882856779 
-1.231989711732581 
2.241918402211613 
0.7025287081072892 
0.8442667967884514 
-0.6545486031190272 
0.0946101638231958 
1.487875911054682 
-0.5076457677502591 
-0.05489296526697417 
-0.6830468634782497 
0.3348786849391519 
-1.146213995371828 
0.3309327541604846 
-0.4794152051669303 
-0.4685195632798512 
-1.01869638429939 
-0.2302965716640839 
-0.07301331361626712 
-0.4398892165470851 
-0.8959476514689641 
-0.1290153477305154 
0.2605975004218546 
-0.3981171408867365 
0.40905489719149 
0.3340590076895684 
-1.096094833176792 
-0.5587464101289822 
-0.6881834945090536 
-0.8997489092362678 
-0.2207373101956691 
0.492863112569791 
-0.3281152056095161 
0.8052112070849933 
-0.01268027584849421 
0.946294630045994 
0.06049140605180724 
-0.8945656771801759 
0.7792553002043574 
0.08385233182331089 
-1.039155423737677 
0.9264656599670679 
-0.506818851630274 
0.7632460830237799 
-0.2850200239621977 
-0.2172692312600537 
0.1282940654479965 
0.4181789539391639 
-0.7721590240285313 
0.6294883236001669 
0.5494435343649452 
0.5770353828913922 
0.3406694059878406 
0.2163195053368617 
0.1033394235202298 
0.2929650572368535 
0.5688536111238057 
0.1611613630867247 
-0.3125822040398134 
0.6203881817169513 
-0.5707142427015512 
-0.6650074447903079 
-1.052870066407789 
0.6358625945756439 
-0.5993893129669413 
-0.1775079184784611 
-0.838850133044148 
-0.3397771849980587 
0.3853300997101363 
0.6833440888801424 
1.075361839359913 
-0.1424283655937446 
-0.04093212714333928 
1.189222364695296 
0.02245410096476197 
-1.081612586744021 
1.875662510938124 
0.6355694728382734 
1.445234672719489 
-0.3084344815841286 
0.04419811762914411 
0.122901301810375 
0.5873732307886798 
0.8260880408131706 
-1.70602395462338 
0.533678529854287 
-0.5747679907264469 
0.1606757788871978 
1.217655818191307 
1.404058184015082 
0.3793143838348123 
-0.04315803306720017 
-0.4345073090866409 
-2.130505454497294 
0.1123670993038968 
0.4932499912964125 
0.08492065930251697 
-0.2921573779934528 
1.032753188258874 
0.4961240003882885 
-0.3487700842522303 
-1.195775457443034 
-0.4770002704816049 
-0.7435384893581875 
0.4932219732266699 
1.004033101083099 
-0.5472996197134539 
-0.5472996197134539 
-0.3290487733012995 
0.3454030270908636 
1.270361322365186 
0.1207445728832916 
-0.176599579993688 
-0.176599579993688 
-0.1320955422788523 
-0.176599579993688 
1.077434718654819 
0.7564333238434743 
-0.08077917915976404 
0.2801176460990598 
-0.8687833760992938 
0.5672644454182917 
-0.04347837336446843 
-0.04347837336446843 
-0.04347837336446843 
1.403995323891898 
-0.04347837336446843 
-0.04347837336446843 
-0.04347837336446843 
0.2057781573901187 
0.2522258374306549 
-0.04347837336446843 
-0.03048597586921906 
-0.04347837336446843 
-0.1525504347808056 
0.4932219732266699 
0.4932219732266699 
-0.5121695851009221 
7.455630497995616 
1.305875688624439 
0.311957370629352 
-1.537013564837668 
0.8397255791779104 
-7.100061919610797 
-1.55134742518814 
0.04713867799266248 
0.05480224347641181 
-2.854901878021648 
0.3940805750122615 
0.8160219505603277 
-1.539022290769108 
-1.396597877707641 
-0.1187672974303378 
-1.408094778012973 
1.283094732592149 
-0.09437064650649912 
0.8350012667802463 
0.07831349098665168 
0.2727949399843022 
0.6883953394611994 
1.717103672341553 
0.3772524428182238 
-0.313453282054532 
-2.249061142299004 
-0.4773518514758671 
-0.3111594412859386 
0.4259366741408723 
0.09998391914145066 
-0.3154269866517194 
0.5912416869791037 
0.0371529459028089 
-0.4659868194403417 
-0.2153655437139182 
0.001331632420111941 
0.3940805750122615 
-0.9210171518455083 
-0.307089172619829 
0.6312676999702338 
-1.646654674769859 
-0.4348492075546346 
0.8608588679779013 
-0.3075111082494602 
0.8160219505603277 
1.321828547533235 
0.04739893433228656 
0.2608113213592067 
-2.340144528200978 
-0.6438521985683021 
2.153904883939868 
-1.199705159676657 
-1.436667064192203 
0.192034888225523 
-0.9602058141710457 
1.615636733748797 
-0.6133470255189002 
0.2245819187703696 
0.2354960192438022 
-1.34142213734521 
0.04983039661191378 
0.1674863877844515 
0.4783489281640325 
0.8856858584257877 
-0.8304935518394211 
0.1910282170401879 
0.5128447277224579 
-1.208374521884213 
0.1484336601846509 
-0.2673747181606535 
-0.8125345198175525 
-0.1464824915627893 
0.3407549745426374 
0.8630073994629093 
0.2854309030343306 
0.1638827132664102 
-0.1531737541444016 
0.6255213012886939 
-0.9188659977219368 
-0.6704804866182308 
-0.9486165040184753 
-0.565788081866177 
0.4027983977921862 
-0.3981097952588663 
0.1253073653790719 
0.1253073653790719 
0.5062231988852763 
-0.2316117423286193 
0.2722665760872202 
-0.5156536894684133 
0.2722665760872202 
0.7891665521611441 
1.600669550714559 
0.2866746350262753 
0.9278449696467888 
-0.782042239656272 
0.3407141877732394 
-0.7319920212988487 
0.1128147378180618 
0.1128147378180618 
0.5138491792522655 
0.4984428706162418 
-0.2168882624920962 
0.3407549745426374 
-1.303577580303865 
-0.267050683322178 
-0.6295049118938783 
-0.267050683322178 
0.7883282186962954 
-0.5264001616754972 
1.064150044604656 
-0.3316980432063003 
-0.6798471587482633 
0.5614829557670609 
-0.3951245267762597 
-0.2303066728400213 
-1.018660796905342 
-0.5901453050344239 
-0.03865618652548039 
-0.2430322383296106 
-0.494994612071666 
1.796834136688155 
-0.4862862437492901 
-0.7777765870529019 
-0.09217821171644416 
-0.6295049118938783 
1.150129540467942 
0.1401449299535988 
-2.605969288338323 
-1.848268633491957 
0 
-0.865600026471919 
-2.668862501039928 
0.707147828456329 
0.09294015760502378 
-0.9087157159862702 
8.673617379884036e-019 
-1.94629137688848 
1.465748689673961 
-0.1567160855608527 
-0.01378689282495211 
0.316658468034584 
1.737312326805209 
0.316658468034584 
0.316658468034584 
0.6895816390409255 
-0.1170670154374814 
0.0306953401320137 
-0.5496412936938543 
-0.3259009652764432 
2.374826619763479 
0.2639862538757843 
0.1796645706223687 
0.1801333277935111 
-1.570551948750319 
0.596724643049758 
-0.425272938993867 
-2.484573667177509 
0 
-0.06732122445689995 
1.128342330351623 
0.4975104826481503 
0.05304008805711747 
-0.7914226079933823 
-0.865600026471919 
-4.336808689942018e-018 
-0.4352462786887838 
0 
-0.003402583595643332 
0.3082008560697467 
0.5491865870800542 
0.3298890043975987 
0.1524436027703049 
0.1524436027703049 
0.1524436027703049 
0.4750105038364656 
0.0186844014244165 
0.4750105038364656 
-0.1443298608673957 
0.3028739994084922 
0.8419780743273247 
-0.003402583595643332 
0.3288768368267534 
-0.9591005769821784 
-0.1357020043697733 
0.9265911613586095 
0.3525286519124403 
-0.07620622154634239 
0.5387428887387089 
-0.1696204570042044 
-0.4909764761252675 
0.5507315717347484 
-0.1092135572685177 
0.6153735713393457 
2.332537069448164 
0.4789783510538367 
-2.700241241271275 
-0.1026085938702974 
2.130174644924774 
0.258994129089587 
0 
0.1080518890286455 
0.1452884533047116 
-1.343857924874628 
1.351474344356426 
0.8619131978337135 
0.1931301431218487 
-0.2616076664351077 
0.04999521911499547 
0.1270841074611728 
0.2654145221082848 
1.365885189644849 
-0.3385854590441677 
0.09232750428327068 
-3.21047169820267 
-0.8400904018239623 
-0.9474515959274018 
-0.2848032214090684 
-0.7194821438222787 
-0.5120426910273019 
-1.281973083086813 
0.1273590635675925 
0.2447833891783924 
0.3013287979924085 
-0.6008922886450665 
-0.4869824430096706 
-0.533082372360851 
-0.633482397032295 
-0.04754397636098623 
-0.1513207792630817 
-0.675028786088523 
0.1083566927301669 
0.5331634702915514 
0.2778040363850379 
0.1844529295366865 
0.1844529295366865 
0.08142641942132559 
-1.006181178982526 
-0.6495277865137733 
-0.3513658313235522 
0.9616332306766126 
-0.6017827666641822 
-0.1364891512013575 
0.5444495259563209 
0.08141171615809506 
0.02535563636469214 
0.02535563636469214 
0.08141171615809506 
0.02535563636469214 
0.02535563636469214 
0.02535563636469214 
0.3444769581766776 
0.02535563636469214 
0.02535563636469214 
-2.934966413319042 
0.08141171615809506 
0.02535563636469214 
-0.7615249169886831 
0.02535563636469214 
0.0855361494352376 
0.2998213583483638 
0.7617945893468414 
0.02535563636469214 
0.02535563636469214 
-0.9765117233354743 
0.02535563636469214 
0.02535563636469214 
0.02535563636469214 
-0.267257245470664 
0.02535563636469214 
0.02535563636469214 
0.02535563636469214 
-1.619980503125515 
0.02535563636469214 
0.02535563636469214 
0.02535563636469214 
0.3252139363224135 
0.02535563636469214 
0.02535563636469214 
0.02535563636469214 
2.30525185673867 
-0.614814874714586 
0.02535563636469214 
0.02535563636469214 
0.399380932432781 
0.02535563636469214 
0.02535563636469214 
0.1695379106633578 
0.02535563636469214 
0.02535563636469214 
0.02535563636469214 
0.8920935039574736 
0.1173243236795946 
0.1173243236795946 
0.1173243236795946 
0.2656726401029078 
0.1173243236795946 
0.4484978047151406 
0.1173243236795946 
0.7568264298783737 
0.5217366526540628 
0.05605607979340294 
0.05605607979340294 
1.100198702446429 
0.1035277706030002 
-0.1742475673198173 
-0.1375052378421516 
0.4763800405456494 
0.4994039592168004 
0.1990645054792355 
0.5967159697864622 
0.2476484064193422 
0.2991561682739504 
0.06895776990586411 
0.3950261292818686 
0.704535548048105 
0.2041563510113433 
0.9354582418797303 
0.3746922395284736 
-0.3981471720606991 
-0.3903341210406833 
0.3232490282943893 
0.4502833838866464 
0.2919345269350553 
0.8227604721253214 
-1.128003486660043 
-0.1075377752253797 
-0.327264398873988 
-0.2556811057867607 
-0.4642700159192396 
2.001619402961435 
-0.513661845571223 
-0.2523016549942335 
-0.2523016549942335 
-0.01478490929249435 
0.2624761562309134 
-0.6341689940959889 
0.5011815824834428 
0.8823068363757068 
0.5788498975960557 
0.389499519352049 
0.4504826478886677 
1.624190266090432 
0.377064233785148 
-0.2904620230575937 
-0.8266911506553694 
-0.1842345837399552 
1.625280487129482 
-0.2786059634635326 
-0.413839786241506 
0.8138474146564041 
0.2831454934816322 
0.2897110475845902 
0.2897110475845902 
0.6454584779003592 
0.9839170211310917 
-0.7828032397615443 
-1.245536801783255 
-0.7140184838351606 
-1.26942826968699 
-0.2888137788225971 
0.3014154103918075 
-0.3738181639050837 
0.9211055678411002 
0.3730174611408839 
0.715999089953642 
1.284501480110323 
0.3022270657543641 
0.3022270657543641 
-0.1416465755767953 
-0.2668294596166719 
-0.3276024620401208 
-0.3781452973317261 
-0.1416465755767953 
-0.1416465755767953 
-0.1416465755767953 
-1.322614328573359 
-0.6961594117201269 
-1.04206457395724 
-0.1416465755767953 
-0.08865296979400654 
-0.6054149334867239 
1.211471934387705 
-0.11495979582965 
-0.385773075764226 
-0.4568439978994773 
-0.09418261622476544 
-0.1025266118186229 
-0.1025266118186229 
-0.07188491348264296 
1.246291356668742 
0.1031613540522029 
-0.8925518216490959 
-1.064254242887922 
-0.7127910600379175 
0.4928495962116162 
1.520358691117356 
-0.7333022423307549 
-0.9270204924641838 
0.7356282376255978 
0.088518022065456 
-1.327140958678 
1.528155055480839 
-0.5381903102823169 
-0.2772170929640492 
-0.2990523066953206 
-0.2990523066953206 
0.909450068776625 
-0.9357721751742298 
-1.435469094212841 
0.2749457080972543 
-0.5237794990274572 
0.3382192366335843 
-0.6663933115867365 
-0.5304405200446747 
-0.1217656627836772 
2.605906413414804 
-1.036392558055032 
0.0006457260178554371 
-0.5473098540964452 
-1.100252527772196 
-0.3850842297487686 
-1.200040150392322 
-0.4199344171384762 
-0.2479117873795681 
-1.232924305249651 
-0.4742278746967339 
0.7081533617632909 
-0.02982956178263546 
-0.6142291682808556 
-0.4949150556631609 
1.462889330363629 
0.9570654293381918 
0.02568309732600722 
-0.4959583690166682 
-1.495078526754029 
-0.04591994132939323 
-0.3716102767290029 
-0.1973889627677608 
0.09519068399087752 
-0.1461749507700675 
-0.2607518383813315 
0.2821752418685482 
-0.4906003466639673 
-1.508921367354451 
-1.371490790835689 
-1.039257794977907 
-0.233164603818447 
-0.3420271035637729 
-1.654952094519847 
-0.3759700970285041 
-0.1785917059188053 
0.01536308319281304 
-0.1870381153303851 
-0.972783631813221 
-0.972783631813221 
0.01392101756967647 
-0.8530055426214783 
0.01392101756967647 
-1.636031758035102 
0.7777846586013485 
0.364029549441046 
0.3646542924783994 
-0.07419418471506539 
-0.1462952431851808 
-0.2896932727432777 
0.867126729558481 
0.2725889152736307 
1.069936331191904 
-0.6913865696820449 
0.2787684204501804 
0.2787684204501804 
-0.2582756003952013 
1.131842794995942 
0.4240026554662241 
0.5565598439262245 
0.3429451545567799 
-0.09103665438602258 
-0.5267445095605037 
-0.1030714667746603 
-0.2078042523620898 
-0.5592562549289315 
-1.006905574440856 
-0.05265036848207684 
0.4125320932719706 
0.4125320932719706 
0.4125320932719706 
0.08892835483659271 
0.08892835483659271 
-0.600733988722675 
-1.035722320230913 
1.380403543228363 
1.31988168514635 
0.472982046588413 
0.3422768232589374 
0.9874571227547306 
1.042840969022745 
1.042840969022745 
1.064842147378768 
-0.2078042523620898 
0.2327899034185696 
-0.5592562549289315 
1.351370502050733 
0.69758883261046 
0.5986467811743682 
-0.238900530817315 
0 
0 
0 
0 
0 
0 
0 
0.5555945507888844 
0 
0 
0 
-0.08362820881455661 
0 
0 
0 
0.8452803859085369 
0 
0 
0 
0.5172511319623646 
0.3690729026758921 
0 
0 
0.2022103729033097 
0 
0 
0 
-0.2344254529452807 
0 
0 
-1.147545297485963 
0 
-0.4741387923080861 
0.4614266679507433 
0 
0 
0 
0 
1.24874521175894 
0.8641907685618816 
0.8641907685618816 
1.003344475350578 
0.8641907685618816 
-0.1387622666641183 
0.2606037347287143 
0.0426974695167868 
-0.1234539806158169 
0.0649957185674522 
0.7846324209452996 
0.3050434771539539 
0.834222479615555 
0.105350924933448 
-0.7890341253622684 
0.1631660472904582 
-0.5018750360394869 
-0.2724866041892072 
0.2606037347287143 
0.3464914165259533 
-0.1210856650405826 
-0.2637561190355887 
0.767267376115212 
0.1230167179506656 
-0.03836586092790689 
0.319149086462821 
0.5415705400436921 
-2.484997801587167 
-0.142603809097977 
0.06828656779306579 
-1.836488253006425 
0.1712666362582002 
0.3735409215178911 
-0.5784634039873114 
-0.1127656532475664 
-0.3564945275426579 
1.319356865004644 
-0.2392718101177568 
-0.1423233159726719 
1.305337620266694 
0.07280917761970203 
0.07280917761970203 
0.07280917761970203 
0.07280917761970203 
0.7812913801678515 
0.07280917761970203 
0.07280917761970203 
-0.2821917016774472 
0.07280917761970203 
0.1588411006731498 
-0.01901802646372509 
0.05320060461458113 
0.07280917761970203 
0.07280917761970203 
0.07280917761970203 
0.07280917761970203 
0.07280917761970203 
0.3801573284717346 
0.07280917761970203 
0.07280917761970203 
-0.2109670856723648 
0.07280917761970203 
0.07280917761970203 
-1.043015138307714 
0.4190972922947683 
0.07280917761970203 
0.07280917761970203 
0.07280917761970203 
0.07280917761970203 
0.07280917761970203 
0.09042633185191799 
-0.2392718101177568 
0.1684169837472851 
0.002146262859147398 
0.002146262859147398 
0.002146262859147398 
0.5153965208949343 
0.1258381583325086 
0.002146262859147398 
-0.6931974861609003 
0.3949038026231428 
0.002146262859147398 
0.002146262859147398 
0.1934594662574425 
0.07289858884020786 
0.002146262859147398 
0.09643911373050124 
0.02568678774944078 
0.002146262859147398 
0.1876275586325334 
0.02568678774944078 
0.002146262859147398 
0.002146262859147398 
0.002146262859147398 
0.002146262859147398 
0.002146262859147398 
0.002146262859147398 
0.002146262859147398 
0.002146262859147398 
0.002146262859147398 
0.4706104700337002 
0.002146262859147398 
0.002146262859147398 
0.002146262859147398 
0.002146262859147398 
0.002146262859147398 
0.002146262859147398 
0.002146262859147398 
0.002146262859147398 
0.002146262859147398 
0.002146262859147398 
-0.7592272485996067 
0.002146262859147398 
0.002146262859147398 
0.002146262859147398 
0.8648640898599989 
0.002146262859147398 
0.002146262859147398 
0.002146262859147398 
-0.5786224296849403 
0.002146262859147398 
0.002146262859147398 
0.002146262859147398 
0.2344707799254442 
0.002146262859147398 
0.002146262859147398 
0.002146262859147398 
0.002146262859147398 
0.002146262859147398 
0.002146262859147398 
-0.1306846984864015 
0.002146262859147398 
0.002146262859147398 
0.002146262859147398 
0.002146262859147398 
0.002146262859147398 
0.002146262859147398 
0.002146262859147398 
0.002146262859147398 
0.002146262859147398 
0.002146262859147398 
0.002146262859147398 
-0.6246216473683514 
-0.6127644338346104 
-0.7678610305044489 
-0.02238628445647502 
-0.52525152020782 
0.1752922735066232 
0.3783442990652205 
-0.6246216473683514 
-0.1619322332737413 
-0.3662548486532098 
-0.3662548486532098 
-0.3662548486532098 
0.4168681609628838 
-0.1899795834409889 
-0.1398272343200367 
-0.3681203643685068 
-0.1665445237392233 
0.03996492860240163 
1.177342383987096 
0.26789645423079 
0.7973282524386909 
0.4805894015111472 
0.000279537562177464 
0.1850309067345099 
-0.1791874766785611 
0.05700606692336276 
1.658789730326657 
0.959269146428157 
-0.3010113659304863 
-0.6797177349108655 
0.6466007885626959 
0.1186084506735352 
-0.531763357117484 
-0.009712636488110936 
0.3522740217867964 
-0.3537917813608713 
-0.4329569209966063 
0.01145602985004016 
0.01525659617932663 
-0.4633274810071271 
-0.0952951566848764 
0.2400588969955093 
-0.06774786500838513 
-0.03225235138728343 
-0.03225235138728343 
1.118855638858174 
-0.03225235138728343 
-0.03225235138728343 
-0.03225235138728343 
0.2419591827354541 
0.07149749473043195 
-0.03225235138728341 
0.6130397446644798 
1.454378144967879 
-0.7428898920186208 
0.1952779717304397 
-0.5655031593737271 
1.952227246330779 
0.2683999468282129 
1.64377727760081 
-0.1754419424329858 
0.2260758941879344 
0.1014849416998268 
0.3426254003562008 
-0.002329600203267699 
-0.630513627830416 
-0.4357657852242567 
-1.554398334069388 
0.4040827531828163 
-0.1541759422538149 
-0.109445386482867 
-3.692142680264169 
-3.217670314850166 
-1.356737943543557 
-0.4899528565119952 
-0.007413184474222354 
-3.927374398472673 
-0.7921320729405617 
0.5672590335958386 
-0.1548368654659719 
0.461687303042281 
-0.4382280552446133 
-0.6930586124331573 
-3.346484559467647 
0 
0.6069652635068559 
-1.356737943543557 
-0.4349225211491647 
-0.9416796355266209 
-0.9416796355266209 
0.6974149791417739 
-0.3929475908319379 
-0.1517513485802547 
-0.1517513485802547 
-0.09834260819193161 
-0.6007694518471723 
2.475487242197708 
-0.2732413799227634 
-0.007413184474222354 
-0.1628103746551887 
0.7876676134961745 
-0.05517134964546321 
0.3598332047991879 
0.5449124688703578 
0.6328787931255878 
0.1817238960374275 
0.1817238960374275 
0.3220722130845759 
0.1817238960374275 
0.2084979819721932 
0.1029530801774787 
-1.396781511158774 
0.1875281130151545 
0.9175591816277933 
0.8958379086798592 
0.8958379086798592 
-1.052921111220123 
0.1453017777718312 
0.8163604574951578 
0.8286597779958327 
0.5907311470675208 
0.1148572328084386 
1.185104821868902 
0.3842188403128262 
-0.08547253578912906 
0.04460102272257927 
0.04460102272257927 
0.1633338340558997 
-0.2815692812764541 
-0.2815692812764541 
0.3353464146347063 
0.07322830856886931 
0.3353464146347063 
0.3353464146347063 
0.07281745123982548 
2.32792567173045 
0.3076802552776384 
-1.18000309384937 
0.3187543970121096 
0.0599172139836661 
1.321616536989024 
0.7247241094424368 
-0.4948526555172157 
-0.1012026714078422 
-0.7882964030447439 
0.7494674399080624 
-3.515106382938117 
-2.493003958521463 
-0.8060911071156045 
-0.2866626127630453 
-1.417785032297162 
-0.7245973516610931 
0.3670237105917031 
0.3670237105917031 
-0.2203910262234381 
0.77067078604517 
0.4893247625133646 
0.4533317278983479 
0.07358830960513731 
0.07358830960513731 
0.7494674399080624 
-0.3010273565025148 
0.0416573430953359 
-0.07598092219845995 
0.01309531159875174 
-1.083844015347307 
-0.6738417159155962 
-0.117188631148292 
-0.03105633749799469 
-1.752051831176392 
0.4563486301587212 
-0.2295188437006031 
-0.06986067138592848 
-1.289981419881755 
-0.2190151128188958 
-0.5485404208260049 
0.8503099088469341 
-0.5585964569296037 
-0.7418822440036137 
0.9244716646138882 
-0.1622790517200065 
-0.1622790517200065 
-0.1622790517200065 
-0.1622790517200065 
-0.1622790517200065 
0.8295769022551112 
-0.3177292050695669 
-1.752051831176392 
-0.8334640140655433 
-0.2963395122207786 
-0.2963395122207786 
-0.565979294562069 
1.5040666054289 
0.3173847309853525 
0.3173847309853525 
0.081120897614125 
0.2051195342184519 
0.081120897614125 
0.081120897614125 
-0.573177351514056 
0.081120897614125 
0.081120897614125 
0.081120897614125 
0.5754088546961271 
0.2751429642211716 
0.09032173637076749 
0.7408339253271009 
1.630114994992087 
-0.04688162754347069 
0.3292683882349706 
0.3292683882349706 
-0.6193665374870795 
-0.1360469214168661 
0.4522550591644197 
0.3101978390295104 
-0.03588854849884846 
0.874755104239648 
1.012524133891402 
-0.1198026952576354 
-1.068064013714966 
-0.2160516626656745 
-0.1630464177205589 
0.1879697381906242 
-0.3589353455817146 
-0.2714923879808776 
-0.4064589639267914 
0.3234096562540052 
0.159392983343937 
-0.6267388683629718 
-0.718565691625222 
-1.639257256219802 
-1.018357510971129 
-1.546046939046511 
-1.733806579296018 
2.542374578315568 
-0.3646616947655399 
0.07447033176537642 
0.1399477246556845 
0.7285118566323497 
-1.556994752139643 
-0.07343354766431363 
-0.6193665374870795 
-0.003091390082981624 
0.1850538479056065 
1.641479056335264 
-0.1317934658746542 
0.08044115246091486 
0.9193976725490975 
0.1021787317065445 
0.1382634386341145 
0.1040313783985732 
0.2914893638206557 
-0.1762103676029312 
-0.6685079998074253 
-0.1264507506016645 
0.1494195459270057 
-0.4250947554111069 
0.5754923173983563 
-0.1047722900964073 
0.1312719757642119 
-1.20833333508472 
0.8947004518226849 
0.02845867557152795 
0.2953608390288218 
-0.3701752399836794 
-0.08500706182637488 
0.04164856947027623 
-0.09246148691088051 
0.04205759664470775 
-0.09246148691088051 
1.548639265868429 
0.7819589237562821 
0.06382657576458209 
0.5101029944711261 
0.2972994119034494 
0.2643904423095682 
0.07580793645494688 
0.2795546464769926 
0.2795546464769926 
0.06616140279494279 
0.05366580006495435 
-1.03861452132503 
-0.08674464278744093 
-0.3404939854265866 
0.1813679605588521 
0.01143402698248184 
-0.427643844997736 
0.2134155069093999 
1.297540271086114 
-0.1485361551820156 
-0.1489390096054774 
1.464021157003349 
-0.06500482450728928 
0.368758945556447 
-0.323176669792808 
-0.2921920134728755 
0.05957820023603361 
0.1587337736399489 
-0.1148770697566055 
0.2927865116343079 
0.4668022549251181 
-0.2835664945810296 
0.5547036558137614 
-0.581060972741779 
-0.6375219535603197 
1.053575877275783 
0.04494408555090629 
0.7252337321234941 
0.2946639507109505 
-0.08898125539161424 
-1.447570023325329 
0.2841945584220574 
-1.061691783880626 
0.2841945584220574 
0.8559615619046206 
0.4213557237618189 
1.53265887065629 
-0.581060972741779 
0.1048416911027358 
0.06073497082291501 
0.6815409434614834 
0.1870897602468918 
-0.3199745624268525 
0.05494476486258715 
-0.26550721422215 
0.001605325429114029 
-1.331492243321841 
0.001605325429114029 
-0.1846095459744747 
0.7742765064063383 
1.939277583193014 
-0.2019832981462309 
0.3594675378962341 
-0.09567871194442801 
-0.5342788223993907 
0.8231781837937122 
-0.898453601114495 
-1.203134590970089 
-0.3053823735910022 
-0.2368451774137667 
-0.8830242574588019 
-0.7409551052775153 
-0.5214004984240376 
-0.09795340025442363 
-1.021046458490933 
-0.851167543146521 
0.06317372974798766 
-0.4555041412581432 
0.5904291397330087 
-0.3206772544760101 
0.2086865458739984 
-0.1864989142785236 
0.3959577825591277 
-0.8263867299205892 
-1.182390224144487 
-0.3608101247685717 
-0.277654073183653 
0.1343942797115927 
0.2669842279028747 
0.6734583914472507 
0.1885306093836736 
0.1580520986602888 
0.3664452887138086 
-0.02258403392101954 
-0.02258403392101954 
0.1628782647959539 
-0.693848481557933 
-0.9050883384879408 
0.2835229534334074 
-0.7828583886239258 
-0.9050883384879408 
-0.1299285923865607 
0.5037505062345635 
0.003775467953451766 
-0.3494495261150357 
-0.3396631624215384 
0.5347643946288041 
-0.7387897700831393 
-1.59731371781922 
-0.7387897700831393 
0.2381115212875541 
-1.287306538018042 
-2.673256068170928 
0.3642932815261878 
0.5023023311746715 
-0.09669916389378641 
0.09925929036756723 
-0.411314684190746 
-0.411314684190746 
-0.9839795395681259 
-0.6326944284489109 
-0.29090420306617 
-0.06528153276955633 
-0.5710475870685461 
-0.09669916389378641 
-0.2645382365631144 
-0.5641460233081583 
-0.09669916389378641 
-0.1799137666794775 
-0.3930460693174194 
-0.1988378719052021 
0.428537033237377 
1.029849688082086 
-0.1494195422612502 
0.281110671183403 
1.972811400904535 
0.5358808550748809 
-0.6280830164690363 
0.2259322481585115 
-0.3181782703757508 
-0.1748619962511939 
-0.2114537599986761 
0.5013356746486328 
-0.8471104158425609 
-1.059572234866545 
0.2320985454978296 
0.8630985612882332 
-0.1237423083404581 
-0.8770257812783583 
-0.7915936041889892 
-0.3688429798161516 
-0.2760118881877501 
-0.2760118881877501 
-0.2760118881877501 
-0.9238540020417767 
-0.7946430020243486 
-0.04994444376989967 
4.336808689942018e-019 
-0.293362151924855 
-0.293362151924855 
0.8166606936007408 
-0.5147495316438331 
0 
-0.2321515967708263 
-0.4163548478982252 
0.08315532623673683 
-0.04994444376989967 
-0.1092038105200847 
-0.4550816582679393 
-0.06535948265752262 
-1.268306971838363 
-1.170890937969021 
-1.170890937969021 
-0.179010845179506 
-0.8971936186760798 
-0.1226289136635284 
-0.279177089666598 
-2.463818471446496 
1.114621026355039 
0.6529087184185273 
0.06993884151099079 
-0.9589600430109238 
-0.08406902383181514 
-0.2004488840406942 
1.033818319718665 
-1.203485240414394 
0.1317054501892267 
-0.5176704794709751 
0.1009142278324749 
0.2654748238441959 
0.8694736364005786 
0.138301697396051 
-0.1901584061041995 
0.6959402529734657 
0.1004970442587012 
-0.03129680762784594 
-0.03129680762784594 
-0.09326926965092332 
-0.1452814663512539 
-0.03129680762784594 
-0.03129680762784594 
-0.00428787101416262 
0.4280701876346979 
0.07002551610725669 
-0.267842382747512 
-0.4701921645678311 
-0.4701921645678311 
1.399283544559465 
1.465139511325835 
-0.5061641895972895 
0.2411200519325853 
-0.1742428305979565 
-0.6721966550964056 
-0.4825242312578547 
0.4458589022087114 
0.5830836387243834 
0.148643836124939 
1.020674361044954 
-0.05454697359028187 
0.1792799830893795 
-0.03170581330422741 
-0.3568330066827605 
-0.9009287654741276 
-1.382667198973214 
-0.4226920570266373 
-0.2267437185304622 
-0.1701990743740227 
-0.2184531359755345 
-0.1620974727382615 
-0.2085805338639437 
-0.7152686335225637 
-0.4246476013878944 
-0.2875586996247763 
0.4348326305233828 
0.9531484411630973 
-1.918715027472967 
0.04341526466638594 
0.4348326305233828 
0.4348326305233828 
1.873864483538605 
0.2824616681279943 
0.5608341590677111 
-1.818121037264548 
0.5608341590677111 
0.6803803700263823 
0.7628216690048568 
0.9285545453194528 
0.16858852524441 
0.6202437621318722 
0.4877097709705285 
-0.7814668510987898 
-0.102403638083629 
0.1685895714803681 
0.2302337980958573 
-0.2006788822540459 
0.2302337980958573 
0.03260731035540898 
-0.2954120317129166 
-0.1735825599173868 
0.5452454076283287 
1.434624588192404 
-0.6107624927470252 
0.4123129012666819 
0.7310838516810171 
0.3635683314926094 
0.5911039547632567 
-0.3351321690085536 
0.7718847601745577 
1.481598262285848 
0.7034488039248401 
0.4442306744894347 
0.6511968313690285 
-0.3147341328694294 
0.2316139205410385 
-2.755630312124813 
-0.150950062584299 
-0.4492794668874048 
0.1092254459499506 
0.6398643072924395 
0.7236793358773458 
-0.2110274366943143 
0.4833480755067401 
0.9802922796672842 
1.037360478955509 
-0.2977973834078097 
0.3925988675339736 
0.291144874157263 
-0.344858299257689 
0.2533898940999611 
0.145950032979452 
-0.1774068440108846 
-0.434782425530101 
0.09243029708689941 
0.291144874157263 
-0.3217546752188583 
-0.2532089847327458 
-0.8919575716802188 
-0.1037996267365108 
0.1021851414935684 
0.2532763674459033 
-0.2895797118622415 
-0.3429823332746164 
-0.2382778140167172 
-0.2382778140167172 
0.188808173110851 
-0.436452440876254 
-0.1852798385689302 
0.2069220255812396 
-0.1261791721725949 
-1.519222703913437 
-0.4716913868074394 
-0.02153642822436413 
-0.02153642822436413 
0.3505708284386116 
0.1248100509421217 
1.133069679042297 
0.4053888866804797 
0.5258732729033996 
0.549203101878784 
1.127385530106971 
0.08886631395534077 
0.5052307701091598 
0.5052307701091598 
0.05696271990184715 
0.1425009050871701 
1.275600793491083 
-0.4941247793421773 
0.3401274014219258 
1.232656591768491 
-1.260388195191852 
-2.57888516050066 
0.4014173859555882 
0.7572264731187912 
-0.4912130929399368 
0.4273943027682607 
0.2370763814383691 
-0.486553703832865 
0.6479356065937387 
0.1290320100093357 
0.1290320100093358 
-0.2814870660339696 
-0.2163389040339035 
1.484684937636295 
0.1357752654632475 
0.8514373427152522 
0.05758657992797193 
-0.7677833374124991 
-0.4726340721282479 
-0.1121524544038946 
-0.1121524544038946 
-0.1121524544038946 
-0.6980251254541238 
-0.217078569180383 
-0.3784228050244936 
-0.03553942877333131 
0.8018104582259059 
-0.1371625509081922 
0.6713195390967881 
-0.3505753852248246 
-0.1656333319285153 
-0.1656333319285153 
-0.09534745349582523 
0.07437675839056851 
0.3028120165982876 
-0.1301499652990029 
0.1044341226910893 
0.7071086154988132 
0.05425726896160728 
-0.2407482467389547 
1.369631895585254 
1.046916236352663 
1.093801866186475 
0.6212631162272321 
0.4999916875475889 
0.1662096731284804 
-0.1654060914669594 
0.4779486099789523 
-0.2479973704634884 
-0.04604097886961294 
-0.01522359155998818 
-0.3436453882569551 
0.6352605109063941 
0.3034385158328637 
0.4643386155999127 
0.8874139233661351 
0.3989286903537422 
0.6129185845756899 
1.677623187415206 
0.6485594700629843 
-1.025967205081304 
0.5605330258939468 
-1.668409995943278 
-0.2864257765928011 
0.02067097520196915 
-0.6435834350841579 
0.02067097520196915 
0.2725288771686462 
0.1417608421723872 
0.2210917490925523 
1.386979162629378 
-0.1608590470150418 
0.2768727319336385 
0.08160047532641926 
-0.809376181200453 
0.6334592292581319 
0.1340291858077182 
-0.09248672983816912 
-0.264186523349572 
0.4234510280579627 
0.4234510280579627 
0.6334592292581319 
0.4234510280579627 
0.3406368554554458 
-0.201436506752938 
-0.201436506752938 
-0.201436506752938 
-0.201436506752938 
-0.201436506752938 
-0.201436506752938 
-1.202394700033951 
0.2915865969183553 
0.2915865969183553 
0.2915865969183553 
0.4788758709835902 
0.2915865969183553 
0.2915865969183553 
0.04631362954536698 
0.2915865969183553 
0.5227736568295639 
0.224745891372913 
-0.07844357301027968 
-0.6040215539960927 
0.1894377120943264 
0.4919872276527366 
-0.6982391144775852 
0.5422124491945668 
0.1159045549507762 
-0.09248672983816909 
0.1340291858077182 
0.0199553814619815 
0.5854756481525334 
0.2149181141152069 
-0.3310811144240696 
-0.6631784798787738 
-1.055716892280072 
0.2569030427584389 
-0.07791823723509159 
-1.055716892280072 
0.9775136415879491 
0.2169124607586037 
0.2776897952618592 
0.2776897952618592 
-0.03001375250363446 
0.2932768153017368 
0.2932768153017368 
-0.02107935315009751 
0.3638205578450942 
-0.5820894544218225 
0.84482613533103 
0.4519540735496038 
0.1427754156382422 
0.3465646706661775 
-1.206007877073791 
-0.1136219490222509 
0.1178904836695317 
0.006290209484725105 
0.4482419000121767 
-0.02107935315009751 
-0.79217665175314 
-0.3231804165138926 
0.3522488524499969 
2.758226957780613 
0.12867679791891 
-0.7437692038363473 
-0.3274296301206 
0.9162262357564537 
-0.3330218586042014 
-0.1466655138632433 
0.02066566479244341 
-0.1825853776088612 
0.7340327496958704 
-0.2468471359237561 
-0.2468471359237561 
-0.5143127129438341 
0.05357646486803386 
0.3276916923279514 
0.430944111892397 
0.7113932450519064 
0.02066566479244341 
-0.14932623601416 
-0.2590294522452271 
-0.4797761461360067 
0.0008318540667314499 
-0.16059574724238 
-1.380454734508088 
0.05069553093863357 
0.5982517089347524 
1.237677652312391 
0.1162608714824795 
-0.07012508454934065 
-0.3950563207315163 
-0.3700185197632945 
-0.3377418907836894 
-0.5964241708952954 
-0.2630293363876672 
0.1195787878822905 
0.2596716872405585 
-0.2630293363876672 
-0.4182178883271301 
0.1239978154489475 
1.599622058524481 
-0.410999213300855 
-0.5936760385731863 
0.2163066246243305 
0.06441329206318802 
0.2717146170314497 
-1.634794512022886 
-0.3231341891555767 
1.185552115929692 
0.4744256926576307 
-1.442162326028722 
0.1195787878822905 
-0.2961784479364452 
-0.0855916268189594 
0.2011027985917319 
-0.9389362355128523 
1.30949767764064 
-0.444267040812207 
-0.0855916268189594 
0.3916025670357975 
0.3657356588649046 
0.5152810271547588 
-0.8030733704793178 
0.4238869127844174 
-0.1574391662972209 
-0.1574391662972209 
-0.1574391662972209 
-0.1574391662972209 
-1.165245072672415 
0.2733646568098333 
-0.5100460435781686 
-0.3553262473596641 
-0.1329932104993711 
-0.240532205270538 
-0.1329932104993711 
0.1194469156948072 
-0.1329932104993711 
-0.4026692866092657 
-0.5159507659448276 
0.1222264427142022 
0.1222264427142022 
-1.043047501140742 
0.1222264427142022 
0.1222264427142022 
-0.1574391662972209 
3.04796030544398 
-0.1574391662972209 
-0.1574391662972209 
2.137107096545547 
-0.1574391662972209 
-0.1574391662972209 
-0.1574391662972209 
0.4815613875323816 
-0.1574391662972209 
-0.1574391662972209 
-0.1574391662972209 
-0.1574391662972209 
-0.1574391662972209 
-0.1574391662972209 
0.148212719226322 
-0.1574391662972209 
-0.1574391662972209 
-0.1574391662972209 
-0.1574391662972209 
-0.1574391662972209 
-0.1574391662972209 
-0.1574391662972209 
0.2650904376729446 
-0.1574391662972209 
-0.1574391662972209 
-0.1574391662972209 
-0.1574391662972209 
-0.1574391662972209 
-0.1574391662972209 
0.1009589478661324 
-0.1574391662972209 
-0.1574391662972209 
1.27359123275026 
-0.1574391662972209 
-0.1574391662972209 
0.9759748789330114 
-0.1298886030084832 
0.194896820061836 
-0.3947798891573326 
-0.1815298448887006 
-0.1298886030084832 
-0.1298886030084832 
-0.1298886030084832 
0.9759748789330114 
0.13631751813028 
-0.8567550982713529 
-0.2866826132511821 
-0.3710250270289198 
-0.3710250270289198 
-0.1847300736346368 
-0.09992727954937018 
-0.3710250270289198 
-0.1298886030084832 
-0.6261036625034256 
-0.4650975654693392 
-0.3542724523746099 
2.182179928987705 
-0.02140109676954675 
-0.3542724523746099 
-0.6513047790063793 
-0.10844733612039 
-0.10844733612039 
-0.10844733612039 
-0.10844733612039 
0.194896820061836 
-0.8058757634684719 
-0.5766330595617931 
0.007568558512489007 
0.4330781989209671 
-0.2625187668393489 
-0.5064671826538276 
-0.4724466429696879 
-0.06985978522829588 
-0.4620234479535118 
-0.3840208479462211 
-0.2534621646939901 
-0.2218897429759884 
-0.2218897429759884 
-0.2199187123880502 
-0.3831536536800109 
-0.1984788987941772 
-0.1134514626899912 
-0.6057468847757705 
-0.2538374232626254 
-0.2538374232626254 
-0.6237847868021507 
-0.6006892703349241 
-0.7053714199745594 
-0.2523961178082909 
-0.5413991519521236 
-0.06694315838137503 
-0.5007437373325664 
-0.06694315838137503 
1.603451112065956 
-0.5609879536532754 
0.2677270702479948 
1.326928808796434 
-0.2681215556619354 
0.5627761559488915 
-0.1742900701301899 
-0.8016179195226 
-0.07182793504353875 
-0.4315012562671347 
0.4244246214575107 
0.5981168474437344 
1.361238844337222 
0.3601772201374839 
0.1296775314842898 
0.1601312764042924 
0.5508814872113043 
0.1558480832826655 
0.3705240212963879 
0.08302405593578449 
-1.795345633859959 
-0.481643098139638 
0.8512260729922425 
0.6524940621066795 
-0.01930628686224681 
-0.5331615269274839 
0.824542323819292 
0.4943987298829609 
0.7233381140731681 
-1.451888973081948 
0.4337591949286828 
0.4337591949286828 
-4.185514778833312 
0.2274689019464751 
0.4337591949286829 
0.4316598512463771 
0.4547088457778802 
-0.481643098139638 
0.3358899052979787 
1.144131358317696 
0.1832881815455012 
-0.0202830808174195 
-0.3943613378837043 
0.02106410017799727 
2.94938572925648 
-0.197139010306787 
-0.5503490791996955 
0.3146917075530396 
0.8689124196752647 
0.6749928872703894 
0.6917044851052242 
-0.7528337901683062 
0.6917044851052242 
-0.2630616822018451 
1.114348060084039 
-0.848021745346533 
0.5352239013188077 
0.2084532351731725 
-0.2756235628105058 
0.04568513085781482 
0.1220222740261625 
0.1533115110695144 
-0.4595758993009124 
-0.7528337901683062 
0.253051560900084 
-0.3393011711709129 
0.2698959561702648 
0.5926759547584247 
0.4098553149972042 
0.3198308863047756 
-0.221848254319102 
0.2056072088606477 
0.5090373874133454 
0.2698959561702648 
0.04333062856412793 
0.04333062856412793 
0.04333062856412793 
0.5926759547584247 
0.04333062856412793 
0.04333062856412793 
0.04333062856412793 
0.5360506080805711 
0.4202916884873445 
1.080304549325061 
0.04333062856412793 
0.04333062856412793 
0.4014349265174811 
0.04333062856412793 
0.1282466382671937 
0.04333062856412793 
-0.7551674448832296 
0.1335485438137427 
0.2722206336623498 
0.4704428371404416 
-1.132445106112421 
0.1584093191031388 
-0.4307172691960996 
0.08842738964954587 
-0.08725261456702882 
0.2161806144941403 
0.2039240958842056 
-0.526878848019736 
0.4098553149972042 
0.0133575336246504 
0.0144352374278418 
-0.3521366703001912 
0.7256244411315195 
0.1644429401137944 
0.2283801964235764 
0.8761516669883612 
-0.0847386458224586 
-0.3935288086310987 
-0.3331311161744508 
-0.3244059329701865 
-0.03738222611366057 
-0.1526403701574048 
0.3567858354948714 
1.612278578555794 
0.4620617726217576 
-0.0516405046478717 
-0.6933385191464819 
-0.3521366703001912 
-1.826631435568453 
-3.215530449729484 
-0.7733070908124393 
-2.028225608777159 
-0.116543221832291 
-0.005428598493598563 
-3.225601627726369 
1.734723475976807e-018 
0 
0 
0.06734349694693405 
-0.2027702159461199 
0 
0.1482121419604776 
-0.7733070908124393 
-0.006038419480794236 
-0.5584765057805473 
1.275991989593061 
0.1575571849918883 
-0.6310275599780044 
-0.3418552708055052 
-0.2407982864669105 
0.2437508372221116 
0.3698133646244922 
-1.734723475976807e-018 
0.8395502350198084 
0.1797179483216742 
0.8576906827940363 
0.4131333488786338 
1.235888023444228 
0.08577423351168778 
-0.5362021578238484 
0.1879891297933888 
-0.0221415710373356 
-0.0221415710373356 
-0.5794941005677612 
0 
1.179787129538767 
0.3259946793842737 
0.7954811973074187 
-0.476043222994377 
-0.1932804838108671 
-0.1796561505885249 
0.07463911836867442 
-0.2529464690401563 
-0.1796561505885249 
-0.1796561505885249 
-0.5588569381699567 
-0.1796561505885249 
-0.1796561505885249 
-0.1916208218116905 
-0.1796561505885249 
-0.1796561505885249 
-0.1966872541903762 
-0.1796561505885249 
-0.1796561505885249 
-0.1796561505885249 
-0.1796561505885249 
-0.1796561505885249 
-0.3257999774099321 
0.2851565793023509 
-0.1796561505885249 
-0.1796561505885249 
-0.1796561505885249 
-0.1796561505885249 
-0.1796561505885249 
-0.1796561505885249 
-0.1796561505885249 
-0.1796561505885249 
-0.1796561505885249 
-0.1796561505885249 
-0.1796561505885249 
-0.1796561505885249 
-0.1784351866833706 
-0.1796561505885249 
-0.1796561505885249 
-0.1796561505885249 
-0.1796561505885249 
-0.1796561505885249 
-0.1796561505885249 
0.3291727951680905 
0.05552391971648658 
0.05552391971648658 
-0.1796561505885249 
0.05552391971648658 
-0.1796561505885249 
-0.1796561505885249 
0.05552391971648658 
-0.1796561505885249 
-0.1796561505885249 
-0.1796561505885249 
-0.3250379773591591 
-0.1796561505885249 
-0.1796561505885249 
-0.1796561505885249 
-0.1796561505885249 
-0.1796561505885249 
-0.1796561505885249 
-0.1796561505885249 
-0.1796561505885249 
-0.1796561505885249 
-0.1796561505885249 
-0.1796561505885249 
-0.1796561505885249 
-0.1796561505885249 
-0.1796561505885249 
-0.1796561505885249 
-0.1796561505885249 
-0.1796561505885249 
-0.1796561505885249 
-0.2896966948291843 
-0.3621039886306534 
-0.224344594452147 
-0.3621039886306534 
-0.3205986083140238 
-0.3205986083140238 
-0.4452936430241177 
-0.205450356188101 
0.07116868931091012 
0.2032040530771575 
-0.3395821559584802 
-0.3128028773445765 
-0.5610089322569327 
0.8893352743565014 
-0.01252058356941175 
-1.15967338948542 
-1.119974631350404 
-0.1101613910997195 
1.445603573525993 
0.3362120334181634 
0.2930928605129166 
0.2930928605129166 
0.3220463160806148 
0.2930928605129166 
0.2930928605129166 
-0.1789936581425316 
0.2055647501817433 
-0.1319243481356227 
-0.4394152986686762 
-0.1319243481356227 
1.565067971313305 
0.3630306604575154 
0.4272654040771309 
0.04338771278378374 
0.04338771278378374 
-0.02769820903724059 
0.4639532583667982 
0.58034247885738 
-0.1044662712181575 
0.7102643992946234 
0.2930928605129166 
0.2930928605129166 
0.2930928605129166 
0.001707807135890488 
0.2157587768065651 
0.3573635722953054 
0.3178739777322444 
0.5099862040747302 
0.5099862040747302 
0.5099862040747302 
0.8898402627297118 
0.659645696566978 
-1.031242067174434 
-0.03697841434830677 
-0.1511058646127834 
-0.03697841434830677 
0.6812030203743953 
0.515678012188788 
0.061260560539823 
-0.7008603376490376 
0.3707443652084951 
0.2787057590615285 
0.5786223710090275 
0.6812030203743953 
-0.2561787044069608 
-0.04469459004099508 
-0.04469459004099508 
-0.04469459004099508 
0.1644571173808211 
0.1644571173808211 
0.1644571173808211 
0.6525694047537837 
0.008760555284223875 
0.515678012188788 
0.3080755285438175 
0.5256333376825327 
0.4850039147166009 
0.04489489055301099 
0.3124172622419316 
0.5580360870799235 
0.1498243098652546 
0.1940885380075684 
-0.1239950636775527 
-0.2952431234143407 
-0.257558242974631 
0.2478937972920892 
-0.2125236357484431 
-0.2333612983809185 
0.363681057951929 
0.15976232649916 
0.15976232649916 
0.15976232649916 
0.9885644328289552 
-0.07884502712768556 
-0.07884502712768556 
-0.3614489648236928 
0.1652434004683424 
-0.3614489648236928 
-0.2650257717654141 
0.2478937972920892 
-0.3614489648236928 
-0.2650257717654141 
0.2059334254754999 
0.1458226447295022 
0.04048915370873084 
-0.6123409841470537 
0.0626827678472794 
-0.8208050369288886 
0.0626827678472794 
-0.2125236357484431 
-0.1648243895164417 
-0.1706795038942055 
-0.3282520393062549 
0.4262901005578977 
-0.1674118406709689 
0.3828876087226617 
-1.116808079636196 
0.1491720766353927 
0.3594617318604363 
0.6236337761378255 
0.3221729510706383 
0.3314585408736607 
0.08198848016473878 
-0.2540849059272045 
0.3697983305334811 
-0.1637397451826362 
-0.690657407413114 
-0.9899717377622608 
-0.5869179887515226 
-0.2540849059272045 
-0.4389632184046509 
-0.2811665606617336 
0.4974333781922252 
0.5056043869787493 
-0.1129142679657399 
0.6602618734458505 
0.797906802673589 
0.2320132041701649 
0.4964646488820879 
0.1125076766477945 
0.5426520823819145 
0.1125076766477945 
0.177972346645859 
-0.3658573486643919 
-0.1637397451826362 
0.2997244792469722 
1.138600264943262 
-0.4797075931754408 
-0.08768481337407751 
1.082694259085932 
0.08742574295070318 
0.2162894188849951 
0.8574718862019782 
1.141477309267273 
0.8379721946039243 
-0.1283467933650739 
-1.789816144706937 
-0.2574642500676785 
-0.1473325263941357 
-0.2056944891092919 
1.327673029425484 
-0.3877654818558022 
-0.2742618657870109 
0.3981883788986251 
0 
-2.207609369450335 
0.7290530876361047 
-0.3877654818558022 
6.071532165918825e-018 
0.05855802895713162 
0.1156922087638646 
0.9619778057332241 
0.1031638991412262 
-0.3845061432128163 
0.2030419762944599 
-0.2738323236121796 
-0.7763427402213735 
0.5401106574689446 
1.656078158187823 
-0.1526946525741312 
-0.3857281046812945 
0.2414175654731543 
-0.1191127347862381 
0.4105455478226759 
0 
-0.07870965265804769 
-0.02498405422907827 
-0.02498405422907827 
-1.522276531104197 
-0.0952196963414188 
0.4479778768824868 
-0.07949925522090311 
0 
0.646869985758301 
0.03036634689937707 
-1.125967837497928 
-0.2421198814187142 
0.1838410460677362 
1.030494654638271 
-0.08567715322815954 
-0.05376779300110462 
-0.1353780746972327 
-0.2081520583292366 
-0.2595863459276137 
0.2980953302465597 
-0.2813964503947056 
0.2441231191965857 
-0.08424867297820528 
0.2613124233951609 
1.048568327757763 
-0.2582097668922221 
-0.3238095744894587 
0.7189940415509913 
0.2886081139950371 
0.3148292355919676 
-0.09315475819235851 
0.1353508420279449 
1.139754565208087 
0.116772374986768 
0.003540495804996286 
0.1725360700860837 
0.3593863842516095 
0.4716490314140184 
0.3921384813448405 
0.5182431630450761 
-0.05866316243519015 
0.03594400977163627 
0.03594400977163627 
0.9526647494874569 
0.0009711099111229071 
0.2187691351496312 
0.1064794414680098 
-0.3927470762997224 
0.6819842713658763 
-0.1364185603630067 
0.003095278240989378 
0.4409779149249546 
0.7841798822200888 
0.4177736454294235 
0.104715793719144 
0.4774219070550464 
0.4774219070550464 
0.1175282233204391 
-0.01912683696114488 
-0.01912683696114488 
-0.01912683696114488 
-0.01912683696114488 
-0.01912683696114488 
-0.01912683696114488 
-0.01912683696114488 
-0.2952073229328264 
-0.01912683696114488 
-0.01912683696114488 
-0.01912683696114488 
0.2243275156020268 
-0.000979266798351075 
-0.01912683696114488 
0.1439144489627161 
-0.000979266798351075 
-0.01912683696114488 
0.5288434301622381 
0.04130293497699702 
0.02613696158130401 
-0.9427178844617133 
-0.2190608020659437 
0.1175282233204391 
-0.04065056735335914 
0.2408477892112987 
0.01448578945471305 
-1.116948599345655 
-0.08040359598610004 
-0.5706430900772435 
-0.01912683696114489 
0.1947150670954108 
0.3366436446180409 
-0.3473745564897793 
-0.01912683696114488 
-0.01912683696114488 
-0.01912683696114488 
-0.1314967630642832 
1.947725271339486 
1.481365468549633 
-1.268080435390293 
0.1856593294963266 
-0.112087762039189 
-0.112087762039189 
0.1726872761982327 
-0.2002845171624922 
-0.1314967630642832 
0.296630153245519 
0.09134636090974085 
-0.2070838576488458 
-1.02268996502054 
0.1955522389986176 
0.04576903393900433 
0.6577494676986494 
0.4647604625714631 
0.2681708281291186 
0.5386653614637313 
-0.3795474298473177 
-0.7286449207878601 
-0.2848939034893968 
-0.4061567888896295 
-0.3795474298473177 
-0.3732951575723024 
-0.1915452896525139 
0.9922771574762137 
-1.006021182677718 
-0.2279185601776968 
-0.5097166307612602 
-0.2848939034893968 
0.4237106335812069 
0.3549471909322433 
0.1440407529361283 
0.3588059854255239 
-0.7481804257453028 
-0.541514805968217 
-0.9600218621372143 
-0.1319538931364223 
-0.06379041437410134 
-0.7704372789206395 
0.2960856339427725 
0.1032609401395947 
0.1032609401395947 
0.4234041395861739 
0.1032609401395947 
0.1032609401395947 
-0.8635669833951603 
-0.02645587215594197 
0.3077015350854478 
0.2086767205069894 
0.4860329596694552 
0.3086360538805466 
0.486807801378707 
0.3769479222907181 
0.2483230173207038 
0.582438965687299 
0.1344451473347773 
0.4221868186560904 
-0.2380380066228549 
-0.1261851342501089 
-0.1261851342501089 
-0.2660708942094447 
0.1516574316459036 
-0.9196305412578926 
0.5714024085569989 
-4.77048955893622e-018 
-4.77048955893622e-018 
-4.77048955893622e-018 
-4.77048955893622e-018 
0.1565618094938609 
0.1565618094938609 
5.204170427930421e-018 
0.07019694828105753 
0.1565618094938609 
5.204170427930421e-018 
5.204170427930421e-018 
5.204170427930421e-018 
0.1840568490968844 
0.1565618094938609 
0.1565618094938609 
0.1565618094938609 
0.1565618094938609 
0.1565618094938609 
0.1565618094938609 
-0.2767941516438895 
-0.2767941516438895 
0.1565618094938609 
0.1565618094938609 
-0.2767941516438895 
0.1565618094938609 
0.1565618094938609 
0.1565618094938609 
-0.4642138817650102 
0.1565618094938609 
0.1435458516874661 
0.08716950378025869 
0.1435458516874661 
0.1435458516874661 
0.1435458516874661 
0.1435458516874661 
0.8500996236763854 
0.235437721283369 
0.1435458516874661 
0.1435458516874661 
0.1565618094938609 
0.1565618094938609 
0.1565618094938609 
0.1565618094938609 
0.1565618094938609 
0.1565618094938609 
0.1565618094938609 
0.01555626945444685 
0.1565618094938609 
0.1565618094938609 
0.3611655973292646 
0.1565618094938609 
0.1565618094938609 
-0.05339711923610038 
0.1565618094938609 
0.1565618094938609 
0.1565618094938609 
0.1565618094938609 
0.1565618094938609 
0.1565618094938609 
0.1565618094938609 
0.1565618094938609 
0.1565618094938609 
-0.04961868370688452 
0.1565618094938609 
0.7480755980792034 
0.1565618094938609 
0.1565618094938608 
0.9020361822414641 
0.1565618094938608 
0 
0.1565618094938608 
0 
0 
0.1565618094938608 
0 
0 
0.1497541006602285 
-4.77048955893622e-018 
-4.77048955893622e-018 
-4.77048955893622e-018 
-4.77048955893622e-018 
-0.5519262245505588 
0.06582312970519819 
-0.03449388101287963 
0.07469755680993431 
0.07469755680993431 
-0.1115467152284354 
0.03562189495671733 
-0.1318675459745572 
0.9827295972153299 
0.0319351913254357 
-0.1336468739450468 
-0.7171464100117042 
0.1945219243820104 
0.9972798131792379 
-0.1146161274237701 
0.3175866179284567 
0.499652114022566 
0.3888111923918808 
1.502378563395824 
-0.1548715174638765 
-0.1623298618341286 
-0.1167304856629049 
0.3051953732065974 
0.7853233198963155 
0.7485719771442799 
0.6448599158750016 
0.846401183792837 
-0.01371288895059077 
0.4335124881134911 
0.4541236269268589 
-0.4533416181513043 
0.5170547003154661 
1.530000525523618 
0.2385809674536583 
-0.1104062541351427 
0.05359719595712913 
-0.4480107017159363 
-0.3754410100578839 
-0.2310417460134817 
0.5077134906789115 
-0.6376720452924756 
-0.2722029098660334 
-0.6258043600105855 
0.05378952462606255 
0.6438062984407916 
-0.4505083203210131 
-0.1668043132006054 
-0.6222176708980609 
0.0713824480863272 
1.343104088313358 
-0.5784253071964023 
-0.341276572543924 
-0.2411597977786162 
-0.5562871036532922 
0.09758569751112903 
-0.6607746148327528 
0.736459783208164 
0.4487405394762893 
0.08271746617435735 
0.1320643434762228 
0.3570995207833972 
-0.771590136782616 
0.3099549105573948 
-0.2031593837679416 
-0.8732977630213611 
-0.300483638886547 
-0.0180990100342646 
0.2989285057726037 
-0.2690336008384901 
0.3266227402717886 
0.3266227402717886 
0.600673629802496 
0.01582411684053312 
2.929823806730973 
0.2595358460464666 
-0.3379640036359315 
0.244848572406555 
0.08848347089545978 
-0.3957460765498709 
0.2664880503033786 
0.1215490263611018 
0.02697123792149442 
-0.07133229122434173 
-0.03138550478222387 
-0.08228370974572102 
-0.3153588362918826 
0.5351691018030355 
-0.2181782120608073 
-0.347397032989093 
0.4368941602772873 
-0.117144097152137 
0.08848347089545978 
0.5030439465567879 
0.1459599637101407 
0.3842240253285157 
-0.02333535192365293 
0.1085935090803927 
0.5849589499043187 
0.7481342744045011 
0.4413924555705682 
0.1987400689395468 
0.6349605670725467 
-0.09535773879804579 
-1.468259625864692 
-0.09535773879804579 
-0.357639201036856 
-1.734723475976807e-018 
0.3231232364023131 
-1.754172781536052 
-0.09418450852615128 
-0.09418450852615128 
-0.1865443123218221 
-0.09418450852615128 
-0.3147023104351328 
-0.0412063941499302 
-0.04677101697977828 
1.013865427703903 
-0.2615760377119558 
0.284117601772315 
-1.290582447725758 
0.4198595812176841 
0.4198595812176841 
-0.3682126386924668 
1.631314063907374 
0.03706771121894315 
-0.2172386648986463 
-0.3121690818742167 
-0.7334504400058749 
0.17701844451535 
-0.3522588464350041 
-0.6810693190923784 
-0.2365957472567569 
0.06727205665261671 
-0.9203128528069934 
-0.2154476705898037 
-0.1008302858591412 
-0.1198989330198319 
-0.2044614882219829 
0.3250589344239849 
-1.086961108429737 
0.0285742960666744 
0.2343947835541635 
0.2343947835541635 
0.193279555681099 
-0.1057814488399007 
-0.005534417296237198 
-0.7613265177603715 
-0.3916896313524389 
-0.7318986339510282 
-0.6810693190923784 
-1.021573305596705 
-0.2365957472567569 
-0.1077815026392763 
-0.3249461728692895 
-0.6904245822689593 
-0.5553841446041336 
-0.5553841446041336 
-5.176033078394487e-005 
-0.2810685194063662 
-0.2810685194063662 
-0.2631757797090246 
-0.3044704659907229 
-0.2220235435993864 
-0.5369940249850661 
-0.4042069861303434 
-0.06154932365948505 
-0.6927797950954495 
0.4591089355031834 
-0.1218890205296286 
1.044726115784758 
-0.04023952329134489 
-0.09282963243048385 
-0.7727047876103428 
-0.211921666937646 
0.9992287126838638 
1.523215678337298 
0.2054942011395066 
-0.3251441989880203 
-0.3419528503503334 
-0.4313658213258783 
0.1082445629589859 
0.1082445629589859 
0.02210120649857122 
-0.04122732326998908 
-0.04122732326998908 
0.1990175129139991 
0.4171795649587744 
0.3574411442851248 
-0.2785016387881876 
-0.2775189369186679 
0.02668658955149259 
-0.1728103608894709 
-0.681488448439459 
0.02668658955149259 
0.02668658955149259 
1.699577238178979 
0.4985780484323368 
0.228834647053188 
0.4763347210008072 
0.8360383096406746 
0.2570105151658633 
0.5233612117718592 
0.575760509047908 
0.9107767263216506 
0.2812865356240127 
0.6678232809213007 
-0.2130269387100659 
0.0965769016450396 
-0.1335782267943615 
0.2812865356240128 
0.2155311388862798 
0.5731608774748197 
0.3611678536702814 
0.3611678536702814 
-1.485803777380099 
1.50749544896878 
-0.01456565180754492 
-0.6780992074146626 
0.04999751170883604 
0.8731749577119137 
0.01064904209737759 
-1.158920969326468 
-0.1665181816083317 
0.3569128770579834 
-0.6139632363702896 
0.3569128770579834 
0.3569128770579834 
-0.2052689956070818 
0.002373335205125256 
0.5397126485977588 
0.6236964981364709 
-0.1713812607909838 
1.187676915270827 
0.4814317505372187 
0.2949912140389586 
0.4267708544932888 
0.4267708544932888 
-1.055196022447279 
-0.2510814256003913 
1.187676915270827 
0.4814317505372187 
0.6006291614401472 
0.4048511064840554 
-0.2812928893873642 
-0.2812928893873642 
-0.4749839425641055 
-0.4659661509197679 
-0.4762386983200138 
-0.1284304421816698 
-0.9235057684168569 
-0.5859514192246949 
-0.1680534849116289 
-0.4749839425641055 
-0.3465464419358978 
-0.5878577279818185 
0.4939662813492275 
-0.2373326857423402 
0.8322802708321702 
0.6539427236871269 
0.2001454961829182 
-0.01605494652930546 
-0.2638839006869584 
0.1786576581788913 
0.269253576615181 
-0.5878577279818185 
0.3962252703614732 
0.5450286773349846 
0.2275735851866358 
1.033348124375988 
-0.1724549935346948 
0.7458220858241778 
-0.05672778460953281 
0.2275735851866358 
-0.165184087176943 
1.01708292323101 
1.13183212370908 
-0.2058642019400836 
-1.248373186433428 
-0.4416980975838827 
-0.1192688624112375 
1.033348124375988 
1.021468764479729 
-0.1137425523467556 
-0.1137425523467556 
0.2271407138045468 
0.3312466612122469 
0.7668106433556926 
-0.01549174770413774 
-0.1511842892364065 
-0.0319564393004682 
-0.3559298106724728 
-1.06682324793645 
-0.5356430025177141 
-0.1724549935346948 
-0.1458382450920276 
0.3628857470562353 
0.03750356421476304 
-0.03903421666713795 
-0.1030680913746449 
-0.1846581561834319 
0.5701375431471543 
0.1607618502757325 
-0.7344680054149415 
-0.4777297443765197 
-2.205449259616527 
-0.9324731466044413 
-0.5210541990191455 
0.512687195737555 
0.4637508724571294 
-0.3692134643993875 
-0.1458382450920276 
-0.1458382450920276 
-1.306646300498859 
-0.3279163072591324 
-0.2495489345838172 
-1.48109024868812 
0.0611648937638638 
-0.683294582878921 
-0.112253031123899 
-0.2920477861482064 
-0.7416678460848827 
-0.1514858488736761 
0.7145941422054634 
-1.00759673212797 
-0.4515011610937775 
0.2070258649919552 
0.2964133757938362 
-0.7417605981958412 
0.3551271245003707 
-0.4801864165071358 
0.4951326721975272 
-0.1751936954246599 
0.05936532847445314 
0.05936532847445314 
-0.7605717825939206 
0.2868018663798739 
0.2868018663798739 
-0.6832935170251582 
0.2868018663798739 
-0.2184183573652578 
0.3402101067691463 
-0.03411680499261826 
0.07622874005043535 
-0.02539584679776239 
-1.00759673212797 
0.03745548222439706 
-0.1871276618288256 
-0.2107428619820238 
0.3508551066903033 
-0.003256142434974001 
0.02800809121147892 
-1.258159715476988 
-0.03404953455243966 
-0.01065905954893543 
0.1403415857336382 
-0.8911413670569963 
0.6371686411859376 
0.6599858339555943 
-0.07184303116317828 
0.09106336833190343 
1.210045296360869 
0.03200787809134666 
0.3300335701669193 
-0.2947364347461932 
0.2534749497379721 
0.1560387045668615 
0.3508551066903033 
0.0553614729435281 
-0.5205137576035938 
0.1471045794848888 
-0.07511751361760635 
0.1044410102565665 
0.6154935177025884 
-0.3512392296264171 
-1.99120765204407 
-0.4057202225764627 
0.02403262420310977 
-0.2514392600412925 
0.6973618756164205 
-0.01965199301672696 
-0.366435083755191 
-0.1286538369344008 
-0.6660216209587645 
-0.09082147535676372 
-0.2668187153046507 
-0.02141048367097582 
-0.1010570779024379 
0.1719921627772245 
0.006954358065374315 
-0.09004181480018289 
-0.09004181480018289 
1.283814253038353 
-0.7972579902053932 
0.118964209062736 
-2.016210839282328 
0.8695849753818787 
0.2449405299753484 
-0.3187901276901544 
0.4099434006204112 
0.09345957487208109 
-0.1618317738530074 
0.5452150073043707 
0.141443931649914 
-0.1365865025307496 
0.4650125724767947 
0.1777692994941886 
0.1777692994941886 
0.2346069958392895 
0.2604081743517815 
0.8695849753818787 
0.1777692994941886 
0.1777692994941886 
0.3078961349030435 
0.187263653465012 
0.5016926256052083 
0.3337224889467632 
0.5779611409450431 
1.221780463329956 
0.02219239581210536 
-1.048773747126535 
-0.154488914335298 
-0.5724809034821986 
-0.1694062412707783 
-0.4568052990700374 
-0.1694062412707783 
-0.01092246045630476 
0.08851350575417367 
0.118847078330214 
-0.3271568489851193 
0.2699808874760448 
0.113173904377419 
-0.3559150232771088 
-0.9402907224855689 
-0.185898902992006 
-0.4112013429512447 
0.113173904377419 
-0.004562085635587943 
0.113173904377419 
-0.1632463509184513 
0.113173904377419 
0.113173904377419 
0.3773455254714304 
0.111249392359985 
0.111249392359985 
-0.1043953261465363 
-0.1043953261465363 
-0.2876211715848569 
-1.048773747126535 
-0.2904716213267458 
-0.6536736208994194 
-0.2424092900538009 
-0.5604121746206089 
-0.3109544765093298 
0.2147205613025818 
0.1047557096699381 
-0.1503552817089013 
0.3044873442291241 
0.3029867088035201 
-0.07640795081056233 
0.08581683811085529 
0.2700403198348608 
1.181619538893425 
0.5731989248265749 
-1.042432435954113 
-0.2160470679142925 
-0.2160470679142925 
-0.7049995250237319 
-0.1739203254458534 
-0.4562490739310322 
1.088631289284044 
-0.8187649207131427 
-0.03212893266319352 
-0.1266276352390335 
-0.752021330513916 
-1.013529336625774 
-0.1992523464246637 
-1.449828407747189 
0.5605506159219871 
-0.2812093889399206 
0.6495673538436112 
0.1059942118654857 
0.1059942118654857 
0.1059942118654857 
-0.2984825761312838 
-0.07208871849429838 
-0.07208871849429838 
-0.64100893274894 
-0.2658217452445861 
-0.299072807369425 
0.002798967215634877 
1.894513400890328 
0.938132096858683 
0.2374824426307089 
0.079563681871783 
-0.3691935385376889 
-0.3691935385376889 
-0.1305537517699666 
-0.1305537517699666 
-0.3950856919477622 
-0.1305537517699666 
-0.1305537517699666 
0.1591643921345276 
-0.2863804495756424 
0.5669773266307153 
0.5930593491285123 
-0.1694224340771109 
0.5844761552486348 
1.395838662535885 
0.5727538639511123 
0.1050397501540426 
0.07003656373202158 
-0.2124528829675483 
0.3093811688889698 
0.06052939334108667 
0.3093811688889698 
1.013562987216713 
0.7011860187487191 
2.438204233860872 
0.4396325422356286 
0.345899673764604 
-0.2038531547477172 
-0.9465745726298106 
0.5669773266307153 
-1.435280771850034 
-0.4025470451780283 
-0.4904975596880554 
0.2286893641516199 
-0.7081704088047867 
-0.7192539553460491 
-0.2979792749265555 
-0.2979792749265555 
-0.5463279450119447 
-1.815309196283104 
-1.234102809385671 
-1.527638414181153 
-0.5938168430747087 
-0.4531153335743947 
-0.4568539076020666 
-0.718798802545274 
0.5356060845938621 
-0.7303374134076816 
0.3517128581066462 
0.06968988766039268 
0.06051396944163558 
0.06051396944163558 
0.3517128581066462 
-2.010463060243287 
0.3667352064702942 
-0.2536564319929395 
1.063045213636964 
-0.2253200200411548 
-1.112388642976313 
-0.4440519081947074 
-0.5666893300460517 
-0.4380226340801683 
-0.2649188509841164 
-0.5678847548939635 
-0.3308638592711783 
0.205952937774098 
0.01301595780639475 
-0.009710394236508128 
0.1565618094938608 
0.1565618094938608 
0.1565618094938608 
0.01301595780639475 
0.01301595780639475 
0.01301595780639475 
0.01301595780639475 
0.01301595780639475 
0.01301595780639475 
0.01301595780639475 
0.01301595780639475 
0.01301595780639475 
0.01301595780639475 
0.1589891958067108 
0.3962135505099422 
0.2039614598220161 
-0.8700350545113512 
-0.628882943489902 
0.1565618094938608 
0.1565618094938608 
0.1565618094938608 
0.1565618094938608 
1.403163138385564 
0.4575296003190462 
1.145529510069699 
0.6752525326249168 
1.478588119782864 
0.3972401672284087 
-0.02147992050269804 
0.4004914201998568 
-0.04107368083884651 
1.403163138385564 
-0.04107368083884651 
0.3030779941407574 
0.4341640879742956 
0.2546641258783346 
-0.09418752721828798 
0.1170783476870446 
0.2021004082165997 
-0.03774141387018105 
0.6000158650661857 
0.4280027368978689 
0.08505600927815915 
0.3437666276125817 
0.1132328423894822 
0.3437666276125817 
0.1132328423894822 
-0.7325832372705056 
-1.794658273475755 
-0.04683133622870715 
0.3343319760085869 
-0.07209369765276959 
-0.05645652097083991 
-4.336808689942018e-018 
-0.7303236321013794 
-0.04378893374187276 
0.09188553425316243 
0.1873615913679126 
-0.04378893374187276 
0.3001517210533323 
-0.04378893374187276 
-0.06090056455567793 
0.08847897207270558 
0.08847897207270558 
0.2303179031857544 
0.4436038215074606 
0.2303179031857543 
-0.4073035331001272 
0.3292799459663013 
-0.07730613703152542 
0.574621182863182 
0.2303179031857543 
-0.1872362800839235 
-0.02918418019034346 
0.2008486953524546 
0.2550188579492936 
0.2550188579492936 
0.05326508735060505 
0.2550188579492936 
0.2550188579492936 
0.2550188579492936 
0.2105885221448129 
0.2550188579492936 
1.584453913870132 
0.2466097901524141 
0.3024030747637378 
0.4439044660122064 
0.199954400871641 
0.6029149132658189 
0.217277521835695 
0.217277521835695 
-0.008761130874629715 
0.5032724225775492 
0.217277521835695 
-0.008761130874629715 
0.2559783087038572 
-0.1655215761575497 
0.1709079222453916 
0.1356285530234871 
0.1356285530234871 
0.770350444351576 
0.1356285530234871 
0.2071699930654618 
-1.036935687568258 
0.4333769131407515 
0.7592795069398881 
0.1407261959648164 
0.1407261959648164 
0.07589795863259022 
0.07589795863259022 
0.4166321512721335 
-0.6466701608503778 
-0.07587278946825672 
-0.06177810362544425 
0.4591826109773686 
0.113604663615837 
0.02416267849160365 
0.3071855827951424 
0.6294345800215679 
0.335095544987303 
0.335095544987303 
0.2857489400033389 
0.1380886003040222 
-0.4277031730270612 
0.2338445732551705 
-0.1977032960885065 
-0.2439975071216496 
-0.2439975071216496 
0.04871582742186897 
0.04871582742186895 
1.639354393362847 
-0.3735173487013131 
0.1380886003040222 
0.01155891343501503 
0.03987026100500899 
-0.2449347125072083 
0.08817457991586043 
0.2567133104040416 
-0.4350920221191659 
-0.3430709660849637 
-1.012596114562661 
0.1916484318631901 
0.008214856560799785 
0.008214856560799785 
-0.01489760059609146 
-0.01489760059609146 
-0.01489760059609146 
0.364405299401853 
-0.3364323097750034 
-0.5488612200061034 
-0.3364323097750034 
-0.5488612200061034 
-0.4364150663578967 
-0.2706101288130218 
-0.1927994828849069 
1.904770998161127 
1.405069397438298 
-1.124515714892353 
-0.3870496310782417 
-0.3393147207269007 
0.6446364008098209 
0.75813675983054 
0.4354868765800128 
0.4354868765800128 
0.4354868765800128 
0.4354868765800128 
0.4354868765800128 
0.3729484778706254 
0.3492661481406423 
0.3101631251864919 
0.3729484778706254 
0.4407172849053258 
0.2831503097257371 
-0.1927994828849069 
0.2955439989563864 
-0.4708511017447052 
0.097170454797815 
-0.3855692148148847 
-1.311343636283145 
-0.4361644514945765 
-1.404141633069689 
-0.4699681289376999 
-0.8939332944941971 
0.6746219951237761 
-0.5333431693764869 
-0.4708511017447052 
0.2272004488354502 
-0.3280453760686073 
0.02246675478458129 
0.1956840155007809 
0.1956840155007809 
2.139728014322485 
0.3784326217861454 
0.3004028301922864 
0.06163187780117312 
0.01073617258205116 
-0.8264971317420365 
0.4669533354501453 
0.1162671049166268 
-0.1218428730301279 
-0.07343487946869405 
0.1605011160959782 
0.5171384880020994 
0.5123149640812413 
0.2779359194124607 
0.3945242145279303 
0.2664593649801137 
-2.818925648462312e-018 
-2.818925648462312e-018 
-0.4394973651432923 
-1.241224725769193 
-0.8247760835253651 
0.00745465237567943 
0.00745465237567943 
0.2664593649801137 
0.00745465237567943 
-0.1796934180740319 
0.3945242145279303 
-0.1383197707303147 
0.0134414646066191 
0.876097619339303 
-0.2024752691270572 
1.153050817982678 
0.1866505947231986 
0.1051326400783939 
0.2600022557100324 
0.1051326400783939 
0.1051326400783939 
0.1486170431140647 
0.1051326400783939 
0.1051326400783939 
0.1051326400783939 
0.394146132031043 
0.1499484199605785 
0.5363958462884595 
0.04417360416479659 
-0.2916994308042917 
-0.4597932509393483 
0.6569225538398656 
-0.3347817240526753 
-1.697335130300719 
-0.1905675149245481 
0.2071050180802752 
0.3496959992618388 
0.1546118809733496 
-0.3801731168939577 
-0.0213526043968852 
-0.1705569563923413 
0.1929593607371989 
0.3096575802984853 
1.12951933543326 
0.633418063325639 
0.118338980129953 
0.4077008132587585 
-0.935281274130405 
0.8516637611079996 
0.2683325777299977 
-0.1829807935203919 
0.02858648699869762 
0.4725227028856805 
0.1649986643183178 
0.6027242814023669 
-0.1874845663247286 
0.3786969025011078 
0.391806056167087 
-0.5176217939030247 
-0.7811537964703207 
0.1928403100005051 
0.1928403100005051 
0.1928403100005051 
0.1928403100005051 
0.1928403100005051 
0.1928403100005051 
0.1928403100005051 
0.1928403100005051 
0.1928403100005051 
0.1928403100005051 
0.1928403100005051 
-0.009581655703969041 
0.1928403100005051 
0.1928403100005051 
0.1151217618685135 
1.047080901264334 
0.9493323278052898 
0.1928403100005051 
0.1928403100005051 
0.8521685610791931 
0.1928403100005051 
0.1928403100005051 
0.1928403100005051 
0.1928403100005051 
0.1928403100005051 
0.1928403100005051 
0.1928403100005051 
0.1928403100005051 
0.1928403100005051 
0.1928403100005051 
0.1928403100005051 
0.1928403100005051 
0.1928403100005051 
0.7205177064719112 
0.1928403100005051 
0.1928403100005051 
0.1928403100005051 
0.1928403100005051 
0.1928403100005051 
0.1928403100005051 
0.1928403100005051 
0.1928403100005051 
0.1928403100005051 
0.1928403100005051 
0.1928403100005051 
0.1928403100005051 
0.1928403100005051 
0.1928403100005051 
0.1928403100005051 
-0.4416418959711461 
0.09617506499859246 
0.1928403100005051 
0.1651910923895538 
0.1928403100005051 
0.1651910923895538 
0.1651910923895538 
0.1651910923895538 
-0.2935462239898816 
0.1651910923895538 
0.1651910923895538 
0.1651910923895538 
0.1651910923895538 
-0.835188325048999 
0.1578508526564938 
0.1981264227046486 
-0.04168713614322939 
-0.4744559935707504 
-0.1083549364435596 
-0.2660685884890862 
-0.5467498867448225 
-0.7690875121294226 
-0.3253528088360951 
-0.6338130278380585 
-1.839974933479715 
-0.1435252247532523 
0.7760155166019234 
0.7760155166019234 
0.6621203728008296 
0.009556900306503016 
0.4997284807454386 
1.729935630793025 
0.6326552368360215 
0.2801378994738352 
0.2801378994738352 
-0.4785790188584517 
0.2877694128207093 
0.3542110343750323 
0.2921528273413418 
0.2921528273413418 
0.1951244045433208 
0.2921528273413418 
-0.1765904136870594 
0.188507345726 
0.06363893799775792 
0.06363893799775792 
0.5535164594654601 
-0.00594898384652891 
-0.1073445820260743 
-0.1073445820260743 
0.9525988795489875 
0.501947411249139 
-0.1702525634340966 
-0.05424388067753055 
-0.06080564050504319 
-0.4549806675516828 
0.6830878702380064 
-0.359944452162194 
-0.2145617673326372 
0.3310249218812 
0.2929894648989347 
0.163684060062385 
0.7406616434060163 
-0.1955438556442939 
-0.1955438556442939 
-0.1955438556442939 
-0.2368162455244963 
-2.022023854164744 
-0.114187681944585 
-0.5078920354940343 
-0.9660036025609642 
-0.2528306103554893 
-0.3642705166655383 
-0.2612472501292957 
-0.2612472501292957 
-0.2017729376735004 
-0.2017729376735004 
-0.2017729376735004 
-0.213642902782206 
0.2011687748604584 
-0.4594870982657743 
-0.1328440111546351 
0.1491096839323649 
-0.1616914210440544 
-0.4596520393154404 
0.08556932680030957 
-0.394159221589614 
0.04317277618146551 
0.1386373480240564 
-0.278655207775357 
-0.1415945863257103 
0.07296063478411513 
1.583909458875342 
0.3633801568492058 
0.3633801568492058 
-0.04260098876918745 
-0.06898887518475584 
-0.1638185429547546 
-0.401851310543978 
-0.6513985526255636 
-0.6284658386061075 
-0.2776526293658886 
-0.04361470063928657 
-0.1118751718292933 
1.27290777644765 
-0.4651501717456672 
0.3899650364172637 
0.06055613440806737 
0.2026600153502494 
0.06055613440806737 
-0.1992732907334604 
-0.06229930546978229 
-0.5206977984365011 
-1.450786388744333 
0.1714442826773866 
-0.04536399721414697 
-0.04536399721414698 
-0.03909489064702542 
-0.01807472439015739 
-1.070929516129687 
-0.09229964577896944 
0.02149957067809428 
-0.08205323178021536 
-0.08441288840610747 
-0.08441288840610747 
-0.7531742125404072 
-0.9930281316035851 
-0.1319834835454721 
2.289749487278798 
-0.1540703545835746 
-0.717696622143288 
-0.1222311713358502 
-0.7795069962601512 
-0.02718509435242274 
0.190230354865904 
-0.2955320615989788 
0.619630590786307 
0.4028708013897285 
0.2055506672104648 
-0.5206977984365011 
-0.157166991477788 
-0.157166991477788 
-0.1441571521911513 
0.1632150077667011 
0.05258804356329094 
0.5337213098546985 
-0.8926906758680272 
-0.3009798880136285 
-0.6075336867324015 
-0.09390922814313643 
0.1730497675967806 
-0.0003198603415041697 
-0.0003198603415041697 
-0.3096734347753112 
-0.0003198603415041697 
-0.0003198603415041697 
-1.5832546414912 
-0.0003198603415041558 
-0.0003198603415041697 
-0.0003198603415041697 
-0.0003198603415041697 
-0.0003198603415041697 
-0.0003198603415041697 
0.02277967951006275 
-0.1206897675898746 
-0.0003198603415041697 
-0.0003198603415041697 
-1.032495104337969 
-0.0003198603415041697 
-0.0003198603415041697 
-0.0003198603415041697 
-0.0003198603415041697 
-0.0003198603415041697 
-0.0003198603415041697 
-0.0003198603415041697 
-0.0003198603415041697 
-0.0003198603415041697 
-0.0003198603415041697 
-0.7996805717507142 
-0.0003198603415041697 
-0.0003198603415041697 
-0.0003198603415041697 
-0.0003198603415041697 
-0.0003198603415041697 
0.950223575608095 
-0.1856782653170193 
-0.6005756785937108 
-0.0003198603415041697 
-0.0003198603415041697 
-0.0003198603415041697 
-0.0003198603415041697 
-0.0003198603415041697 
-0.0003198603415041697 
0.2198294505165747 
-0.7595767084636396 
0.2327467712253858 
0.07200574917607328 
-0.3811256767996394 
-0.8137824952410672 
-0.194178095888113 
-0.9062731042550027 
0.5642092613220162 
0.3230901258032409 
-0.02861034786702241 
-0.04710918254492626 
0.7822187658399888 
0.06236742970491326 
0.1846207179562613 
0.7919938273767866 
-0.5315681085971632 
1.067702443218417 
-0.3259020391784734 
-0.3639743618121818 
-0.5587170721727435 
0.06387002860818128 
-0.3434344245442929 
-0.7405252007417056 
0.3209641503499725 
0.3209641503499725 
-0.01067072986445898 
0.3520002293117117 
0.06387002860818128 
0.06387002860818128 
-0.1108757466194643 
0.186966847059922 
0.3996696920395956 
-0.008822826362399628 
-0.8486701493212112 
0.06822852027563818 
0.1800354482299549 
-0.485838757602404 
0.3756081655073658 
0.3266797168668484 
-0.03932339870943733 
0.1105281462682109 
0.6097873163436628 
0.8790040469566756 
0.4594481918739485 
-0.4987071573960715 
0.4292776654286323 
0.2828648900203636 
0.4350169298906678 
0.304645231983445 
0.219209033959523 
0.219209033959523 
-0.4394954027272773 
0.119484025196298 
0.1105281462682109 
-0.3295109380388579 
0.1105281462682109 
0.08576896185715321 
0.2683753514635137 
-0.581676709925558 
0.3604667360781474 
0.07126045203495746 
0.3604667360781474 
0.767769259133551 
-0.1287300903461607 
-0.8174154796422147 
-0.5209782685880459 
-0.5209782685880459 
-1.050654141382675 
-0.3690953796115957 
0.4597687956664822 
0.2327786684157725 
0.8846950699420397 
-0.1093359639269904 
2.449102762466767 
0.3623336149988783 
0.3623336149988783 
-0.1729894664148689 
-0.1729894664148689 
-0.525362850216069 
-0.3419092928392624 
-1.484150766179569 
-0.4727069646249774 
0.09209609565721839 
-0.7542085850535466 
-0.04642842781356917 
0.4927243199548605 
0.4578400954058135 
-0.0002546786619117573 
0.01076379440832966 
0.2701609885818548 
-0.9886273418707542 
-0.133926769044824 
0.715176976742417 
-0.4089113900450043 
-0.9180318353850288 
-0.419164110348339 
-0.1116400717809758 
-0.1240544236697169 
-0.1240544236697169 
-0.4030539379156874 
0.0488616356119763 
-0.7209040472869717 
-0.06649038974226253 
-0.9936247387636258 
-0.3596916284670748 
0.2606538528636863 
-0.2916580025442959 
0.02519528863986638 
-0.9038757595184689 
-0.6796383727001125 
-0.7412477761295668 
-0.3184686608128446 
-0.5191131853950496 
-0.1783443067444709 
0.09350964729949202 
0.3777841045196939 
-0.1835606406072138 
0.5572621553107413 
0.008330293568543763 
0.09350964729949202 
-0.3214743903663953 
-0.4486816433791296 
-0.3822771384101603 
0.05380462319369072 
-0.2444138714525601 
-0.5280928482892355 
-0.9316789495544553 
-0.1783443067444709 
-0.1903287920804569 
-0.2128813829734476 
0.2741243261102965 
-0.6519597162770626 
-1.144014753617753 
0.5290317700363577 
0.3679276000983918 
-0.01048647670575081 
-0.01048647670575081 
-0.01048647670575081 
-0.01048647670575081 
-0.01048647670575081 
-0.01048647670575081 
-0.3456889102221159 
-0.01048647670575081 
-0.01048647670575081 
-0.01048647670575081 
-0.01048647670575081 
-0.01048647670575081 
-0.01048647670575081 
-0.01048647670575081 
-0.01048647670575081 
-0.01048647670575081 
-0.01048647670575081 
-0.01048647670575081 
-0.01048647670575081 
-0.01048647670575081 
-0.01048647670575081 
-0.01048647670575081 
-0.01048647670575081 
-0.01048647670575081 
-0.01048647670575081 
-0.01048647670575081 
-0.07513383658987315 
-0.01048647670575081 
-0.01048647670575081 
-0.01048647670575081 
-0.01048647670575081 
-0.01048647670575081 
-0.01048647670575081 
-0.01048647670575081 
-0.01048647670575081 
-0.01048647670575081 
0.02144517090621093 
-0.01048647670575081 
-0.01048647670575081 
0.1074770939596587 
-0.01048647670575081 
-0.01048647670575081 
-0.01048647670575081 
-0.01048647670575081 
-0.01048647670575081 
0.1109480167965914 
-0.01048647670575081 
-0.01048647670575081 
0.2033075225095671 
-0.01048647670575081 
-0.01048647670575081 
-0.01048647670575081 
-0.3911158787084665 
-0.01048647670575081 
-0.01048647670575081 
-0.01048647670575081 
-0.8324148941860792 
-0.01048647670575081 
-0.01048647670575081 
-0.01048647670575081 
-0.2655626815819301 
0.1400297324225382 
-0.03744175267450347 
0.7477273776897033 
-0.03744175267450347 
-0.01048647670575081 
1.716883240900623 
-0.2478830457118226 
-0.01048647670575081 
0.1548071811133067 
-1.144014753617753 
-0.04451904958071876 
-0.01048647670575081 
-1.873408721767742 
-0.04451904958071876 
-0.01048647670575081 
-0.502875956039998 
-0.1455110148484539 
-0.01048647670575081 
-0.01048647670575081 
0.2236966695386407 
0.2080460644309633 
1.249854852211325 
0.01790899008769775 
-0.4817401825280712 
-0.9376381554108325 
-0.1916600931897736 
0.1400759126099584 
0.1400759126099584 
0.1400759126099584 
0.1400759126099584 
0.1400759126099584 
-0.5876323760365274 
0.8978113170801958 
0.6659208028841961 
0.4110607755192243 
0.3281470288156593 
0.0002922052773467203 
0.2128029517923915 
-0.8133131849935514 
-0.6227788912813425 
0.5309513461438119 
-0.2934945697709393 
0.4937101313424032 
0.3042387181543479 
0.9192974199122017 
-0.8738454081218342 
0.7265808632024747 
0.7265808632024747 
0.616599574602129 
0.616599574602129 
-0.4568086007707183 
1.375387921812184 
0.150485839799888 
1.528346243103782 
0.09216794208683089 
1.297932718172254 
-0.6117331307143498 
-0.3415868450062574 
-0.4732376422442393 
-0.1513118782149018 
-0.2507398431672658 
0.3393977510165854 
-0.1025602903606995 
-0.4721903270960612 
-0.7060660602910552 
-0.7060660602910552 
-0.7060660602910552 
-0.7060660602910552 
-1.037736454162763 
-1.292936943859095 
0.5972439213168043 
-0.101089370038193 
-0.2420287008240882 
-0.3659490612038342 
-0.02889858119990685 
-0.02889858119990685 
-0.0145710793569182 
-0.256393766347663 
0.1209128287104802 
0.2535361121641926 
-0.2420287008240882 
-0.2420287008240882 
0.01261090783790447 
0.01261090783790447 
-0.4277666570198285 
-0.4311439169599493 
0.3112048681807998 
-0.276135457475459 
0.1453152856623195 
0.1463138152235212 
-0.3659490612038342 
0.1514438905692721 
0.4471302709340855 
0.1475477911057876 
-0.2047821135509761 
0.1078410290033547 
-0.01118876961289993 
-0.01118876961289993 
-0.5516072077011311 
-0.2047821135509761 
-0.4337544691641931 
-0.4156870124541576 
-0.4562875274687437 
-0.9841666565678549 
-0.3531926159909942 
-0.0329794832746645 
0.2598543988683029 
0.3598541188382666 
0.6170972208233015 
0.3520691845410215 
0.8752629765836987 
0.1176965474318675 
0.9465925074976482 
0.5094218668481597 
0.2598543988683029 
1.238119742030696 
0.1688994225236231 
-0.548921146038647 
0.7104351881997724 
0.7971052980445033 
0.4031775496230484 
0.8722514169030734 
-4.797594613248357e-018 
-1.173648851715559e-017 
-0.1261970512622317 
-0.1261970512622317 
0.02628484111160388 
0.09159270421752667 
0.4031775496230484 
0.1445764031638027 
0.253445925755424 
0.2355147343422485 
-0.3795701860798969 
0.8722514169030735 
3.035766082959412e-018 
0.09684926573994701 
-0.05106790854889848 
0.1566796884906516 
-0.5616262256162042 
-0.1850730467169531 
-0.1850730467169531 
0.04165441993404092 
0.1383074373542055 
0.1383074373542055 
0.31702456766376 
-0.2890753301615692 
-0.5939041931306879 
-0.4691237006853226 
-0.5523847832506929 
-0.3775868549720701 
-0.358678717382819 
-0.2139493791520415 
-0.7439007117708184 
0.9855162767184673 
1.834883281953556 
0.1919089620332102 
0.1919089620332102 
0.1134164023640113 
0.3691314213209622 
0.4669379134517045 
1.110709891956141 
-0.3018830114818423 
0.3853125317617056 
0.3853125317617056 
0.3853125317617056 
0.2802835881246639 
0.2802835881246639 
0.2802835881246639 
0.9855162767184673 
0.5685642943322217 
0.5685642943322217 
0.7608327662343799 
0.5685642943322217 
1.834883281953556 
0.06270859194539644 
0.5512136033579902 
0.1919089620332102 
0.1919089620332102 
-0.1776388653101607 
-0.1235786587986216 
-0.3034987467488785 
-1.307325768810282 
0.3708173871807926 
1.116736896784754 
0.01132427245281549 
0.01132427245281549 
0.01132427245281549 
0.2758123831890229 
-0.01696082439477816 
-0.5507009550456957 
-0.6080783038019656 
-0.3162324802812147 
-0.6080783038019656 
-1.724702060064533 
-0.9727178240687678 
-0.6450870860873346 
-0.64215356361371 
-0.2947071060954581 
0.0563557242300219 
-0.3776389251416145 
0.03701379819740772 
0.8264948600824876 
0.1103548593208539 
-1.02163381443793 
-0.914758952576491 
-0.8691205647783328 
0.4922046338545028 
0.1872393066831306 
0.2744436318276707 
-0.4468247312017909 
0.1999503707689537 
1.441158250856388 
-0.1910869830271427 
-0.1910869830271427 
0.1691271382167218 
-0.4544510205257252 
0.7142160314785798 
0.4914413014774914 
-0.1884781247150374 
-0.3136258987316199 
-0.3023029848852865 
-0.3136258987316199 
-0.3136258987316199 
1.01734948339693 
-0.3136258987316199 
-0.3136258987316199 
0.112550952503007 
0.2229588645857465 
0.3424713419987485 
-0.1216008556461602 
-0.3192126580705225 
-0.03161460971394364 
1.246745842602249 
0.1417426008254273 
0.3807785750532646 
-0.3192126580705225 
0.02761324660205475 
0.02761324660205478 
-1.006702893758442 
-0.4094563323657688 
-0.4094563323657688 
0.4735517274375192 
0.4876057594888075 
0.2142142449889281 
0.1502685015814942 
0.3992048727887107 
-0.8116030949097526 
-0.2945642791021664 
0.05091609004580469 
-0.01930604904890586 
-0.06078272778483868 
1.074354116324418 
-0.03633677198698897 
0.1032529932970709 
-0.06247873160160765 
-0.1483282533230649 
-0.4339707754267241 
-0.9888436148632094 
-0.0103570663321091 
0.05949940703464945 
-0.1339810264007721 
-0.2841836345922063 
0.07780378626019426 
0.07780378626019426 
-0.09366717970012174 
0.07780378626019426 
0.3992048727887107 
-0.079465278542419 
0.1472099676786005 
-0.1469935768666532 
-0.8518816896453059 
-0.805125469599959 
0.1029925174514737 
0.06916529285593623 
-0.5919839550587207 
-0.265678059084084 
-0.2918031094514043 
-0.8518816896453059 
-0.1725686629422656 
0.02604296415408301 
0.6436828327103139 
0.1218371953517096 
-0.03999236064941803 
-0.2692232761725882 
-0.2692232761725882 
0.04489605253513662 
0.008354027353508296 
0.7407530267779106 
0.5998321710629158 
0.2022848631475442 
0.2022848631475442 
0.2022848631475442 
0.2022848631475442 
0.4265401274912297 
0.1027246127332661 
-0.3275277530744254 
0.799835972867007 
0.3624545520522782 
0.3624545520522782 
0.5112437542705589 
-0.8555637563638466 
0.366866623244919 
0.5956600845884437 
-0.1564050973979378 
0.2472782473927772 
1.05286573071085 
-0.1991188753829667 
-0.01402249654579028 
0.5977354987332652 
1.223738388322181 
-0.1062961805362436 
-1.585604417195103 
-0.1655623887876146 
0.9127939400072562 
-0.8909706914153901 
0.2002108086401876 
-0.059870481129902 
0.6259822168629138 
1.05286573071085 
0.3909229946657002 
-0.2326505337014966 
0.1382870547615858 
0.9877986852834819 
-0.07931957319223948 
0.1997234588191481 
-0.1746939239653043 
0.1099254235819371 
-0.4258626620954396 
-0.1957143359616442 
0.118827952278078 
0.118827952278078 
-0.03936831428801138 
0.1899689819417815 
-0.1788019610016136 
0.126917075506616 
0.126917075506616 
0.007596964270146969 
-0.9300944389227838 
-0.8522373312451397 
1.143454346853796 
-0.7605046632671101 
0.429883369166327 
-1.709214910143588 
-0.1561661090729198 
-0.9686357597435101 
-0.6469596575653199 
-0.3680429198122916 
-0.3680429198122916 
-0.3680429198122916 
-0.3680429198122916 
-0.3680429198122916 
-0.3680429198122916 
-0.3680429198122916 
-0.3680429198122916 
-0.3680429198122916 
-0.3680429198122916 
-0.3680429198122916 
-0.3680429198122916 
-0.1561661090729198 
-0.3680429198122916 
-0.3680429198122916 
-0.3680429198122916 
-0.3680429198122916 
-0.3680429198122916 
-0.3680429198122916 
-0.3680429198122916 
-0.3291983578449549 
-0.3291983578449549 
0.3564225337092318 
-0.2710093871944638 
-0.3291983578449549 
0.3564225337092318 
0.3564225337092318 
0.3153148094471694 
0.3564225337092318 
0.3564225337092318 
0.3564225337092318 
0.5265182684078438 
0.2120866118416233 
0.2558377903352394 
-0.4998988771885439 
-0.4998988771885439 
-0.1785730745738831 
-0.1785730745738831 
-0.3291983578449549 
-1.330992750712132 
-0.49466148072397 
-0.3291983578449549 
-0.3680429198122916 
-0.4621366034209098 
-0.3291983578449549 
-0.3680429198122916 
-0.3680429198122916 
-0.3291983578449549 
-0.3680429198122916 
-0.3680429198122916 
-0.3680429198122916 
0.5719598135841367 
-0.02346736171774213 
0.5387002371155651 
0.2770305316609344 
0.4868616241788401 
-0.6827112569072837 
-0.3299916414702526 
-0.1565662636174958 
-0.1565662636174958 
0.5437422251713958 
0.03567665682192916 
0.5709145243347079 
-0.09374850473050886 
0.1412283720187836 
-0.05663373269901986 
-0.7513148735864461 
-0.6029750541236719 
0.2114434442856288 
-0.3073795390544433 
1.210648015060414 
0.5709145243347079 
-0.05663373269901984 
0.5053820098345695 
0.2649011449030573 
-0.3382530423220703 
-0.03515034774322269 
-0.03201912760219435 
-1.1126838037356 
0.5462182984106156 
-0.5047101675589972 
-0.5866899753035385 
0.2812963253742637 
0.6114809314537035 
0.3136380677564587 
0.1457717398662888 
0.7961390577014197 
0.7961390577014197 
0.3961950719086824 
0.7961390577014197 
0.3961950719086824 
0.215097497007446 
0.5730588228951595 
0.5426594168418875 
0.6114809314537035 
0.6114809314537035 
-0.03161694234709218 
0.6114809314537035 
0.6114809314537035 
0.6114809314537035 
-0.1433331291041488 
0.8131168821044151 
0.6114809314537035 
0.6114809314537035 
-0.3479565304332639 
0.3653983013537364 
0.6114809314537035 
0.6114809314537035 
1.080852338196093 
0.7172447432205817 
0.1369697524266337 
0.1621452945312925 
-0.08758846229024997 
-0.07939215763144426 
0.3099352835939951 
0.3155119051345628 
-1.571463072690233 
0.4603214377193139 
-0.1158267523799874 
0.3056528385155988 
1.125645644784867 
0.1058240889265193 
-0.8119972100615698 
-1.369554034304812 
-0.324882665430014 
0.8422048850655441 
0.8194021936563224 
0.5523161430846653 
0.2619533628762489 
-0.2778824459586448 
0.800604265545189 
-0.1447888073401878 
-1.058846390711451 
0.5441965770655781 
-0.1654360035079869 
-0.1219794543506677 
-0.3097546314515821 
-0.8945661837208209 
-0.6205399890135185 
0.1776086596669511 
-0.2532977268903668 
0.4008606463904868 
0.3533075702648676 
0.3533075702648676 
-0.005455451635140983 
0.5871530612457659 
0.2755709678471353 
-0.3922313425577694 
-0.5222849124279453 
0.1483348387145239 
0.0440365953375373 
0.1783846673173028 
0.1456277576837817 
-0.730831640144998 
0.2601263743315861 
0.0727518681908224 
0.09067042776794888 
0.8487569398488238 
0.1348067277290379 
0.9504222115149812 
1.581223038588449 
-0.2981445667063578 
-0.02100389358133749 
-1.137148443138047 
-0.3128592620790902 
0.1221989488709398 
-1.283579256518876 
0.3259342451672855 
0.01845393247110146 
0.3187056832476565 
-0.9687840151130577 
-0.03452852414940513 
-2.650982229517948 
-1.059624086925909 
-0.6154295778275971 
-0.6154295778275971 
-0.9324761236768324 
-0.8271169825219672 
-0.9709035310254279 
1.336068909695642 
0.5754685257083839 
0.4014724257370914 
-0.4645333596112418 
0.2554187593416325 
0.4014724257370914 
0.0535302698481873 
-0.8118861426020854 
-0.5105210606941791 
0 
0 
-0.1471319575434683 
-0.1129830954956424 
1.433498162818844 
0.003155145615327263 
-0.4994125734918404 
-0.1778416228882064 
-0.1778416228882064 
-0.1778416228882064 
-0.3329679308060382 
-0.2061804932007454 
-0.157446411716344 
-0.05004301565076851 
0.3046209499647554 
-0.05004301565076851 
-0.09743997894489197 
-0.1197916087407489 
-0.3684893754123946 
-0.1935504249452373 
-0.2601601163598017 
0.2016805715522377 
0.549169254285061 
0.4968891319534914 
-0.3497066709441077 
-0.2470781051308101 
-0.289086016790304 
-0.5333675036378163 
-0.6383172872305515 
-0.308338180966216 
1.116735305514925 
-0.3283509387896785 
-0.1106269642034102 
0 
-0.382626215752661 
-0.1239104280067212 
-2.160687047699205 
-0.1239104280067212 
-0.1595541372027961 
0.2157727688702612 
-0.04507204882070128 
0.1479975080569175 
0.2159497210248994 
0.117440601921047 
-0.553049175837056 
0.3365990500001688 
-0.1595541372027961 
-2.160687047699205 
0.1065406049470433 
-0.2341479289548433 
-0.6107498772599842 
-0.6107498772599842 
-0.1801911403494242 
-0.1801911403494242 
-0.2360721125557552 
-0.8928513283675315 
-0.349845828000156 
-0.8928513283675315 
0.1304737148601951 
-0.782716102297944 
0.7299361386534469 
-0.223861373877381 
-0.2837762632920669 
-0.05502052808599165 
1.402675565690153 
-0.416856790872433 
-0.07872464343590396 
-0.07872464343590396 
-0.6226772894352521 
-0.2315205023934069 
0.1964679627693899 
0.5318634095358177 
0.5013782238240305 
-0.1354126068068011 
0.3285870868674474 
0.4181576640300627 
0.4181576640300627 
0.2615482306083976 
-0.09971821647023489 
-0.09971821647023492 
0.2807393932729907 
-0.3813788314573534 
0.3114314089298611 
0.1964679627693899 
0.7455586946625401 
0.111436340265124 
0.5097013444153357 
0.7532090039782816 
-1.82596960367816 
0.8207048877592912 
0.5427746499772043 
-0.05667932485138339 
0.09004251644409682 
0.3917783551595747 
-0.1777572144623888 
-1.853689471166064 
-0.2589689982620472 
0.3629979222227584 
-0.003725490406926252 
-0.5802393134405176 
1.149254302834635e-017 
0.0005833361090850583 
0.8207048877592912 
-0.2916137698059458 
0.5543040510066788 
0.4082518356393188 
0.5630294837282763 
0.2774915602953226 
0.2984279834455619 
-0.07315269553359211 
-0.2846087428159219 
0.8341790066192113 
0.03194700053731676 
0.1833691840700459 
0.1833691840700459 
0.1182623195713841 
0.08038946613999881 
0.08038946613999881 
0.2720680861585567 
0.08038946613999881 
0.2720680861585567 
-1.121851271441242 
-0.2400439187246251 
0.343162915187633 
0.02357912164456397 
0.4050971749510561 
0.02357912164456397 
-0.3808516350924452 
-0.2735292099880535 
-0.2735292099880535 
0.1235251327407297 
0.008104646055282532 
-0.1061635303549529 
-0.2897514147765453 
-1.433982607511191 
-0.7833535354855191 
1.653979162864474 
-0.1460792365781729 
-0.2283264414036119 
0.1782945439412314 
-0.2971645992507676 
-0.2897514147765452 
0.08596485817592704 
-1.224701079966068 
-0.1192123192398717 
-0.1929413939537542 
0.05200042415265418 
1.156469283256042 
0.9832726195634336 
0.3100203676252939 
1.072552268626214 
-0.4857655244075387 
-0.009383450475032923 
-0.4388400222370931 
0.02476152251510007 
-0.09529930472154766 
-0.6178470961429661 
0.4061812068299169 
-0.2092730540258042 
-0.4572405339886749 
-0.5046160331851074 
0.1322755192561312 
0.1322755192561312 
-0.1212277140778625 
0.05935604205344849 
-0.2110811836288095 
-0.8291711511207534 
-1.066678182556256 
-3.469446951953614e-018 
0.1013403880594287 
0.4302018213258599 
-0.1883362245124712 
-0.09239463202796606 
-0.5393964537142533 
0.8081834898908114 
0.2819067028327404 
0.3246870135981861 
-0.3026063387839079 
-0.223832427627039 
-0.223832427627039 
-1.530148473903951 
-0.4620575741453739 
0.1188496559766607 
-0.3851909277291302 
0.7156412988905021 
-0.8127734664109311 
-0.4068663329203935 
-0.9357522014940171 
-0.09116380770658643 
1.073683918491404 
0.1504846120778098 
0.4878049196152784 
-0.379326974564226 
-0.3498394626438641 
-0.1239496996883257 
-0.223832427627039 
0.2276964779312303 
0.1655084789169455 
1.904537700043474 
-0.1031732398702994 
-0.3343620886781111 
-0.8941845986382431 
-0.03140740037645699 
-0.03140740037645699 
0.5687154080676019 
0.5687154080676019 
0.5687154080676019 
-0.622185022753887 
0.2562472344846996 
0.2562472344846996 
0.6722538290398022 
0.719129268109187 
0.1723475168698919 
0.3770861563128618 
-0.3187088215724992 
-0.6059395724874956 
0.5346784453111276 
0.4021646597730751 
0.6398508342278888 
0.5444789332531609 
-0.2995497616969266 
-0.4080719759778807 
0 
-1.114755531416759 
-0.8530606508618644 
-0.4461720147884056 
-0.5313725839380664 
0.0428340425122194 
-0.3866416560272776 
0 
0 
-1.379677579809219 
-0.3429718796898217 
-0.460729769499353 
-0.4080719759778807 
-0.2267527698900728 
0 
0 
-0.4048192618132157 
0.2925994250045979 
0.03992969528756216 
-0.1014812747456034 
-0.9152100193928725 
-0.04393834840008726 
-0.04393834840008724 
0.2814775419285778 
0.1498396010000978 
-0.3016916608658352 
0.3792811313846257 
-0.1392299579269926 
-0.7395390163959719 
-0.7395390163959719 
-0.4461720147884056 
0.3218324359463801 
-0.2288107333333758 
6.167365266279424e-005 
6.167365266279424e-005 
0.1562516242223937 
0.2089716606155099 
-0.2609762288818335 
0.4827651198993275 
0.00106363366645661 
-0.3572749008838134 
6.16736526627873e-005 
0.4197767811638879 
0.6490679523890136 
0.03328611112587778 
-0.2727005086305101 
-0.2727005086305101 
-0.6595265232541456 
-0.6595265232541456 
-0.6595265232541456 
-0.3677261297491388 
0.1134479281485842 
0.5504801784100397 
-0.04083029045112958 
-0.1090502838728601 
-0.1914656312166398 
-0.1090502838728601 
-0.8525954775356198 
-0.1090502838728601 
-0.04608153495246239 
-0.1962171999675677 
0.3429197332051602 
0.06434783764211756 
0.06434783764211756 
0.1218054641938809 
0.04554992686888337 
0.5552229982873655 
0.1236363555508342 
0.2438216044464028 
-0.2110174205317679 
-0.2110174205317679 
-1.421606086050484 
-0.2116048382879829 
-0.8779474702176309 
-0.2116048382879829 
0.3302216355892279 
-0.09872969081079724 
0.1500024199397375 
-1.06684299187088 
0.1236363555508342 
0.4314331773573446 
-0.1798080580250538 
-0.1798080580250538 
0.2824522341215218 
-0.4770700594465393 
-0.4770700594465392 
0.8974575074279688 
-0.2812108946739499 
-0.2553851886439942 
-0.082256190190701 
-3.903127820947816e-018 
-3.903127820947816e-018 
-0.1798080580250538 
-0.4639481909676045 
-0.2997632454644925 
-0.2997632454644925 
-0.2997632454644925 
-0.172505126497437 
-0.1622492034659722 
-0.1622492034659722 
-0.4339239957417365 
-0.1622492034659722 
-0.1622492034659722 
0.1190293206181442 
-0.02049507453997036 
0.220015480090007 
0.220015480090007 
-0.2997632454644925 
0.2756238498619992 
0.9350697964036087 
0.09853790737299967 
0.09853790737299967 
-0.133635155816234 
-0.1013841052019052 
0.08925657044493114 
0.3868970915740191 
0.3868970915740191 
-0.5675723181701491 
0.1304128090053303 
-0.2154911991986035 
-0.4155447400254888 
-0.6288053565908727 
-0.05009616614672226 
0.3253703165776926 
0.8707396904392242 
0.2768141857461002 
0.9685306160823352 
0.5797343098255532 
0.2385414795556894 
-0.1105300375844886 
0.07943260419325791 
0.1791454655153627 
-0.3084027666756702 
0.1454257894461975 
-0.3122126770441088 
-0.2363432202259927 
-0.06726238651144034 
0.2179689778286478 
0.7135157423964372 
0.7411572709828164 
0.0970620077876455 
-0.1069128972034586 
0.8594852765789564 
1.734723475976807e-018 
0.0555388788914004 
1.568476728212694 
0.1977905970724751 
0.5154868717423902 
0.2884827568127807 
0.0695899909001186 
-0.06539801162646713 
0.1573917033102398 
0.1573917033102398 
0.4048373658556067 
-0.5997211923058182 
-1.256829397193469 
-0.285435247100637 
0.2976141683090869 
0.3562309672678761 
0.5998897067899086 
0.3271081748232274 
0.2852480485103823 
2.307919151949066 
0.1681892954734383 
-0.09749628900732706 
-0.2489005097794778 
-0.1980339188929094 
-0.1980339188929094 
0.2592046779767571 
0.1640835488909712 
-0.8858116876299933 
-1.027993363783944 
-0.5786107185752345 
-0.5917744019779911 
-0.3399372019582287 
0.7019070387998696 
0.3399609488810147 
-0.5917744019779911 
-0.2725078274124001 
-0.9735508634510973 
0.1181823249660012 
0.3092746359875571 
-0.02014131450484092 
0.9398536121349713 
0.002273245344686705 
0.2945936417961813 
0.4335670686529459 
0.4335670686529459 
-0.6579007141937465 
0.0005395480801976987 
0.1696245850306755 
-0.577136173309134 
-0.2942428399209742 
-0.04682208157843828 
0.285761957983667 
-0.2577227263658763 
-0.3549777357348478 
-0.8735288936922464 
-0.2577227263658763 
-0.3840881139293257 
-0.2128713458289979 
-0.2756472028707462 
0.6174268045981206 
-0.3418698410974844 
-0.3988710175289061 
0.007016713212610664 
0.7989844757091047 
-0.07549828793352019 
-0.3226888979595278 
-0.3226888979595278 
-0.2577227263658763 
-0.5921241006238982 
0.4005916014936251 
-0.4904977386392753 
-0.07545030501862872 
-0.2577227263658763 
-0.2471014881777969 
-0.1236565090612955 
-0.05326373192532496 
0.3905589281045217 
-0.0863099354240182 
0.2222199330483707 
0.2014337223820722 
0.08148221441802792 
0.6686159926792299 
-0.2840988969602837 
0.657383717530481 
0.2222199330483707 
-0.1236565090612955 
-0.1236565090612955 
1.406484679355483 
0.6542302206683784 
0.4913735107684275 
0.2491500934714978 
0.2491500934714978 
0.2491500934714978 
0.2491500934714978 
-0.02027002734637937 
-0.02027002734637937 
-0.708373162894577 
0.0753947158328252 
1.10484107207211 
-0.3394015707883141 
-0.3394015707883141 
-0.3394015707883141 
0.03255966315656541 
0.3666060319270068 
0.3666060319270068 
0.8186555053506517 
2.254736233978257 
-1.030800559906316 
0.8186555053506517 
-0.201749521860569 
-0.1993664026609195 
-0.8728848529879035 
0.06404526936433606 
0.09960016458836601 
0.09960016458836601 
0.7012583311697298 
-0.2924886065882421 
0.5205287858301988 
0.2165032480063778 
0.2097666017088957 
2.254736233978257 
0.1275192907943696 
0.1876778656821084 
-0.01389563305726612 
0 
-0.2333299803835273 
-0.4122855688117967 
-0.2487069147732718 
-0.09721993926670094 
-0.9120117736359347 
0.1683068952029854 
-0.6716463215733834 
-0.03705308215780138 
-0.58143386445712 
0.077143450924121 
0.04690961118285598 
-0.4646249298282432 
-0.247597988882697 
-0.6286851151556299 
-0.2669891083789484 
-0.2333299803835273 
-0.4695346543687023 
-0.2654152741534017 
-0.3449952501769208 
0.5552265230406628 
-0.2487069147732718 
-0.1952726326471079 
0 
-0.03933530608930039 
-0.1460351706538161 
-0.08142386828418008 
-0.8428515910124449 
-1.199235474062329 
-1.772078007270239 
0.1592045260357847 
-0.4246910403953759 
-1.063323378821941 
0 
0.298105953961029 
0.2214585589767123 
0.1392445731797883 
-0.4114924684542189 
-0.3725830134638869 
-0.1231995337629088 
0.2385679217387877 
-1.321686032222383 
-0.7604314869004606 
-0.1349531196993431 
-0.1349531196993431 
-0.05379093727011265 
3.469446951953614e-018 
3.469446951953614e-018 
3.469446951953614e-018 
-0.1641628055443896 
0.2272102129726295 
0.4651636323852771 
-0.100354603134022 
-0.1744065668906758 
0.3304043068155644 
-0.1604166722438567 
0.08436976669520048 
-0.7694045678529307 
-0.3384585176628028 
1.304419169368987 
-0.8220665263076725 
-0.03070609833532757 
-0.3534414900434227 
-0.412194537443831 
-0.3534414900434227 
-0.412194537443831 
-0.2006272569247414 
-0.279898622756995 
0.1179919807540095 
0.1018203444891876 
-0.09872364499546728 
0.2165605970700968 
-0.3546337109148129 
-0.3546337109148129 
-0.0137329920434908 
-0.5200633338349194 
-0.5171000853428854 
0.6181733229334615 
0.7823540592119941 
0.2316523448636991 
0.1945748869751018 
0.983417849295307 
0.3979699636316015 
-0.1543639894505363 
-0.02293263043192738 
-2.241786185185997 
-0.1543639894505363 
-0.5245243081616177 
0.01072604667372599 
-0.5699228796179748 
-1.086767625831913 
-0.4194461449812402 
-0.1270961644443926 
-0.1270961644443926 
-0.08738932801185245 
-0.08738932801185242 
-0.08738932801185242 
-0.484209022545979 
-0.2792570202833152 
-0.2792570202833152 
0.418333327267598 
-0.4166659685987699 
-0.5671904638259603 
-0.280224870600868 
-0.9984471627864249 
-0.2004932164870106 
-0.4412697558434736 
-0.4412697558434736 
-0.908852786499552 
-0.2512741999507344 
-0.3432335177847166 
-0.3432335177847166 
-0.6898146938331999 
0.3760309050150933 
-0.6898146938331999 
0.3760309050150933 
1.363712512336172 
0.8295014350515887 
0.2025868579165356 
1.081244244931901 
0.260694335558361 
0.3696827128364126 
0.260694335558361 
-0.7201465593578855 
0.7562455318314326 
-0.1613871918640869 
-0.1613871918640869 
-0.3868603252167956 
-0.1613871918640869 
-0.4122014301954288 
-0.77943537281359 
0.178502341443699 
0.178502341443699 
0.7317541767311768 
-0.1737998136941038 
0.03998913136537433 
0.2176994956806893 
0.3760309050150933 
-0.9456161031564088 
0.6721895075766999 
0.1200211911164766 
0.8490707834742722 
0.1290087027372394 
0.6665446315388152 
-0.3441855087642985 
0.6400544224249867 
0.1541474027524547 
-0.9456161031564088 
0.3835286687993039 
0.09499960208705026 
0.7950187684912284 
0.2561963580229311 
-0.9284342717388615 
-0.5286360823322744 
-0.5286360823322744 
0.2708936690506429 
0.2708936690506429 
1.03705850237215 
0.2079062031510668 
0.1708649959158833 
0.05523247779333255 
-0.4230415856257834 
0.05523247779333255 
0.264121765037278 
0.4888359210551985 
-0.05298795478549932 
-0.05298795478549932 
-0.05298795478549932 
0.5263753604353089 
0.2121194297816356 
0.1003045266140338 
0.176702725296049 
0.9599830509449839 
0.1190819537836142 
